64 3 7 7 
-2 -1 0 19 14 4 -3 2 2 -28 -71 -69 -33 0 -1 15 75 150 133 65 16 7 -17 -76 -112 -69 0 14 -7 4 18 -13 -85 -107 -66 7 10 16 61 105 100 42 -3 0 -6 -16 -38 -21 -1 -2 -6 -8 9 8 0 -6 11 8 -26 -79 -80 -41 0 0 25 102 197 181 94 31 -1 -32 -107 -151 -98 -10 15 -14 -1 6 -38 -118 -146 -93 8 14 25 81 139 123 50 1 1 -4 -17 -37 -19 0 0 -2 5 22 22 8 -5 3 -4 -32 -75 -64 -33 -7 2 12 55 110 89 26 4 6 -6 -50 -68 -26 20 30 -7 4 25 15 -30 -65 -39 5 0 -9 14 61 62 30 0 0 -2 -14 -38 -30 -9 -1 -1 0 -1 -9 -6 -12 13 13 20 29 37 36 31 -1 0 9 13 15 20 29 -15 -20 -13 -24 -29 -17 5 -6 -31 -34 -39 -36 -28 -12 6 -4 -2 -2 -4 -5 -7 7 5 12 11 6 9 2 0 3 10 15 11 10 -3 11 17 33 55 73 68 53 -14 -5 7 19 35 42 45 -38 -46 -41 -51 -45 -25 4 -27 -64 -76 -82 -72 -55 -26 10 -8 -16 -21 -23 -17 -12 21 22 25 19 13 15 10 -4 -3 1 11 11 5 -11 8 10 23 47 66 58 42 -11 -4 6 22 38 33 34 -24 -26 -23 -26 -23 -13 7 -18 -48 -59 -60 -48 -39 -19 13 -6 -17 -18 -15 -15 -11 28 20 16 10 8 6 1 0 0 0 0 0 0 0 0 0 0 0 0 0 0 0 0 0 0 0 0 0 0 0 0 0 0 0 0 0 0 0 0 0 0 0 0 0 0 0 0 0 0 0 0 0 0 0 0 0 0 0 0 0 0 0 0 0 0 0 0 0 0 0 0 0 0 0 0 0 0 0 0 0 0 0 0 0 0 0 0 0 0 0 0 0 0 0 0 0 0 0 0 0 0 0 0 0 0 0 0 0 0 0 0 0 0 0 0 0 0 0 0 0 0 0 0 0 0 0 0 0 0 0 0 0 0 0 0 0 0 0 0 0 0 0 0 0 0 0 0 0 0 0 0 0 0 0 -2 -4 -2 -1 1 -2 -2 -7 -7 0 -5 -18 -16 -4 -8 -4 -6 -22 -35 -37 -8 -7 -1 -1 -10 -19 -26 -1 -9 -2 -2 0 -6 -14 1 -2 4 1 5 4 -2 2 -4 0 -5 -1 0 -4 0 6 0 2 4 6 3 5 8 5 6 -2 -18 -11 7 4 6 -2 -25 -43 -39 -1 4 7 0 -18 -32 -32 3 1 4 -1 -4 -13 -16 9 8 9 2 4 3 2 14 6 7 0 2 3 4 10 -12 -8 -1 6 14 10 3 -1 5 14 12 2 9 18 -2 7 3 -10 -24 -21 8 -1 6 1 -7 -19 -21 6 -4 1 -1 1 -6 -10 11 -5 0 -4 1 0 0 10 -6 -2 -7 0 1 2 7 0 0 0 0 0 0 0 0 0 0 0 0 0 0 0 0 0 0 0 0 0 0 0 0 0 0 0 0 0 0 0 0 0 0 0 0 0 0 0 0 0 0 0 0 0 0 0 0 0 0 0 0 0 0 0 0 0 0 0 0 0 0 0 0 0 0 0 0 0 0 0 0 0 0 0 0 0 0 0 0 0 0 0 0 0 0 0 0 0 0 0 0 0 0 0 0 0 0 0 0 0 0 0 0 0 0 0 0 0 0 0 0 0 0 0 0 0 0 0 0 0 0 0 0 0 0 0 0 0 0 0 0 0 0 0 0 0 0 0 0 0 0 0 0 0 0 0 -6 12 6 -3 -15 -6 -2 13 44 25 -5 -46 -31 -20 12 69 47 -4 -68 -56 -37 9 90 80 5 -79 -81 -53 3 88 106 21 -69 -84 -61 -5 62 90 43 -36 -57 -50 -7 43 62 44 -12 -28 -41 0 -9 -1 2 9 6 3 -1 -6 -6 6 2 10 7 -2 -6 -12 7 4 9 5 -4 -9 -15 2 9 7 10 -1 -13 -6 -5 9 0 6 4 -16 -9 -2 6 3 8 2 -12 -12 -4 -1 2 6 5 -10 -1 -2 10 -2 0 -4 -30 -22 6 25 34 24 -14 -51 -48 4 48 51 28 -9 -69 -72 -6 72 72 50 -3 -74 -80 -33 62 68 55 10 -56 -70 -43 31 46 53 12 -34 -47 -37 1 21 39 -16 -8 -8 -2 -5 -9 -20 -14 -15 -10 -2 -3 -12 -20 -12 -9 -2 14 19 1 -7 -5 5 15 58 71 36 -2 -11 -1 32 80 90 45 3 -11 -8 19 44 53 27 -2 -12 -9 -5 7 8 3 -3 50 40 32 23 21 34 48 36 16 5 -19 -22 -10 21 29 4 -21 -61 -66 -45 0 22 -13 -66 -115 -122 -85 -38 19 -24 -70 -135 -147 -103 -41 29 -18 -50 -103 -109 -78 -31 40 6 -19 -44 -52 -40 -5 -41 -24 -24 -15 -10 -19 -30 -20 -3 7 17 25 12 1 -20 6 27 40 48 33 16 -12 20 35 53 65 56 32 -10 24 49 56 62 57 46 -11 15 39 49 62 49 32 -22 7 25 46 47 29 19 0 0 0 0 0 0 0 0 0 0 0 0 0 0 0 0 0 0 0 0 0 0 0 0 0 0 0 0 0 0 0 0 0 0 0 0 0 0 0 0 0 0 0 0 0 0 0 0 0 0 0 0 0 0 0 0 0 0 0 0 0 0 0 0 0 0 0 0 0 0 0 0 0 0 0 0 0 0 0 0 0 0 0 0 0 0 0 0 0 0 0 0 0 0 0 0 0 0 0 0 0 0 0 0 0 0 0 0 0 0 0 0 0 0 0 0 0 0 0 0 0 0 0 0 0 0 0 0 0 0 0 0 0 0 0 0 0 0 0 0 0 0 0 0 0 0 0 -7 8 -6 5 -6 6 0 -5 5 4 5 -25 30 -6 -1 -18 44 -19 -38 58 -25 10 -58 115 -75 -35 81 -36 16 -76 144 -112 -12 72 -38 6 -45 90 -68 -7 49 -23 -11 3 30 -23 -24 33 -8 -5 14 -9 4 -15 3 1 -5 11 6 0 -39 33 -3 -2 -11 66 -41 -68 75 -20 6 -54 161 -119 -79 119 -29 12 -70 193 -164 -50 110 -32 6 -37 119 -106 -33 71 -17 -13 9 37 -36 -41 34 -7 -7 12 -3 5 -8 6 -2 -5 1 -1 9 -22 24 -6 -1 -18 29 -10 -28 42 -20 13 -54 90 -57 -22 57 -26 20 -70 118 -90 -3 47 -23 11 -45 71 -56 -2 31 -14 -9 0 24 -13 -20 24 -5 0 0 0 0 0 0 0 0 0 0 0 0 0 0 0 0 0 0 0 0 0 0 0 0 0 0 0 0 0 0 0 0 0 0 0 0 0 0 0 0 0 0 0 0 0 0 0 0 0 0 0 0 0 0 0 0 0 0 0 0 0 0 0 0 0 0 0 0 0 0 0 0 0 0 0 0 0 0 0 0 0 0 0 0 0 0 0 0 0 0 0 0 0 0 0 0 0 0 0 0 0 0 0 0 0 0 0 0 0 0 0 0 0 0 0 0 0 0 0 0 0 0 0 0 0 0 0 0 0 0 0 0 0 0 0 0 0 0 0 0 0 0 0 0 0 0 0 -1 -3 9 13 2 3 1 3 -18 -28 -23 -23 -6 10 -19 -39 -54 -63 -57 -31 -4 25 41 58 55 41 29 21 29 63 99 117 83 42 21 3 -11 -14 -17 -21 -18 0 -19 -43 -60 -65 -55 -23 1 -4 -4 0 2 -4 0 1 -4 -30 -53 -50 -47 -23 2 -24 -45 -68 -84 -78 -46 -12 41 66 84 78 59 44 32 44 90 131 152 112 62 37 5 -5 -11 -15 -17 -13 8 -19 -41 -67 -76 -61 -24 4 -12 -1 6 7 4 0 -7 3 -3 -16 -10 -7 -1 5 -13 -24 -37 -44 -37 -20 -7 17 23 32 27 22 19 10 17 36 55 70 49 22 9 2 -8 -17 -19 -16 -13 0 -4 -8 -22 -26 -18 -1 2 12 7 14 -10 -41 -21 16 7 19 39 36 -25 -64 -33 -16 0 48 93 64 -26 -48 -32 -53 -4 73 105 36 -13 -15 -61 -57 -9 50 39 5 14 -29 -42 -31 15 31 9 31 -5 -31 -40 -12 16 3 13 7 12 -16 -54 -30 14 6 24 44 45 -34 -83 -43 -19 1 57 119 80 -32 -56 -40 -57 1 97 129 41 -16 -25 -69 -60 0 63 43 6 5 -35 -50 -32 18 33 10 25 -8 -33 -41 -8 21 8 1 -3 2 -9 -34 -13 17 5 10 19 27 -20 -46 -14 -6 0 24 67 49 -22 -29 -15 -33 -7 44 66 17 -9 0 -28 -34 -12 19 11 -3 10 -8 -20 -20 3 11 -2 20 2 -13 -21 -5 18 10 1 2 0 1 4 10 13 6 8 8 12 16 15 14 7 11 13 16 13 7 5 8 -2 -11 -8 -21 -30 -28 0 -13 -23 -26 -35 -41 -36 5 5 4 0 -7 -2 1 5 5 10 14 8 9 10 0 0 3 7 6 6 7 2 2 6 12 14 10 7 2 4 7 11 8 3 2 2 -13 -21 -17 -28 -36 -33 -3 -18 -25 -26 -34 -41 -33 3 4 9 7 -1 0 5 3 4 11 16 8 8 11 0 -9 -7 -8 -11 -12 -9 -1 -11 -10 -7 -8 -10 -10 -1 -9 -6 -1 -1 -5 -4 1 -17 -21 -12 -18 -22 -22 -1 -15 -16 -11 -15 -18 -13 5 5 11 15 10 13 15 2 0 6 13 6 7 11 0 0 0 0 0 0 0 0 0 0 0 0 0 0 0 0 0 0 0 0 0 0 0 0 0 0 0 0 0 0 0 0 0 0 0 0 0 0 0 0 0 0 0 0 0 0 0 0 0 0 0 0 0 0 0 0 0 0 0 0 0 0 0 0 0 0 0 0 0 0 0 0 0 0 0 0 0 0 0 0 0 0 0 0 0 0 0 0 0 0 0 0 0 0 0 0 0 0 0 0 0 0 0 0 0 0 0 0 0 0 0 0 0 0 0 0 0 0 0 0 0 0 0 0 0 0 0 0 0 0 0 0 0 0 0 0 0 0 0 0 0 0 0 0 0 0 0 -14 -18 0 16 31 11 -2 -41 -34 -8 11 36 31 27 -50 -43 -21 7 42 40 38 -45 -49 -26 2 38 38 41 -40 -48 -22 0 36 37 38 -38 -47 -22 -1 29 30 34 -34 -46 -25 -1 24 25 32 -20 -27 -7 14 33 19 7 -52 -49 -19 6 37 38 38 -60 -59 -32 4 46 53 57 -55 -63 -36 2 47 58 67 -50 -62 -31 0 45 58 65 -48 -62 -32 -4 34 45 53 -39 -56 -33 -5 25 35 46 0 -15 -1 9 21 5 -6 -22 -33 -12 -1 17 15 16 -27 -38 -24 -6 20 25 28 -19 -40 -26 -6 24 32 40 -14 -39 -21 -6 26 33 38 -9 -37 -23 -10 15 22 29 0 -30 -19 -7 12 18 29 5 7 23 23 4 -57 -78 -4 5 42 97 112 50 -19 -11 -23 4 74 149 129 52 -14 -49 -66 -36 69 116 82 -13 -56 -91 -129 -72 9 38 27 -5 -46 -107 -95 -38 4 46 39 9 -55 -73 -49 -16 0 -3 -2 -9 0 3 18 -3 -1 -7 -11 -16 -19 -6 2 2 0 -12 -17 -27 -18 3 5 5 -3 2 -13 -15 -2 2 7 -3 2 -6 -10 0 3 10 9 17 11 0 2 9 16 14 14 16 16 0 -7 -15 -22 4 50 73 3 -1 -34 -79 -90 -31 25 7 13 -5 -71 -135 -112 -35 18 50 67 37 -50 -96 -55 11 45 92 115 59 -15 -28 -21 -1 40 92 88 36 -6 -39 -45 -17 38 51 29 6 -13 -14 -12 -3 4 1 -4 -7 0 2 21 37 28 14 -12 -2 7 38 50 36 24 -15 -4 9 37 52 45 24 -8 1 9 29 42 38 18 -11 0 1 16 20 20 12 -12 -3 1 11 9 4 1 17 9 6 -3 -4 1 4 11 4 -6 -13 -13 -9 -7 7 0 -15 -24 -29 -26 -14 -1 -9 -22 -42 -48 -34 -24 4 -4 -22 -47 -53 -35 -27 10 6 -15 -37 -43 -22 -6 10 6 -6 -21 -26 -14 -4 -1 4 0 -4 -4 -9 -8 4 8 2 8 10 3 1 0 7 5 16 14 4 10 -2 10 14 17 14 13 15 5 17 15 11 9 12 12 0 16 8 4 1 8 14 1 17 14 15 10 9 9 6 11 11 10 9 4 2 6 11 9 11 11 7 4 8 13 12 12 13 9 7 9 12 11 11 12 8 8 9 12 10 10 10 6 8 8 11 10 9 7 2 5 6 10 11 11 9 5 4 -10 -6 -3 -4 -6 -13 -13 -12 -5 0 3 3 -6 -12 -6 5 12 16 16 5 -3 0 10 17 19 17 6 1 -1 7 12 14 11 1 0 -4 1 6 7 2 -6 -5 -8 -4 0 3 0 -6 -7 -5 -6 -5 -4 -5 -8 -5 -11 -10 -7 -3 -1 -6 -7 -9 -4 3 8 8 0 -1 -4 1 9 13 10 2 1 -1 1 6 9 5 -2 0 -1 0 2 4 0 -7 -1 0 -1 1 4 3 -2 0 1 -2 0 -3 -4 -1 -6 -4 -2 -1 -1 -2 0 -5 -2 0 0 -5 -3 -2 -9 0 -1 -2 0 43 28 -7 -1 -1 -8 -1 48 30 -11 -4 -1 -2 -11 -3 -7 -15 -6 -5 -1 -6 -10 -6 -14 -2 -4 0 -3 -4 -1 -4 -6 -4 -2 -3 -5 -2 -5 -4 -3 -3 -5 -3 -2 -8 0 1 3 14 61 45 3 1 2 0 17 70 51 2 -4 1 2 0 9 6 -4 -4 0 6 5 2 8 0 5 0 4 5 6 9 4 1 0 0 3 4 6 2 3 -1 -3 -5 -3 0 -4 7 0 -1 4 50 37 2 6 0 -8 1 52 36 -4 0 -3 -6 -14 -8 -7 -11 -1 -3 0 -2 -5 3 -1 -9 6 5 21 23 22 10 15 23 19 28 30 19 -2 21 20 18 24 23 7 -16 25 14 12 16 8 -11 -24 11 2 0 2 -9 -32 -37 0 -6 -15 -20 -32 -52 -47 -12 -25 -32 -48 -54 -55 -29 -1 11 11 26 25 24 15 18 20 15 24 24 11 -7 19 15 15 22 18 0 -23 19 7 8 12 0 -22 -34 7 -3 -6 -3 -19 -43 -46 1 -7 -19 -26 -40 -59 -51 -8 -24 -32 -50 -59 -58 -29 -5 2 3 17 19 19 11 9 9 5 15 17 9 -8 12 6 7 13 15 1 -18 14 2 3 11 8 -9 -19 3 -4 -5 2 -3 -21 -23 7 0 -6 -7 -12 -27 -25 -2 -13 -17 -30 -32 -34 -11 -7 6 7 -15 -21 -11 15 -5 12 5 -41 -39 2 33 -1 20 -4 -70 -56 18 57 3 23 -9 -80 -55 35 73 2 20 -19 -74 -32 32 58 4 14 -21 -43 -7 23 50 -7 -2 -17 -19 2 19 40 -2 17 10 -15 -25 -10 19 4 25 3 -55 -57 0 39 8 30 -11 -92 -78 19 70 11 31 -21 -104 -69 48 96 6 23 -34 -96 -41 47 78 4 13 -34 -53 -9 33 64 -9 -3 -26 -22 0 19 44 -7 2 6 1 -10 -11 -3 -1 10 10 -12 -21 -1 5 -1 13 2 -33 -37 3 17 3 18 4 -35 -31 21 33 1 16 -4 -34 -15 18 22 4 10 -8 -11 2 8 17 -2 -2 -8 1 2 1 8 13 -2 -10 -17 -19 -4 3 2 -1 -8 -16 -14 -6 -5 6 12 13 6 5 5 3 3 13 18 11 13 15 11 0 8 16 17 16 21 20 -13 -7 3 9 13 13 6 -15 -12 -11 -8 -6 -3 -5 11 1 -11 -18 -21 -8 -1 9 8 -1 -10 -8 -2 -2 14 23 22 14 9 6 5 12 23 23 16 14 14 10 7 17 21 21 17 19 20 -1 7 16 18 22 19 14 -4 3 4 4 5 5 2 5 -3 -13 -20 -22 -9 -1 4 0 -7 -13 -11 -5 -3 9 12 9 5 1 0 0 1 8 5 0 0 0 0 -3 1 3 4 2 5 10 -6 -1 3 6 10 9 7 0 2 0 0 0 0 0 5 30 6 -22 -31 -5 8 24 37 13 -19 -31 -12 2 20 41 14 -26 -34 -11 2 13 43 12 -25 -34 -13 2 9 34 8 -18 -27 -8 3 0 28 2 -20 -21 3 3 -4 24 2 -21 -24 3 -7 22 35 5 -33 -47 -11 14 41 45 13 -37 -62 -30 0 35 50 15 -45 -67 -33 -3 28 50 11 -44 -65 -32 0 24 42 8 -34 -57 -25 1 12 29 0 -34 -44 -8 5 6 24 -1 -31 -41 -4 -3 2 13 -3 -20 -24 2 22 18 19 2 -21 -33 -10 8 12 20 2 -29 -34 -8 6 11 24 3 -23 -31 -8 9 12 21 1 -18 -26 -4 13 6 15 -3 -19 -21 6 13 5 14 0 -14 -18 9 2 59 44 5 -29 -26 -6 -7 43 1 -57 -88 -51 -6 3 6 -52 -105 -113 -40 36 31 -30 -89 -119 -77 52 107 54 -27 -56 -46 60 161 127 26 -9 -11 29 112 130 42 -61 -9 1 36 63 36 -54 -108 -9 4 10 13 3 4 0 2 17 17 17 7 1 -1 8 15 17 17 -2 -4 -16 7 16 10 -9 -15 -18 -26 4 10 -5 -10 -17 -21 -12 6 0 -11 -20 -24 -9 -1 0 -6 -19 -23 -9 3 13 -54 -46 -18 18 10 1 3 -45 -17 28 66 41 4 0 -15 29 89 111 34 -17 -19 18 70 110 69 -43 -83 -41 14 51 36 -41 -135 -106 -11 5 14 -15 -88 -114 -27 55 5 1 -22 -48 -20 49 87 -1 -11 -26 3 20 7 -5 6 27 82 46 -38 -27 -4 0 -9 -114 -140 0 46 14 -10 -33 47 184 84 -27 -16 8 47 41 -103 -129 -3 12 -3 -26 -71 -3 80 10 -16 0 7 33 24 -19 -8 10 1 -4 -17 8 26 8 0 1 19 69 18 -66 -42 -4 -9 -30 -145 -154 19 67 24 -9 -21 97 257 130 -22 -23 22 71 55 -131 -174 -27 3 -4 -39 -101 -28 78 15 -15 -5 2 35 34 -11 -1 16 7 0 -23 -9 17 6 -2 -8 2 54 34 -33 -29 -6 -3 0 -81 -109 1 33 14 0 -22 41 148 70 -20 -2 11 36 31 -88 -94 11 10 2 -19 -49 21 82 4 -17 -2 -1 20 4 -35 -14 11 -3 -9 -9 4 5 8 7 -4 0 -2 7 3 2 -1 -11 11 9 9 1 -5 -17 -13 28 31 23 -6 -24 -34 -7 39 45 26 -15 -33 -43 0 31 33 19 -13 -30 -42 0 20 22 14 -12 -25 -33 -3 0 -2 6 2 6 6 2 18 12 11 -4 -7 -13 2 40 31 16 -7 -22 -37 3 62 60 35 -16 -48 -62 10 76 76 40 -22 -59 -73 15 64 60 33 -19 -52 -69 12 49 47 27 -18 -44 -54 -3 0 -5 0 0 5 5 3 16 8 4 -7 -7 -11 0 32 22 4 -13 -23 -34 -2 53 51 23 -19 -43 -53 3 65 65 28 -25 -53 -64 6 52 48 19 -25 -50 -62 9 39 34 11 -24 -40 -45 -5 -31 -29 -30 -32 -35 -28 -28 -48 -47 -45 -44 -41 -39 -13 -25 -24 -28 -26 -20 -17 -6 -8 0 -3 -5 0 4 8 20 33 36 31 31 29 8 29 39 41 41 36 21 14 43 51 52 54 41 18 -15 -42 -44 -43 -46 -47 -37 -42 -65 -69 -65 -63 -59 -52 -24 -39 -40 -42 -40 -33 -26 -10 -12 -2 -3 -5 -2 3 10 25 40 46 43 38 34 13 40 52 57 57 48 33 19 52 64 69 70 54 30 2 -23 -24 -22 -24 -29 -22 -20 -40 -43 -37 -37 -38 -36 -5 -21 -23 -23 -22 -21 -15 -2 -7 -1 0 -3 -3 4 9 18 27 33 30 26 24 6 25 31 36 38 29 17 9 32 38 43 47 33 15 16 1 0 5 -5 -7 -10 19 4 -5 3 2 -3 -10 2 -14 -25 -16 -7 -18 -26 -9 -33 -50 -51 -49 -48 -42 -14 -37 -46 -51 -63 -53 -40 -2 -18 -30 -37 -47 -37 -24 4 -4 -12 -17 -28 -25 -16 0 0 2 13 7 6 3 15 20 19 37 41 31 21 6 17 18 37 51 31 14 14 22 18 27 31 23 19 7 15 18 22 14 16 16 5 16 14 17 10 13 16 4 16 16 22 13 10 14 -17 -19 -21 -15 -22 -12 -7 -9 -6 -15 -5 -7 -3 2 -16 -5 -11 0 7 -2 -3 0 13 8 17 17 15 16 0 14 20 29 19 24 20 -3 11 11 21 17 22 21 -10 1 0 12 10 13 16 -8 0 -5 -6 -12 -31 -17 -2 20 15 22 15 -15 -3 -7 25 45 65 53 3 2 -10 35 78 123 119 41 18 -7 34 81 133 125 41 16 -17 18 46 73 53 -8 -20 -10 21 26 31 12 -30 -32 18 0 3 8 9 18 22 5 -14 -19 -23 -17 1 2 7 -19 -29 -51 -50 -13 -2 5 -29 -61 -95 -85 -37 -12 7 -33 -68 -95 -92 -42 -12 14 -19 -39 -54 -53 -9 7 11 -10 -16 -24 -19 14 21 -6 -4 6 4 3 8 -2 -5 -12 -5 -1 3 13 -4 0 -8 -2 -7 -7 13 -3 6 -2 -12 -31 -28 -1 -7 5 -3 -16 -33 -32 -5 -5 6 -4 -8 -8 -5 20 12 -3 -10 -10 -6 0 24 14 6 3 25 9 -9 2 15 1 -2 -6 -63 -83 -13 11 2 2 6 -17 -14 16 14 -4 0 10 14 21 7 3 -6 -3 3 5 7 -1 1 -5 -2 -2 -4 0 -3 -9 -2 -2 -4 -1 2 0 -1 3 2 16 -10 -31 -13 9 -1 -8 -23 -93 -117 -34 4 4 0 -2 -39 -36 7 13 4 7 13 11 21 13 9 5 7 12 10 13 7 10 4 6 5 -1 3 1 0 8 7 3 3 10 7 10 -3 0 28 32 19 10 1 -2 -2 2 -32 -51 -3 1 -1 -5 0 -14 -11 11 3 -3 -8 -2 2 10 3 -1 -6 -8 -4 -8 -4 -3 1 -2 -4 -1 -7 -3 -3 -4 4 -1 0 0 4 2 4 4 0 -1 0 0 2 6 -17 -38 -47 -28 -8 -2 0 18 30 20 14 9 -2 4 47 89 117 84 36 12 1 -25 -38 -42 -20 -13 -4 -4 -38 -72 -93 -66 -32 -10 -3 17 37 38 23 10 4 -3 -3 -13 -15 -11 -8 -1 4 -10 -39 -51 -34 -13 -3 4 41 62 51 36 19 2 11 65 126 166 126 60 26 8 -42 -56 -50 -25 -14 -1 -1 -65 -111 -136 -102 -56 -22 -8 13 33 31 17 2 -1 -9 -1 0 1 0 -5 -1 -4 -6 -25 -30 -17 -6 -1 1 10 11 0 -3 -1 -3 6 21 49 70 47 16 7 0 -14 -21 -24 -8 -4 3 2 -20 -38 -57 -37 -16 -3 0 17 33 32 23 12 6 -4 -24 -31 -39 -46 -45 -26 -21 -17 -35 -49 -64 -71 -47 -36 8 -13 -45 -59 -63 -50 -35 25 25 4 -13 -30 -31 -30 29 51 50 49 34 19 8 12 48 62 71 59 40 20 15 39 58 81 78 58 46 12 15 18 11 10 15 16 11 14 21 12 4 14 20 5 5 -3 -8 -5 0 10 5 13 10 2 0 4 8 -14 -1 2 2 0 1 4 -26 -10 -1 -2 -10 -13 -11 -22 -19 -9 -4 -8 -16 -12 14 24 30 26 24 21 12 10 22 42 45 38 36 30 -7 1 10 20 28 25 25 -7 -1 8 14 23 28 31 -27 -29 -29 -25 -17 -6 4 -19 -27 -30 -38 -38 -28 -16 -13 -28 -30 -36 -39 -38 -28 26 22 20 7 -3 4 8 17 15 4 -11 -19 -9 -2 6 0 -9 -23 -32 -22 -8 1 -9 -26 -38 -41 -29 -10 -3 -16 -25 -23 -21 -21 -11 0 -10 -22 -22 -19 -18 -5 9 5 -5 -22 -29 -17 0 -2 0 1 -2 -5 0 0 -1 3 0 -4 -5 0 0 -6 -3 -3 -6 -12 -9 -6 -3 -2 -9 -8 -13 -14 -10 -3 -4 -1 15 15 -3 -11 -4 -6 -9 6 8 -5 -9 0 0 -3 -8 -13 -9 -3 -24 -18 -13 -5 -1 4 -2 -13 -1 1 15 20 21 11 -9 2 12 31 31 25 12 0 14 21 43 44 32 18 5 18 30 66 70 41 16 3 9 10 41 51 30 11 -2 5 6 16 18 15 10 22 14 12 3 2 14 24 24 13 0 -12 -10 2 10 19 7 -11 -21 -22 -10 5 6 -17 -38 -52 -57 -38 -24 2 -20 -34 -55 -56 -36 -24 4 -19 -36 -44 -35 -24 -15 13 -3 -22 -30 -19 -7 -7 -35 -28 -25 -13 -14 -26 -27 -26 -19 -17 0 5 -10 -14 -28 -9 2 31 39 19 10 -6 18 43 87 91 68 38 5 37 73 111 116 87 51 -8 23 53 89 100 67 37 -17 13 29 58 67 41 17 14 15 17 10 10 11 14 15 17 19 12 9 6 8 4 13 13 0 -7 -7 1 0 0 -8 -31 -46 -28 -8 1 -3 -16 -63 -77 -49 -15 0 -6 -29 -71 -77 -55 -18 15 15 -5 -35 -38 -25 -1 -8 -6 -6 1 2 0 -7 -11 -3 -2 3 3 5 -2 -11 -6 -2 7 4 4 0 1 5 7 19 19 17 14 -1 5 10 32 46 38 19 0 9 17 37 57 50 26 -6 1 6 21 28 32 14 6 3 -2 0 1 2 -5 2 3 -1 -2 -6 0 -2 -3 -3 -5 -3 -12 -11 -7 -3 -8 -12 1 5 -3 -10 -8 -14 -10 26 53 33 -4 -8 -12 -5 28 60 42 -1 -13 -17 -20 -9 1 0 -21 6 5 0 -4 -2 2 0 6 10 6 1 -2 4 7 6 7 4 -1 -9 -5 4 6 2 -7 -14 -15 -18 -12 7 0 -11 -4 13 -1 -22 13 7 -5 -5 14 2 -19 14 8 -7 -23 -24 -19 -24 -12 -14 -4 4 3 -1 -8 -12 -7 8 13 15 11 4 -10 -2 9 16 21 18 7 -11 -2 9 20 24 15 7 -9 -4 10 22 30 17 10 -10 -6 4 13 22 13 6 -11 -8 0 7 8 2 0 6 7 11 3 4 16 22 0 6 8 -15 -13 8 22 4 12 2 -29 -29 -2 15 2 7 -2 -30 -32 -14 5 2 0 -3 -26 -24 -14 2 3 2 -3 -24 -23 -12 2 9 9 5 -13 -19 -8 5 15 12 12 -7 -7 11 22 0 3 0 -37 -40 -11 9 6 7 -5 -51 -55 -23 1 5 5 -6 -47 -54 -31 -4 4 0 -4 -41 -44 -27 -7 7 5 0 -35 -38 -21 -5 14 13 10 -20 -28 -14 2 0 0 0 0 0 0 0 0 0 0 0 0 0 0 0 0 0 0 0 0 0 0 0 0 0 0 0 0 0 0 0 0 0 0 0 0 0 0 0 0 0 0 0 0 0 0 0 0 0 0 0 0 0 0 0 0 0 0 0 0 0 0 0 0 0 0 0 0 0 0 0 0 0 0 0 0 0 0 0 0 0 0 0 0 0 0 0 0 0 0 0 0 0 0 0 0 0 0 0 0 0 0 0 0 0 0 0 0 0 0 0 0 0 0 0 0 0 0 0 0 0 0 0 0 0 0 0 0 0 0 0 0 0 0 0 0 0 0 0 0 0 0 0 0 0 0 0 4 0 0 0 0 0 1 4 2 -2 -5 -4 1 2 6 7 2 6 0 1 4 2 5 7 14 2 0 3 2 3 3 5 0 0 2 3 6 4 2 1 2 3 8 4 3 5 3 5 7 1 -3 0 0 0 1 4 -4 -8 -7 -8 -10 -4 -1 -4 -4 -2 1 -7 -7 -3 -9 -7 1 9 -7 -11 -4 -6 -10 -5 -3 -10 -8 -2 -4 -9 -6 -9 -10 -5 0 0 -11 -7 -4 -6 0 2 -6 -6 2 5 2 -1 -2 -6 0 9 12 2 -1 -4 -3 10 30 42 17 -1 -5 -6 12 44 62 26 -2 -6 0 8 27 39 16 -1 -4 -2 0 9 13 2 -4 -5 0 -4 2 8 0 -2 -3 0 0 0 0 0 0 0 0 0 0 0 0 0 0 0 0 0 0 0 0 0 0 0 0 0 0 0 0 0 0 0 0 0 0 0 0 0 0 0 0 0 0 0 0 0 0 0 0 0 0 0 0 0 0 0 0 0 0 0 0 0 0 0 0 0 0 0 0 0 0 0 0 0 0 0 0 0 0 0 0 0 0 0 0 0 0 0 0 0 0 0 0 0 0 0 0 0 0 0 0 0 0 0 0 0 0 0 0 0 0 0 0 0 0 0 0 0 0 0 0 0 0 0 0 0 0 0 0 0 0 0 0 0 0 0 0 0 0 0 0 0 0 0 0 0 0 0 -7 -6 11 28 -7 -9 6 6 -7 -54 -23 85 22 -11 -2 27 46 -102 -128 46 30 5 -32 20 165 -20 -97 -5 10 33 -82 -67 110 24 -16 -11 7 77 -29 -50 3 8 -2 -13 -12 33 9 0 -7 1 -2 10 23 -8 -10 10 7 -6 -58 -44 75 18 -15 4 53 95 -90 -158 23 14 -18 -54 47 251 30 -99 -16 -5 0 -140 -84 154 59 0 -2 7 59 -80 -76 8 23 11 -4 3 31 -3 -10 -5 -5 -6 4 11 -28 -12 16 8 -3 -39 -16 65 0 -24 1 29 60 -66 -95 36 0 -2 -32 20 168 13 -61 -2 -5 16 -88 -77 97 31 -5 -7 -1 61 -40 -56 5 16 9 -7 -13 19 -1 -5 -1 -4 -21 1 10 -1 3 -7 -14 13 -24 29 31 -2 -13 9 -31 55 105 -71 -22 4 -2 16 125 -125 -64 36 -8 0 63 -59 -102 96 -41 8 8 9 -70 47 -19 -32 37 -2 -16 -7 5 -3 39 -1 3 -4 17 -2 -18 6 2 -3 14 -40 7 24 1 -9 23 -43 37 82 -80 0 11 -14 -3 105 -165 -39 78 -11 -13 57 -71 -84 168 -29 -14 4 8 -63 85 0 -58 20 3 -1 7 8 -28 17 -5 4 4 24 -14 -21 10 8 -1 24 -48 -35 12 3 -3 25 -51 -19 51 -39 11 11 -13 -41 72 -80 21 73 -17 -19 31 -32 -11 144 -41 -16 -1 5 -24 89 -21 -54 10 8 3 20 1 -37 8 -12 -6 19 -24 -31 18 22 -1 -1 28 -18 -77 71 20 -14 0 30 -12 -130 124 16 -18 3 23 -15 -130 125 7 -17 4 22 -16 -78 69 7 -4 2 19 -21 -18 17 10 0 1 14 -26 2 -4 6 7 -5 24 -22 -31 21 33 -12 0 29 -32 -93 97 39 -35 4 36 -34 -158 173 42 -48 5 29 -35 -154 183 34 -48 0 18 -31 -89 101 22 -27 -2 19 -25 -16 26 17 -11 -4 16 -21 11 -5 12 0 -6 9 -8 -8 11 19 -9 0 8 -2 -42 59 10 -21 -3 2 1 -88 109 -1 -32 0 0 3 -81 114 -5 -25 3 -1 -2 -42 56 -3 -14 -2 2 -11 2 11 5 -6 0 4 -14 18 -4 12 0 2 1 7 6 -12 -6 7 5 19 39 77 68 42 23 -17 -33 -65 -78 -40 -10 -11 0 -3 -30 -98 -152 -107 -58 -6 11 55 121 107 66 19 2 4 -7 -8 2 14 3 0 0 -7 -5 -9 0 0 -3 5 12 12 0 0 7 0 19 43 85 90 62 24 -27 -47 -91 -113 -64 -23 -24 0 -7 -42 -130 -187 -136 -77 1 24 80 160 148 86 26 7 13 3 5 24 29 13 -5 -2 -10 -14 -19 -8 -4 0 -2 -7 -11 -12 -9 -1 -1 10 16 39 34 19 4 -15 -13 -31 -34 1 13 -1 1 4 -8 -52 -85 -56 -25 -6 -1 21 76 74 42 16 14 9 -9 -22 -12 -3 3 -2 -1 -3 -2 -8 -6 -2 -2 -58 -30 28 12 10 12 -64 -74 24 63 11 12 1 -43 25 105 79 10 9 -9 20 77 87 40 -30 -32 -31 31 42 27 -32 -83 -48 -21 20 20 -6 -68 -63 -4 15 11 -4 -30 -54 -15 29 22 -3 -65 -38 22 7 2 6 -68 -80 29 72 17 14 6 -50 26 115 88 13 9 -5 14 82 96 44 -33 -35 -29 26 47 35 -27 -81 -45 -16 15 23 -3 -69 -62 -2 14 9 2 -24 -52 -10 29 14 33 -25 -19 8 -6 -8 1 -16 -52 5 20 -11 2 9 -24 0 40 15 -9 9 6 0 18 22 7 -14 -5 -2 0 1 5 -5 -19 -1 7 -1 6 6 -20 -7 15 10 8 6 0 -13 12 18 0 -3 -8 -40 28 42 -3 -18 10 -18 -64 75 77 -24 -28 3 -30 -75 97 80 -51 -29 2 -27 -57 107 60 -67 -28 0 -19 -27 77 26 -51 -11 0 -12 -6 41 0 -23 3 -4 0 9 24 -5 -5 5 -2 -9 -48 33 54 3 -11 2 -29 -76 93 99 -23 -33 -5 -41 -81 131 109 -55 -42 -5 -37 -58 145 88 -76 -37 -12 -26 -28 99 33 -64 -19 0 -7 -1 51 0 -27 5 -2 4 11 26 -4 -4 7 0 9 -28 11 17 -3 2 6 3 -50 41 31 -27 -6 2 -2 -62 53 35 -39 -3 6 -3 -49 65 31 -46 1 2 -3 -30 41 5 -35 8 6 0 -12 19 -4 -13 14 -3 2 2 12 -5 -3 6 21 19 4 -17 -18 13 32 17 5 -19 -46 -52 -12 17 13 -6 -33 -59 -67 -32 7 -2 -21 -44 -71 -71 -42 -6 -16 -32 -46 -66 -70 -48 -14 1 0 -12 -39 -47 -26 4 22 23 10 -15 -26 -5 15 -25 -11 -5 -1 6 4 -2 -12 0 6 15 15 13 5 -3 8 20 30 25 17 13 2 19 31 38 41 29 19 -2 10 23 34 36 21 16 -11 3 11 16 18 10 11 -12 1 2 5 5 2 3 -2 4 2 1 9 4 -5 -1 0 -2 1 4 0 -10 2 1 4 6 2 -5 -10 3 3 4 2 5 -3 -11 2 0 1 2 5 -6 -9 -1 -1 0 -2 2 -4 -6 0 -1 -2 -1 2 -1 -4 14 1 6 16 15 10 7 -14 -18 -13 -3 0 0 -3 -14 -14 -12 -7 -1 0 -3 -4 -3 0 -4 -3 1 -4 8 18 20 16 9 8 0 4 10 12 11 5 -5 -18 12 13 9 7 1 -15 -26 8 -2 0 8 6 7 6 -13 -14 -11 -5 -1 0 3 -9 -9 -10 -8 -2 4 3 1 1 0 -3 -2 5 5 11 22 23 15 8 12 6 8 18 19 19 11 4 -5 19 22 20 18 12 0 -10 2 -5 -2 3 1 2 4 -12 -12 -10 -5 -3 0 3 -9 -10 -13 -9 -6 2 4 0 -2 -6 -8 -6 4 9 1 11 10 5 -1 9 10 -2 4 5 6 1 4 1 9 9 5 7 5 3 1 -2 0 -5 0 6 -1 0 -11 1 17 2 -11 0 2 2 38 5 -58 -5 25 9 18 -11 -115 -22 98 20 -17 0 -62 0 174 59 -54 -8 -11 4 99 31 -107 -51 12 4 18 4 -68 -22 29 21 2 5 -3 -9 4 5 1 -2 7 13 -14 -15 9 5 10 31 -29 -93 -3 39 10 7 -47 -158 -7 147 39 -23 -13 -78 28 260 106 -68 -26 -11 17 144 61 -134 -87 -2 10 23 2 -92 -55 14 23 4 2 -7 -5 3 -1 3 -6 -1 10 -1 -11 -1 -1 0 26 -3 -57 -10 19 5 6 -18 -103 -22 79 17 -11 0 -47 6 159 58 -36 1 -9 1 85 29 -85 -34 5 7 13 6 -50 -10 20 4 0 0 0 0 0 0 0 0 0 0 0 0 0 0 0 0 0 0 0 0 0 0 0 0 0 0 0 0 0 0 0 0 0 0 0 0 0 0 0 0 0 0 0 0 0 0 0 0 0 0 0 0 0 0 0 0 0 0 0 0 0 0 0 0 0 0 0 0 0 0 0 0 0 0 0 0 0 0 0 0 0 0 0 0 0 0 0 0 0 0 0 0 0 0 0 0 0 0 0 0 0 0 0 0 0 0 0 0 0 0 0 0 0 0 0 0 0 0 0 0 0 0 0 0 0 0 0 0 0 0 0 0 0 0 0 0 0 0 0 0 0 0 0 0 0 0 0 -1 -1 0 4 5 -5 3 -2 -14 -19 16 46 4 -7 7 -9 -66 -67 40 48 16 21 50 0 -134 -77 7 27 4 50 96 -9 -72 -50 -11 -17 -1 60 58 13 -8 -13 -27 -30 5 27 10 -3 -3 -5 -9 -3 8 13 -1 6 -2 -20 -30 17 65 22 1 8 -14 -101 -105 37 67 33 32 62 -20 -189 -122 -2 39 21 77 114 -32 -116 -81 -16 -4 19 85 66 4 -24 -22 -17 -12 25 43 21 4 2 0 -1 3 0 -2 -9 -4 0 -2 0 24 35 -10 -17 -3 -4 -41 -32 49 34 1 8 32 7 -86 -35 24 27 -5 17 62 -10 -49 -33 -3 -7 -13 26 28 8 -2 -5 -4 -13 1 8 1 1 4 -6 -5 14 6 -8 2 3 -5 -14 17 3 -4 -4 0 8 -44 34 22 -25 13 -8 32 -48 -53 113 -48 10 -2 13 55 -167 91 36 -30 6 -32 83 -72 -62 80 -13 0 2 4 44 -66 10 8 -2 -4 -8 12 5 -1 0 0 -4 -17 18 6 3 0 1 13 -64 30 31 -22 19 -6 42 -70 -79 138 -46 9 6 28 58 -215 94 56 -35 10 -24 109 -92 -96 91 -10 4 -7 16 57 -86 3 3 -1 0 -6 5 5 -2 -1 0 6 -4 2 -7 8 2 3 15 -21 23 -8 -22 21 -5 20 -11 -25 71 -72 13 5 -6 70 -101 79 -5 -40 9 -46 66 -17 -36 51 -23 5 -14 -23 54 -31 8 1 3 0 -5 -5 4 8 -9 0 -1 0 10 20 9 -28 -21 -6 -23 -12 37 71 0 -37 5 -20 -84 -69 83 79 10 15 38 -15 -155 -66 50 40 -1 28 78 -19 -86 -26 8 -13 -14 30 43 -2 -17 -19 -1 3 0 9 9 -11 -1 -11 0 11 31 27 -20 -22 -19 -33 -23 47 101 23 -25 0 -34 -118 -97 95 107 32 20 38 -39 -214 -104 47 47 12 46 88 -39 -125 -46 3 -3 4 48 50 -8 -23 -19 -1 -2 -5 2 9 -2 6 -6 0 3 6 2 -21 -12 -6 -13 -1 32 49 -8 -26 1 -8 -50 -38 74 52 2 2 19 -7 -117 -47 32 16 0 9 56 -5 -61 -14 6 3 -13 9 24 -1 -11 -10 1 0 5 0 -6 -7 1 0 0 -3 -5 -6 -8 -8 -7 -8 -1 11 7 -6 -7 -9 -11 7 33 39 11 -2 -12 -12 6 29 29 6 -10 -4 -6 0 6 0 -13 -21 -2 1 0 2 -9 -18 -29 -13 -3 -1 -5 -6 -15 -14 -5 13 15 18 19 9 3 -4 15 34 56 54 29 17 -2 22 56 90 97 58 33 -4 21 52 83 85 55 30 -12 10 27 45 42 22 13 -21 -2 7 21 16 6 0 12 -5 3 10 15 23 18 11 -8 -14 -18 -14 5 7 18 -11 -39 -62 -66 -33 -12 18 -23 -65 -113 -113 -70 -30 13 -23 -63 -116 -118 -65 -27 24 0 -24 -58 -58 -13 15 20 0 -9 -17 -12 18 35 -2 0 1 0 -1 1 -1 -4 10 -13 -1 15 -16 0 -5 29 12 -82 41 23 -15 -5 -30 130 -39 -110 47 3 27 -72 1 173 -62 -36 20 6 21 -115 36 74 -34 0 -7 26 11 -45 17 0 -5 9 11 -1 -18 -3 7 3 -2 23 -8 -17 12 -10 9 -11 43 34 -110 16 26 -7 -23 -35 192 -23 -161 24 1 16 -108 31 256 -61 -63 10 4 -7 -148 67 112 -28 5 6 16 -14 -67 23 8 8 5 6 3 -8 -7 2 1 -3 11 -5 4 9 -15 4 -10 26 14 -64 38 15 -11 -10 -38 114 -32 -94 42 0 27 -64 -3 153 -56 -33 8 1 22 -94 26 61 -27 0 -3 8 14 -40 16 6 5 6 13 8 5 0 -6 -9 9 14 7 1 -5 -9 -11 6 6 -4 -9 -11 -11 -12 4 0 -11 -13 -10 -8 -6 10 4 -6 -8 -5 -1 2 9 6 -2 -3 -2 0 3 6 6 2 3 4 3 6 7 12 8 6 1 -6 -9 6 10 4 -1 -8 -12 -14 3 2 -5 -10 -13 -13 -13 1 -2 -11 -13 -11 -9 -7 8 2 -6 -8 -5 -1 2 8 5 0 -1 0 1 5 5 5 3 5 4 3 6 -3 -5 -4 0 -2 -6 -9 -8 -8 -6 -5 -7 -8 -12 -7 -8 -9 -7 -6 -6 -9 -7 -9 -10 -7 -4 -3 -4 -4 -7 -7 -5 -3 -1 -1 -4 -7 -6 -4 -5 -4 -3 -9 -12 -10 -7 -7 -9 -8 1 0 5 -8 14 -5 -9 -2 10 0 -29 57 -27 -6 -1 22 -60 40 67 -110 36 2 0 -44 132 -112 -52 69 -1 -14 37 38 -153 110 -4 1 0 29 -55 -13 64 -40 1 -1 2 -29 33 2 -8 0 -7 0 -7 26 -2 -18 0 7 -5 -17 76 -45 -18 -3 19 -52 81 68 -157 37 -3 -8 -28 168 -167 -96 92 -2 -14 57 34 -215 114 26 5 4 38 -80 -33 88 -21 -2 -4 0 -43 34 10 -6 0 -4 7 -7 10 0 -6 0 3 1 -33 45 -18 -12 -4 21 -45 23 60 -89 24 0 0 -47 111 -81 -32 48 -2 -15 25 41 -112 92 -23 3 -1 29 -36 -3 36 -32 -1 -1 4 -28 16 -9 2 3 -5 -6 5 -13 -27 8 3 -4 -7 9 -19 -60 -51 8 4 0 32 12 -47 -70 10 17 7 43 49 -14 -56 -3 9 13 36 45 3 -40 -13 -12 1 31 31 9 -22 -1 -10 -13 21 31 20 -11 0 -6 -5 4 -15 -31 9 1 -5 -8 7 -28 -77 -65 10 8 3 38 15 -61 -89 12 24 14 52 61 -19 -75 0 20 22 44 58 7 -48 -15 -7 4 35 39 14 -21 -3 -10 -14 19 33 24 -7 0 -3 -3 3 -5 -9 34 -1 -5 -12 0 -16 -37 -13 6 1 -7 15 9 -29 -30 8 13 0 21 34 -7 -26 -3 9 6 12 23 0 -24 -6 -5 0 12 12 0 -12 2 -3 -9 8 14 9 -6 -8 5 6 1 2 5 -9 -3 21 30 33 45 47 34 -6 9 16 24 29 31 28 2 10 15 17 20 21 22 -9 0 1 -3 -1 4 3 -11 -6 -9 -20 -21 -9 -8 -23 -32 -34 -47 -52 -48 -47 -4 10 14 12 11 9 -6 3 30 41 47 60 58 42 -1 15 24 35 40 39 34 6 17 20 23 26 25 23 -9 0 0 -6 -4 3 0 -14 -11 -17 -31 -30 -18 -14 -26 -38 -44 -59 -63 -56 -53 -13 -2 -3 -3 -2 -5 -21 -4 18 23 30 46 43 28 -6 6 9 18 24 23 21 3 10 10 12 12 11 12 -5 5 3 -2 -3 -1 -5 -1 1 -5 -15 -15 -6 -5 -7 -20 -28 -38 -40 -35 -33 0 3 -3 4 0 2 4 0 0 1 1 0 -3 5 5 1 -7 -7 1 1 0 7 -25 -38 -28 -14 2 -2 5 -32 -48 -35 -19 -5 -7 17 7 -3 1 4 6 0 6 17 17 12 5 3 2 1 -1 -7 -3 -8 0 3 0 -4 -6 -6 -7 -7 1 4 -6 -17 -15 -5 -2 0 7 -34 -50 -40 -24 -2 -4 8 -39 -61 -49 -30 -9 -6 20 4 -10 -6 -1 5 1 1 9 9 6 -1 4 2 -1 5 0 7 3 5 4 4 8 9 11 10 2 5 10 12 8 10 14 9 4 14 -7 -16 -8 0 13 6 9 -17 -33 -24 -10 3 2 10 4 -7 -6 -3 2 -3 0 9 7 1 -4 0 -1 0 -5 10 -16 3 -11 7 2 -3 12 3 -20 1 12 -1 -3 0 35 -66 7 17 -3 1 -11 89 -104 -12 48 -5 0 -22 108 -101 -52 61 0 0 -18 82 -57 -52 53 1 3 -4 35 -25 -46 28 5 -3 21 -10 -6 -13 2 2 -2 28 8 -34 -1 14 -6 -6 20 52 -95 -6 25 -8 -4 14 134 -145 -43 65 -7 -7 0 168 -141 -97 76 -4 -6 -2 131 -78 -91 61 1 -3 3 62 -30 -63 22 3 -5 14 -12 -4 -5 -1 2 -2 16 7 -17 10 4 -3 0 2 34 -54 15 0 -8 3 -9 87 -77 -5 19 -10 0 -18 107 -71 -39 28 -6 -2 -17 80 -36 -37 25 0 -2 -5 38 -10 -25 8 2 -3 -9 -1 -2 1 2 -21 -23 -1 16 10 4 -2 -10 21 66 60 13 -1 -11 22 63 53 -32 -80 -31 -14 32 8 -75 -127 -41 27 14 -11 -54 -66 -12 63 35 2 -14 0 26 36 25 -11 -18 0 4 2 5 1 0 -2 -12 -5 19 32 17 3 -5 6 49 93 69 0 -20 -20 42 86 48 -76 -132 -60 -22 36 -3 -126 -193 -72 29 28 -32 -88 -109 -30 82 58 17 -26 -2 34 63 67 17 -6 7 6 2 0 -2 0 -1 -4 -12 -4 1 5 0 0 -6 11 39 38 10 -4 -5 6 40 31 -32 -65 -30 -10 19 9 -58 -100 -22 21 14 -16 -46 -55 -5 56 20 2 -14 5 26 29 28 0 0 -15 -7 4 19 11 -5 -10 -9 1 11 26 24 15 7 -7 0 5 19 15 10 5 -3 6 3 14 8 9 1 3 11 11 23 12 5 -1 -8 -3 5 24 14 -1 -15 -11 -7 -1 26 22 2 -12 -15 -3 4 14 4 -8 -10 -8 6 11 21 17 11 8 -8 5 5 15 9 9 8 -1 12 7 13 8 13 7 4 15 12 19 9 7 3 -2 5 10 24 15 4 -3 -5 3 7 31 26 10 -1 -21 -10 1 14 7 -8 -12 -7 4 13 24 23 13 10 -10 0 2 12 6 6 6 -6 3 -1 2 -1 4 1 0 7 4 10 1 -1 -2 -5 0 5 19 9 -3 -8 -2 1 2 23 18 3 -2 -2 5 8 9 7 3 4 2 -8 -9 6 18 11 13 -9 -30 -35 -20 8 9 6 -2 -18 -24 -18 0 5 4 4 1 -2 -3 0 4 4 0 4 4 1 0 5 0 1 6 3 3 1 4 3 -3 0 2 0 -1 2 4 -4 -17 -18 -3 7 6 6 -13 -37 -41 -25 3 8 3 -7 -25 -29 -20 -2 6 2 0 -4 -5 -3 -1 6 3 0 3 6 5 1 10 2 -1 1 1 1 -1 6 4 0 -1 0 -4 -12 -6 -6 0 -13 -15 -7 -4 -5 -9 -5 -25 -28 -19 -3 -2 -10 0 -15 -17 -14 -7 -2 -8 2 -2 0 -4 -8 -2 -6 0 0 5 1 -5 3 -3 -4 -7 -5 -7 -12 -3 -6 -9 1 4 9 5 3 -4 -2 21 32 24 3 0 -7 28 47 12 -44 -44 -18 -15 35 -9 -96 -101 -15 22 13 -13 -65 -68 13 68 36 14 -5 -7 26 71 53 -1 -9 -5 3 21 21 -11 -37 -23 -1 8 3 1 -1 0 0 15 38 37 16 -7 -5 -2 41 53 -6 -81 -69 -27 -16 18 -48 -155 -147 -25 29 20 -35 -104 -98 21 104 67 34 -15 -15 36 99 91 23 0 2 14 39 44 12 -25 -25 -1 3 -6 -2 1 0 3 1 11 15 18 3 -1 1 14 31 11 -33 -37 -19 -14 13 -11 -72 -74 -12 15 8 -8 -41 -40 25 58 30 18 -2 0 21 49 40 5 -2 -1 -1 9 10 -6 -18 -17 