64 64 3 3 
5 -1 0 -5 -3 -9 12 19 11 3 -2 -2 -10 -6 -14 0 11 13 5 1 -2 -2 -6 -7 -7 -12 -6 -1 -11 17 8 -3 14 8 8 -15 16 20 17 2 4 0 3 6 -2 11 11 18 5 -8 0 4 -2 -1 5 1 -7 0 -6 -10 4 4 3 7 1 -5 -4 -5 -18 4 19 10 -1 2 -5 -13 -8 -1 3 25 9 10 11 10 6 4 6 -4 -2 -1 -10 -21 -15 -6 8 4 -12 -30 -21 -3 -10 -23 -3 31 20 6 -33 37 -4 -17 -13 4 1 -16 -5 26 -15 -3 -7 -8 -1 -1 -4 1 9 2 2 8 -4 7 2 -2 -7 -3 14 -17 -10 0 -12 -7 0 5 4 6 -5 4 -3 -5 3 -3 -8 -2 -4 -15 -5 -19 4 27 12 5 -7 1 4 7 -8 8 24 0 1 1 6 -15 -26 -8 -4 11 1 6 40 -5 6 4 0 18 8 6 -12 2 12 -8 -1 -14 1 12 -4 -4 -9 -7 6 0 0 0 -24 -9 9 12 -14 12 12 7 5 -4 -6 -8 -8 -5 3 -5 -3 -7 -2 -5 0 7 0 -3 -6 3 -9 -6 14 0 2 -5 -2 0 -6 -10 -8 9 -20 -56 -15 0 10 4 1 4 -3 -1 -4 -4 1 11 2 0 1 0 -3 -12 -6 -6 -13 4 -24 -49 -24 -7 -25 -11 10 -14 -14 -5 10 13 10 2 -15 -11 -10 -4 -2 0 3 0 -2 1 -1 0 -4 -5 0 -3 7 1 -2 0 4 3 3 4 4 -1 -10 1 0 4 -8 11 22 8 -12 -13 -2 3 -2 0 -1 -9 -5 6 10 7 5 4 -2 12 8 1 5 3 -2 -8 -7 -1 -2 3 3 -2 6 1 2 -2 11 -4 2 0 -2 20 -4 -1 -1 -2 -1 5 -9 0 15 16 1 -5 2 0 3 -1 11 5 -12 -13 5 -12 -5 8 -6 4 5 13 -6 2 2 -12 -12 -14 4 10 4 12 5 0 -6 4 -3 10 18 -4 -4 14 -1 -4 16 0 13 2 15 0 2 -3 0 2 -3 4 7 3 -13 9 -3 -17 -2 7 15 -24 -9 -3 -10 -4 4 18 1 7 2 0 -23 8 11 -25 -25 1 -36 -57 -22 10 3 6 16 -40 -11 -1 44 9 7 2 -12 10 8 -15 2 14 8 -10 -14 -3 -9 -3 -16 -1 20 6 -5 2 4 -1 1 1 -1 -2 0 -8 -18 -17 -4 1 10 0 8 26 17 11 18 -14 -34 4 -36 -44 -10 -7 7 -4 -7 -4 -4 -1 13 7 -13 5 13 -16 -21 2 22 -12 19 -42 -35 -57 -23 15 -21 -9 35 -6 -4 -2 3 -13 -2 -5 4 34 16 1 4 2 -6 -8 0 0 12 -3 2 1 -6 4 -6 -18 7 11 3 1 23 0 -4 14 -2 -8 -5 -8 6 -8 -13 17 -2 -17 9 8 -4 -16 -1 -5 19 2 -12 16 -25 8 -2 -7 3 -8 -1 -5 1 -5 -1 4 0 18 -8 -19 -3 9 -11 2 -7 -14 -15 -7 -9 -3 -5 0 0 12 -15 -2 -1 17 6 -6 0 -14 18 10 14 5 -1 11 9 11 21 -4 0 8 -1 5 8 3 -4 -1 18 4 1 0 -5 -1 -3 -7 7 -1 9 14 15 -4 7 5 -5 0 5 -13 11 -12 9 11 14 10 4 -7 0 1 2 8 0 1 0 0 3 -5 -7 4 1 -12 0 -9 -9 3 2 4 -2 -17 -7 8 -3 9 -2 -10 18 8 33 6 10 17 -7 4 -3 -6 -2 -6 -3 -10 -5 1 -1 -4 -14 17 -4 -11 7 0 2 7 -1 9 -1 -2 1 4 1 0 3 -1 0 -3 -2 0 1 0 9 7 10 -7 6 10 -3 -8 7 17 8 -1 -3 -6 -14 1 -13 -5 9 9 9 -8 2 5 4 -9 -12 -12 -12 1 -7 -10 9 6 3 -3 -7 8 -13 4 6 -11 0 25 8 4 -3 -11 -8 -3 -9 -8 3 7 18 3 3 -4 4 24 8 -10 0 0 1 -3 5 -4 6 -3 -14 6 -9 8 0 5 0 -15 2 -1 -8 6 -7 10 5 6 -2 1 -4 -14 -2 4 -3 -4 0 -1 3 -1 0 4 3 0 1 -8 -6 -1 -5 -5 8 1 -3 5 7 15 8 2 12 0 5 -13 4 -17 11 40 -8 24 13 3 1 4 -4 -12 1 0 -6 0 7 -1 -6 -1 -11 -7 -5 -8 9 1 -5 0 -1 -4 -3 7 3 3 11 -4 -9 -4 -8 2 -3 1 13 0 0 0 -7 0 4 -4 2 8 9 2 4 4 2 0 1 2 14 6 -1 7 -11 -22 2 -3 -6 22 12 -15 10 5 -10 6 17 10 0 7 -12 4 18 -14 0 17 -6 7 14 -4 -26 6 19 9 -13 11 7 -4 -15 -13 -8 -10 -7 4 3 4 0 -8 -7 -13 -20 -17 0 -17 -19 11 -4 -18 2 46 20 5 27 4 -1 -12 -3 -13 1 0 -3 14 8 10 0 8 0 -5 4 3 -2 1 43 25 21 -4 -80 -19 -2 -28 35 11 6 5 1 50 18 -9 10 -3 -17 -10 -11 -12 -11 -7 -7 -1 -11 25 -12 -4 5 -11 0 0 -6 3 21 -5 -1 4 -35 6 14 5 18 -6 -23 6 -12 -46 -9 20 -16 0 3 -5 -4 4 -3 -6 11 1 6 5 -1 13 -4 -19 0 8 -7 6 9 15 7 15 20 2 2 2 6 -4 -2 3 0 31 -5 9 18 -8 -2 -14 -2 6 -12 -13 10 6 0 -19 -15 -8 8 5 -4 7 -1 -10 -7 -4 10 -17 -19 -3 6 -9 2 -4 0 4 -17 2 3 -11 2 4 4 3 10 12 55 38 3 20 -7 6 3 16 0 -1 0 5 -5 3 -15 -7 5 -19 -19 22 -10 -8 -22 -34 22 21 -2 110 0 -6 -25 -26 20 11 0 9 -3 -8 -4 -6 -8 11 13 4 -10 6 -6 -7 -16 6 9 10 10 4 -4 -8 1 -4 -7 -29 -23 -53 -20 -29 -60 -9 -2 -17 -19 -6 4 -9 1 9 0 7 11 1 -7 -16 -2 -11 -12 -1 -13 -10 1 0 -4 6 4 0 1 1 6 -7 -2 0 -8 0 3 15 16 4 -7 16 0 -2 9 -6 -11 0 -5 9 0 -14 0 -1 -8 -4 -2 -6 13 4 -1 4 -12 2 7 6 0 -14 20 10 3 -32 6 -8 23 0 -1 2 -8 -10 -18 -2 13 0 12 13 25 9 14 17 -3 12 2 -11 -17 11 1 -17 12 18 -9 -10 -9 1 -2 0 2 -6 0 5 8 2 -2 -4 9 -8 -21 2 1 -3 3 -12 -39 5 -20 -46 4 25 0 5 -10 -11 0 -6 -16 -3 11 -1 -4 -13 -3 -19 -12 -5 -24 -24 -38 -34 -11 4 4 -20 13 0 -24 -37 -27 -1 -11 7 -5 -21 3 2 0 -2 -6 -6 -31 -2 0 -58 19 15 -6 2 0 -1 -8 -6 -2 -8 0 5 -7 -1 -6 -4 -3 -8 -7 5 2 6 -6 -17 6 -9 -26 -9 -5 -2 -7 -16 -7 8 15 -14 5 21 0 -6 2 12 -10 -9 3 2 2 2 7 1 0 7 -7 -5 3 4 7 1 11 -11 -5 25 -21 -15 23 -10 -7 0 2 3 -19 -6 10 18 20 8 -5 8 0 -13 0 -7 0 1 -5 -2 11 -5 -4 16 4 7 17 -6 -5 6 -3 -7 11 5 3 4 -4 5 6 2 -3 0 12 5 -2 5 11 -6 5 12 -11 -8 -4 -15 4 12 -9 12 41 12 0 13 -3 4 -6 -9 6 -5 -1 -4 -2 -2 0 -8 -3 -3 -10 -14 -3 -8 -2 -9 0 0 2 -1 0 -11 -2 5 -5 0 1 5 1 9 0 -5 5 -1 11 -1 2 12 -3 -8 -2 -12 -1 2 6 13 13 13 -12 -8 -1 11 9 4 10 -17 -13 3 -6 4 4 1 11 11 -18 2 6 -9 -6 -6 -1 5 -3 1 8 -2 2 4 -5 -18 8 1 5 39 -12 0 -12 11 6 -3 4 6 18 -9 2 -4 2 -26 -21 11 -35 -35 20 1 1 4 -18 -11 13 22 -8 -11 -32 12 -9 -5 -5 0 6 0 4 11 0 -6 4 3 2 11 7 9 9 10 5 7 -4 5 4 -5 -4 -1 -7 -4 -2 -1 5 -4 -3 0 -1 -4 -2 -1 -13 -1 16 -22 -13 -4 -19 -11 -4 -4 -3 5 6 -8 -3 2 -8 -27 -20 8 -33 -45 -2 -23 -21 8 0 15 -27 -30 16 -5 4 22 -8 0 -21 0 17 -3 -27 -30 -20 3 2 14 1 -1 4 -2 -3 12 -11 -2 9 -5 11 2 0 3 9 -35 -36 13 -32 -33 19 -11 -4 18 16 4 -6 20 9 -7 6 5 8 0 -11 -3 -2 4 8 4 -2 -6 -12 -16 -10 -10 -15 -7 -4 -11 -2 2 0 0 2 3 5 11 2 1 2 4 3 9 12 8 8 8 2 7 2 5 12 -4 -5 18 -2 1 20 21 11 20 21 8 21 19 10 1 8 0 -2 8 -12 -9 9 1 3 4 -3 2 5 -2 -7 -7 -12 -15 -23 -2 6 19 17 0 28 20 -3 3 -7 -1 -1 -6 0 4 5 5 5 6 0 1 2 1 0 5 -11 -17 -7 -2 -11 -7 9 -2 4 -3 -1 4 -25 -21 11 25 -5 -28 0 24 3 -2 -16 -3 1 -13 12 0 5 6 -3 -4 0 -5 -5 -6 13 3 0 3 5 2 0 -2 -2 -2 0 -7 -3 0 1 -7 -6 3 -3 0 0 -1 0 1 -1 -4 -2 1 -9 -11 10 16 14 6 7 3 4 5 0 15 17 7 3 3 -3 6 6 6 5 -2 -5 -1 -8 -9 10 3 8 5 -1 7 6 2 1 12 8 11 28 23 18 16 9 11 0 4 9 3 10 10 0 -3 0 -3 0 4 -7 -3 -4 -1 2 -4 -14 -9 -7 0 0 -2 3 4 4 -5 5 0 -3 6 -2 0 4 -5 9 0 0 0 0 0 -4 -6 -4 4 6 -8 9 10 -4 2 2 -11 -8 -6 -7 5 5 -2 6 11 0 -10 -12 -8 0 2 -3 8 16 11 10 10 2 16 0 -13 10 -4 2 2 -2 7 -2 -1 5 1 1 9 3 6 -1 6 10 3 -8 -7 -10 -11 -4 3 -4 0 5 1 2 6 0 2 -1 4 0 -5 0 -4 -4 5 2 0 6 6 1 4 0 0 -1 0 -3 10 29 0 12 28 0 0 0 6 -3 0 0 -7 -8 -7 -1 -8 -27 15 0 -43 8 10 -9 8 -5 -6 8 7 9 7 10 7 -3 2 0 3 15 7 -6 -3 21 4 0 3 -2 -5 0 -2 -6 1 -1 -10 0 -14 -29 -9 0 -16 -4 11 4 -17 16 20 -9 -18 -3 4 5 15 13 8 13 1 2 6 2 4 0 3 1 -3 -1 1 -7 -2 7 -17 -1 -11 0 -3 9 1 6 -17 -11 -14 -15 -19 -16 -25 -19 -5 3 7 15 2 -1 4 10 0 9 -4 -10 3 -9 -4 8 -5 9 -2 -13 -15 16 10 15 -9 -9 23 -13 -2 -5 2 -7 -14 -5 0 -6 -7 -9 -7 -2 -7 -6 -6 2 4 5 -18 -20 -8 -15 -20 -5 -15 -11 -10 21 14 13 1 4 3 13 15 7 -5 -11 -4 -7 -15 -6 -15 -15 -6 -15 -8 4 -1 0 5 7 -3 -4 2 -9 -1 9 6 9 2 -3 4 0 -8 -6 4 2 0 -10 -8 -5 18 10 5 13 1 0 17 -1 -6 8 5 4 -1 -3 0 -4 -8 3 0 -6 0 -3 -12 -7 1 -9 -3 -7 0 -4 -18 11 6 -20 7 -2 15 1 -33 -12 -6 5 -20 12 13 -3 12 4 -5 4 0 0 0 4 3 23 -2 0 8 -15 6 -5 5 -9 -8 -11 -6 -3 -5 -11 -11 -5 1 -14 -5 -4 9 -4 -6 9 -2 14 20 12 1 1 8 -4 -11 4 10 -5 4 -5 6 0 -6 3 -1 8 3 -2 0 0 -3 -2 -4 -3 -8 13 2 -9 1 10 -6 3 -10 3 -76 -20 -6 28 -8 -4 54 15 -4 -2 5 -9 2 5 -9 0 0 2 23 0 1 1 -2 0 -9 -2 11 -15 16 -12 16 -9 -9 14 -2 5 1 -11 -12 6 -3 -2 4 4 0 0 1 -1 8 5 -3 -2 -3 -3 -13 5 -2 2 0 3 3 -6 1 13 9 -4 2 4 -6 -3 0 8 6 0 -4 1 -3 -2 1 3 -7 11 2 -4 1 -6 -4 13 7 0 -4 -2 -2 -4 -10 0 8 -4 -5 11 -10 4 15 -3 -2 -8 -6 0 -30 10 2 15 -7 8 17 -13 12 21 3 -14 -19 7 -33 -45 -9 0 -16 -12 3 -13 -8 2 4 12 3 -3 3 0 -5 -7 2 0 -5 7 9 16 -5 -12 13 -2 -11 5 2 -8 -10 2 19 -8 6 13 -10 0 13 -11 -5 10 3 -6 -3 -9 7 9 1 0 -2 -4 1 -4 -8 -5 -6 1 2 -1 0 5 -2 0 3 -9 3 -9 -5 0 -9 3 -1 -13 -7 -1 18 -19 0 13 10 14 0 9 -6 -7 2 -6 -5 -5 0 1 0 -3 0 0 -1 3 1 0 0 0 -5 -2 0 -1 5 5 8 5 0 2 1 3 0 8 4 -2 -2 -8 -6 0 3 0 3 8 8 9 29 13 9 20 18 0 -5 14 4 10 4 -4 0 -1 -6 -1 6 21 24 0 6 3 -4 -11 -1 11 -4 5 0 -1 -2 -15 -6 -26 -12 25 -9 18 4 -7 0 -4 23 6 -17 -63 -15 -13 -30 -18 25 63 28 1 17 -3 1 10 -3 2 -3 7 -19 -1 15 -7 -10 1 7 1 10 -19 -47 -10 -14 -16 -20 25 72 20 1 -1 -1 0 1 0 2 2 3 -1 59 -6 11 -6 -12 8 -22 2 3 -21 3 -2 -10 -9 -9 -14 -15 -5 9 2 1 2 7 7 -1 -7 -10 17 3 -14 7 -3 8 -13 5 3 -13 -17 -6 3 -9 -12 5 3 15 25 -3 -13 9 -7 -16 -15 -12 4 -3 3 -2 -1 -3 0 0 5 17 16 1 -6 1 -13 -15 -5 -2 0 -4 -4 12 7 7 -7 5 3 -14 -37 -2 -11 -11 -14 5 27 -5 2 -4 20 4 0 -5 5 2 -18 3 14 8 -7 -10 1 -6 -4 -5 0 8 -3 -3 6 -1 -9 -18 -3 -7 -67 9 12 20 0 6 38 -10 -2 -6 8 -3 -9 -1 1 -10 -2 0 2 1 -5 0 -5 -6 0 -2 8 -26 11 3 -8 15 -21 -5 -12 -2 -13 12 3 38 -12 -18 -6 0 -3 3 13 -15 -31 20 7 -5 10 1 -13 0 2 6 17 -12 0 -5 9 14 0 -8 -9 -9 -6 -6 0 -13 8 10 2 17 4 -7 3 1 4 11 -3 -4 3 -10 -20 -12 -15 3 4 8 5 5 12 0 1 2 0 3 -4 2 7 1 1 0 -1 3 8 0 -8 6 -7 0 12 0 15 16 -1 0 24 -1 -16 -6 -5 5 3 -1 0 2 -4 5 8 -2 -10 -6 -9 -24 -79 -28 6 1 0 -13 25 -29 -7 -29 9 34 -5 13 5 0 15 -12 6 6 17 2 6 -6 -8 2 -7 -6 1 -11 -1 0 -8 0 9 -19 9 14 -14 -16 -6 1 6 -4 -2 -1 -5 0 -1 -7 2 7 0 -6 -9 -8 1 -11 -2 -15 1 -37 0 -10 -18 -4 -60 -35 6 6 -4 -9 -16 -4 0 -4 -1 -12 -6 -1 18 29 2 3 -4 -21 16 2 25 0 21 7 -6 4 -17 -9 0 -7 -15 -16 -13 12 12 13 -8 4 -12 1 30 2 -7 8 -2 2 7 2 -3 -3 0 -12 -4 0 13 11 7 -15 -48 -11 -2 5 3 -20 4 -9 7 22 -2 1 -12 0 -11 -19 6 -30 -53 7 -8 0 -2 15 9 1 6 -1 2 -3 -6 6 -1 -1 -3 7 -1 -4 6 -1 0 0 1 27 -19 -32 11 -6 18 -4 -12 -14 4 19 -23 -1 5 -13 6 2 1 -7 1 -11 0 4 -7 -3 0 7 0 2 0 -2 -6 -10 0 -2 4 7 -8 -13 -3 -7 -7 1 12 13 6 -7 -2 9 -1 3 10 -7 -5 -5 1 7 0 -8 -4 -9 -2 -5 -2 7 15 4 2 15 3 -3 1 6 1 -2 -1 7 -5 -1 7 -6 -13 9 3 -5 4 2 -10 -4 18 -9 -18 -26 -10 11 14 -2 -4 -1 9 11 -30 4 9 -1 9 2 -1 8 -4 0 0 -15 -4 -3 0 0 12 -44 -78 -13 8 5 4 -10 -9 4 -10 -11 4 -12 -13 16 -2 -6 -3 3 4 -2 -14 -24 0 -2 -2 -1 3 1 3 -1 -4 -1 -4 23 2 32 -3 -9 -12 -12 6 -1 -14 -5 -3 -63 1 0 0 22 -14 1 3 -27 -26 12 1 -5 21 7 -9 8 -6 8 -9 -27 13 -14 5 -26 23 34 14 -10 -41 -4 9 0 1 -1 4 7 -1 -4 -3 -3 7 8 7 -1 -1 0 -7 0 -8 7 12 -9 8 0 -5 7 9 0 -32 -26 21 -19 -7 18 9 36 4 5 -11 4 -11 -9 0 0 -1 0 -5 6 -2 9 8 2 3 11 15 -7 -11 -18 14 9 -8 17 -7 -19 15 -3 2 8 12 -8 -10 -4 -27 -3 9 -7 18 16 -5 -2 -7 1 -5 -33 -12 -11 -2 7 -7 -4 -18 22 18 8 9 -1 -5 -4 -19 -16 16 0 3 10 2 4 0 3 2 20 -24 1 -7 -24 24 6 29 -35 12 -10 -7 2 -8 -17 7 0 -2 -11 -6 -4 -2 13 12 -9 -20 8 -5 -6 -10 -1 -1 -4 -8 -5 -9 -9 2 -6 4 23 1 -22 -6 7 -1 2 6 -4 0 3 -1 0 -2 -6 0 5 -4 16 17 -7 -3 4 4 3 -1 -1 0 -5 -3 -4 -4 5 7 0 -23 -26 0 3 13 12 5 13 -5 -6 12 0 -2 10 0 1 -5 2 4 -4 5 -2 -14 -3 0 -6 -6 5 -11 -11 -1 1 0 19 -2 2 12 -22 0 -17 28 -3 -2 3 11 16 -1 -8 2 -24 3 -3 -2 0 9 8 1 5 -6 -1 -6 -1 19 -1 -11 17 0 -3 13 -15 -14 9 -18 -19 -1 1 9 0 0 1 5 -6 -8 -2 4 5 5 16 -4 8 -13 -41 -9 2 7 -1 0 -4 -1 -1 -8 -4 2 0 -3 -9 8 0 6 21 19 -42 -50 0 -5 0 5 -1 -4 10 9 -7 8 -11 -14 -3 -9 -21 -13 2 6 11 -6 13 3 -6 31 17 -2 14 3 8 13 9 3 1 5 -2 -15 0 6 10 7 11 3 0 7 -8 1 -2 -5 -15 -2 15 -16 -2 10 -2 -4 -12 -8 -1 3 -4 4 16 5 3 1 8 -2 -7 -3 7 1 -1 0 2 5 0 -2 -4 5 4 5 -12 -17 -10 -14 2 4 -6 0 -2 -6 -6 1 9 4 -6 7 8 1 -5 -12 0 -8 -11 -5 -4 6 2 6 4 7 1 -4 -3 8 3 -2 12 0 7 2 -9 -5 15 11 7 1 -2 4 5 -2 0 8 8 11 -3 2 -4 1 11 4 -3 -1 -1 13 3 -3 5 13 12 4 0 1 1 2 0 -11 -7 -4 -2 0 3 -7 17 17 -1 15 0 -8 -7 -3 5 -13 8 3 -22 -16 8 -1 -3 16 10 11 0 1 -6 0 -15 -15 5 -2 2 1 -9 13 0 1 6 2 -15 -12 2 11 3 -6 -6 -5 -7 10 13 -1 13 -9 5 -16 -1 -1 0 -1 -11 -4 -1 5 8 3 -1 -5 -3 1 1 3 -1 0 1 29 32 14 1 -13 -8 -1 21 -7 0 10 1 4 -4 -8 5 -11 5 -3 -35 -24 8 -1 -1 15 11 -15 2 -33 -18 -1 15 8 15 -24 1 10 2 -23 -4 -17 24 22 -3 7 -23 -29 -24 -9 -8 0 10 2 -6 -6 0 -4 -6 -1 -8 0 -3 -3 4 -26 -14 2 -11 -15 18 10 3 -5 -8 -3 11 -3 -5 20 6 0 6 9 11 2 3 8 0 -14 -5 5 -28 3 11 28 5 -4 24 -2 -10 2 16 -16 -16 25 -36 -37 10 -14 9 6 -4 9 3 -10 -20 6 -11 -1 -12 -8 30 2 -5 22 -7 -10 -1 11 7 7 11 -3 -31 -10 -7 -4 1 -5 -9 -8 4 6 -4 -7 -7 -2 10 -8 3 12 -7 -4 1 0 -3 28 -17 20 19 -23 12 1 4 -3 -8 6 -3 -9 6 6 -8 -14 -2 -7 1 -21 -7 0 -9 1 -4 3 1 -8 -3 2 -3 -5 4 6 5 -5 -4 0 -8 4 22 3 4 0 1 -1 -6 1 -5 -9 26 -4 -2 8 -1 -12 -14 6 -3 107 141 78 15 23 -4 -117 -145 -115 0 -5 -9 7 9 7 7 7 12 13 22 1 -8 4 -3 -2 -1 -2 3 -3 0 9 0 -1 3 6 -3 2 6 3 -12 5 5 -6 5 4 7 15 5 0 -3 3 -4 -9 -4 3 5 0 -3 15 0 2 0 -4 4 6 6 0 7 5 -17 -16 -12 11 2 20 0 0 0 0 9 13 0 1 -15 10 -12 -24 8 8 -24 42 52 29 -5 -5 0 -38 -51 -22 -13 -13 -4 -7 -3 13 8 13 10 -2 -4 -5 0 1 -2 8 4 -2 -7 0 2 -8 1 -1 -6 1 0 7 10 17 -13 -4 2 2 5 0 9 6 4 -12 -10 -12 -4 10 10 -1 5 4 -3 -2 4 9 2 9 2 28 -7 -7 24 -24 1 4 -31 3 7 0 -11 1 -5 1 1 4 -5 4 10 -2 -7 2 16 2 4 -2 -7 -3 -19 -30 -13 -5 -7 -2 10 10 11 5 12 5 -18 -11 -15 0 20 3 0 27 12 -16 -8 -3 2 0 0 -10 -3 3 -6 -4 0 -1 8 -1 -5 14 11 0 -2 10 -7 -5 3 -14 -11 -12 10 15 9 11 25 22 -3 6 16 -29 -37 -13 -67 -76 -41 1 6 -13 65 85 25 0 3 2 0 3 0 3 0 3 -41 -47 -41 -9 -10 -9 32 40 35 0 9 -3 -3 11 0 -12 -2 -2 29 47 31 -5 0 5 -9 -32 -12 16 10 -4 11 12 -3 5 0 -2 -1 6 0 -17 -2 -8 8 12 14 -2 8 0 2 -1 2 10 -10 7 4 6 8 -11 -2 3 0 8 1 -3 -3 -4 -1 3 0 -4 5 6 2 6 3 -11 -6 0 0 -3 6 9 1 4 -1 -11 6 3 -6 11 0 -8 7 3 -3 -2 13 13 0 14 -2 9 -1 -26 -14 0 32 0 -4 0 1 -12 -4 -4 -9 0 7 0 5 9 -23 -32 -5 -2 -6 -2 19 8 5 6 6 -1 0 -10 0 6 1 6 -11 13 -10 -2 10 -21 -2 0 9 -16 -10 -4 0 9 9 -121 -140 -104 -11 -3 -12 125 166 110 3 3 0 -4 0 -8 5 10 0 0 -13 -2 -28 -14 3 -9 13 13 0 0 -1 -9 -1 3 4 1 10 -10 3 8 11 -1 12 14 2 0 -16 -23 1 -23 -33 -13 -2 -9 -11 -2 -1 3 1 -1 -3 4 -1 -1 5 -14 -7 5 -30 2 10 -10 9 3 9 4 -9 9 -7 -1 8 3 14 10 14 -8 -11 -1 -11 -8 0 0 4 -12 11 3 -10 7 9 8 7 -12 -10 -15 14 -10 6 3 9 8 0 0 2 -10 -4 11 3 5 5 -3 1 9 1 9 -5 -4 0 -7 -3 6 -9 -5 11 -7 -2 12 7 -33 -28 -2 -39 -11 -12 -8 -9 3 0 -2 4 0 1 8 1 2 0 -3 0 12 -15 2 0 -10 -3 6 4 0 -10 5 7 12 3 -6 -5 8 -2 -1 11 10 3 2 -2 7 -11 6 11 1 9 0 -18 2 -27 -17 -6 -16 0 -10 -22 -32 -18 -4 3 7 9 -7 -3 -1 -3 -1 -3 -3 11 10 5 10 -7 -12 4 9 3 0 -3 -1 3 11 -1 -6 -3 0 -3 -5 4 -3 -1 -3 -5 0 -17 -6 -4 -26 -7 -1 -13 -2 13 1 -20 -4 18 -5 -3 0 5 -29 -8 9 -34 4 26 0 14 11 -3 -17 4 -9 0 -11 0 5 -9 -3 -10 -8 -1 -2 -2 -2 -1 -2 0 -8 -9 -2 11 19 2 -2 0 -10 -9 -9 -20 -6 0 -5 -8 -8 0 -13 0 7 -22 -2 11 -8 0 0 -12 9 -1 -19 9 6 -8 7 8 -21 -5 -3 17 20 17 0 -18 0 -10 -2 -1 -1 6 -5 1 -4 -2 -5 3 -2 3 1 -16 -25 -11 -7 -11 0 1 2 7 5 3 1 22 2 -23 36 -6 -46 12 0 -17 -43 -10 24 -88 -12 81 -33 -4 31 3 7 9 0 0 9 -10 -8 -14 3 2 6 2 -12 -12 -2 1 -8 -9 -9 12 10 -5 7 17 2 -11 17 7 0 28 4 -24 20 9 5 18 -8 -53 48 0 -64 10 -2 -31 -29 -10 15 -29 0 32 -6 -6 12 -17 -2 1 -19 4 15 -16 -2 5 0 7 10 2 -9 5 5 -3 13 -38 0 19 -52 -9 15 -33 0 7 10 5 5 -8 -9 10 2 0 -4 0 -5 1 4 -4 8 8 -3 8 -8 -25 3 1 -27 8 -5 3 23 -4 1 7 5 3 8 -7 0 10 3 4 5 2 -5 6 -1 -6 -2 7 0 10 9 -8 0 -1 -16 0 0 -4 2 4 -2 -2 -6 -16 -1 26 1 -41 51 9 -54 22 3 -33 -2 -8 13 23 -18 -5 0 -13 20 0 -19 -3 -2 -4 9 0 0 10 21 1 3 15 0 19 13 -16 -2 -1 -11 -4 2 1 19 9 -6 -1 2 16 -9 15 -5 11 5 -14 4 -3 -5 10 5 -6 14 -5 -23 -9 11 9 14 17 15 23 14 6 19 -6 -12 7 -2 -11 15 6 0 17 5 -19 8 -12 -6 20 3 4 1 0 -13 0 -5 0 8 3 0 8 -4 0 7 -1 3 -2 -7 -3 1 18 3 9 12 6 23 -3 -8 8 1 -3 2 -5 -21 7 21 -2 2 -6 -13 -13 -3 2 -16 -3 -2 -6 11 -6 -5 7 -8 13 -11 -11 -3 4 -14 0 10 -10 6 4 -12 2 -3 0 -7 -7 3 -6 1 1 -6 9 -19 11 3 8 0 0 -4 0 8 4 4 -5 -9 -13 6 3 2 -2 9 6 -11 -3 -9 -2 18 6 -7 -9 -4 -8 -9 -4 -3 -9 -2 2 19 5 4 -8 -17 -11 4 4 4 0 -6 3 0 -3 7 2 0 -23 -25 29 -19 -22 19 39 26 -48 -6 0 -1 -10 -6 -7 1 2 -2 1 -6 -10 5 8 0 8 0 3 -2 0 15 -4 -12 -3 7 3 4 10 -21 -15 4 -24 -4 -14 -11 13 -1 -1 -1 -6 0 2 0 0 -6 -6 15 12 -3 9 2 -4 -6 -1 3 11 8 -11 6 5 1 3 -4 4 5 3 1 19 11 -16 -1 -4 12 14 22 -2 -7 -3 2 -3 8 -12 -37 -53 -20 37 -21 -16 26 6 1 20 2 -10 5 -14 1 1 2 10 -5 -8 6 -12 1 2 3 2 -7 -8 -10 -4 -7 -6 -5 -9 -7 -11 -4 -3 -22 -23 -14 -4 -1 7 10 13 3 -6 -14 -8 -4 -6 5 7 15 10 -13 -14 -14 3 0 3 -2 6 0 4 -8 0 19 3 6 -18 25 -5 13 -10 -29 -3 -23 30 0 4 -1 -3 -8 -9 2 6 0 19 15 6 0 1 -3 -1 1 -1 2 5 5 -23 -30 -26 -6 -7 -4 -18 -48 -29 4 -5 -3 26 46 21 -3 60 34 -1 55 47 -49 -91 -62 -3 -3 -7 -6 -20 -8 -6 -9 0 5 7 9 4 6 5 5 0 -6 -20 -4 0 -29 -73 -46 3 -19 -14 -17 -54 -32 -4 -20 -6 38 63 56 -6 -26 -34 -6 -11 -23 22 47 24 37 47 27 2 -4 -3 -32 -53 -34 10 27 12 -7 2 -6 -21 -26 -25 0 3 2 8 9 10 6 -2 -7 0 14 12 -9 -12 -6 -2 -11 1 -12 1 0 -6 5 9 1 4 6 4 3 1 -4 -11 -8 3 7 1 7 -15 0 -15 -12 14 0 21 -8 -4 -3 0 0 -4 0 11 4 10 0 0 -2 -7 -11 -14 7 3 -4 1 2 -4 -10 -11 0 0 2 2 -3 11 -4 0 0 -4 7 -2 -12 -19 -50 -42 -4 -13 -16 39 65 44 2 4 6 -21 -14 -17 5 12 4 0 4 6 1 -4 -3 -3 1 3 -4 14 10 -33 -47 -9 9 -10 -1 3 8 8 11 0 -7 0 -4 -5 0 1 0 -11 8 -8 17 6 1 -1 4 6 -14 -1 -11 -1 8 -11 19 35 19 -8 10 -1 -13 -13 -13 6 0 6 -5 -2 -3 6 10 4 7 -3 -10 -17 -28 -9 -4 8 14 -4 5 -2 1 3 -3 3 11 9 -3 6 5 -7 -3 9 -1 4 11 -7 -3 -2 -15 -37 -5 -4 -20 -11 -8 5 -4 -6 -5 -9 11 6 0 -2 5 1 -1 -10 -1 4 3 -1 0 13 5 -7 1 -8 -4 -1 -2 1 7 -2 -9 -11 -14 6 5 -2 8 -7 2 12 4 -3 12 -7 0 11 3 -3 -5 1 -2 -10 4 4 -36 -32 31 -48 -43 30 -8 33 46 4 -1 -5 0 -26 -31 12 17 -8 2 -9 -5 -18 -16 -11 -8 3 4 6 -3 -1 13 13 -13 -6 -8 -1 -4 0 -10 0 -1 -12 0 0 -2 -8 3 4 0 9 -2 -4 0 2 -7 -6 -3 3 4 -4 -7 4 3 -7 2 -10 -14 -2 -9 -2 15 0 -16 -14 -3 -17 6 24 16 0 18 0 5 4 5 9 -1 5 6 -4 18 -5 -22 14 -22 -27 13 8 -7 24 18 9 27 -12 15 -15 41 -9 -2 6 0 -6 -28 -6 16 17 24 -1 0 8 -8 -5 0 -1 3 9 10 3 0 7 4 -11 12 13 5 17 -10 1 3 -14 0 -3 7 3 -2 5 8 1 -5 -5 -4 0 -1 4 -10 -17 6 -20 -10 14 7 8 2 -6 -3 -4 -9 0 -6 0 -9 9 4 -9 15 -5 -19 2 -5 -9 -2 -10 -9 11 1 -9 -14 12 1 31 9 -12 18 -18 -34 2 -14 -25 -5 14 9 5 26 -8 9 -3 -7 0 10 2 6 1 -4 6 8 0 -19 -17 2 -39 -40 29 -1 16 27 4 22 -13 3 19 -17 -17 -5 -1 12 0 -16 15 9 -20 17 1 -10 3 -5 -2 0 -3 7 -5 1 8 6 12 5 -2 0 -5 -4 4 17 2 -8 -19 0 -6 -21 11 4 -10 -7 -9 4 20 -38 -27 8 16 23 15 -2 0 18 -8 -9 12 0 -11 -8 -2 -3 4 5 7 3 13 14 1 5 11 3 0 0 0 7 5 1 -4 2 -5 -7 3 1 7 7 -1 4 -2 -1 5 -5 -8 -1 0 0 -2 -11 2 12 9 3 1 3 -3 0 0 -2 1 -4 0 0 -2 -16 1 -8 -15 1 -18 -24 -5 1 1 -4 33 -12 -19 32 -14 -6 -3 -10 -10 5 -24 -23 29 -10 -17 -5 -10 -17 -8 -4 -1 8 1 8 -3 -14 -23 0 -34 -25 9 0 25 25 6 28 8 22 10 -18 16 -3 -5 -25 0 -20 1 14 -4 0 11 -5 -3 1 0 -2 -1 -13 -5 3 -5 11 0 -4 9 5 11 -26 -6 4 -1 11 6 -13 -17 28 0 -7 -10 0 0 11 11 -26 -11 29 -7 10 10 -25 -25 -8 -1 9 -3 -17 -14 10 -7 9 -16 11 12 0 6 -25 23 -3 -13 27 12 -20 1 10 -27 0 1 1 -2 -6 -14 0 0 -3 9 -3 37 -7 4 35 -33 -20 0 1 -8 -4 -2 10 0 2 2 1 -26 4 10 -26 8 26 -19 -16 15 -6 -25 -1 24 7 4 -9 -3 -11 0 6 4 1 -22 -24 11 11 0 -13 3 8 -17 15 10 -13 14 11 0 4 -8 -6 23 -6 10 23 -6 23 26 -1 18 0 -22 1 -12 -12 0 9 5 -3 -2 -10 -4 -1 -4 -9 2 -17 -5 7 -9 -9 9 6 29 15 -25 10 -7 16 -11 -6 -7 -12 -16 -2 1 9 26 -16 -8 13 0 -1 5 5 13 7 -17 -16 -1 -9 -9 -8 -11 -10 0 -22 -13 1 15 1 17 -11 -48 -7 0 5 12 25 -2 -27 31 0 -32 24 -1 -25 6 -7 1 -14 -50 16 -5 -33 10 -13 -6 19 -15 -7 36 -26 -19 24 -24 -1 9 -24 -11 -8 4 11 -17 -11 -2 -3 2 -2 20 1 -4 3 -1 -28 8 -9 -42 15 -2 -25 15 4 -8 9 -6 -11 15 4 11 29 9 5 -21 17 -11 6 13 -3 -10 -4 -2 -17 4 9 13 5 -12 -8 -7 -1 -4 -15 1 1 -18 -5 -3 -7 -19 -8 -13 -31 8 -13 -17 3 -14 -6 13 -12 2 48 -22 -16 26 7 0 4 5 -5 15 -6 -17 5 10 -20 15 2 -17 2 10 -4 -3 -2 9 14 -17 1 29 -16 -4 13 1 -2 15 4 0 12 19 17 17 11 -5 3 -22 -23 19 3 10 10 15 -5 0 19 -13 -1 13 -5 6 4 -23 -7 1 -34 -26 -10 -28 -12 -11 -29 -3 -12 -11 36 -9 -13 23 -7 -6 9 -8 1 27 -2 -5 14 9 -3 16 -17 -26 -6 -2 -6 15 -3 -3 26 -3 -11 16 11 11 16 4 -4 -9 1 1 2 -2 1 12 3 -8 10 5 -11 21 -12 -20 9 10 3 10 -10 -1 16 -7 5 6 21 8 2 17 4 2 6 -7 6 16 4 4 5 1 17 -17 -16 4 7 1 0 -1 -1 4 -15 -14 3 0 -16 -2 -9 -16 19 -8 -16 11 -15 -16 3 -13 -15 16 -14 -18 2 -7 -7 5 -5 -3 11 -8 -1 11 -7 -16 -23 22 3 -28 22 7 -27 4 0 5 8 -1 6 -8 -12 1 -26 -42 -24 -22 -50 -53 -10 -26 -41 7 -14 6 -5 -11 26 -11 -25 8 11 17 -3 -8 -9 3 -8 -13 -4 -12 -13 -3 -5 -1 25 -11 -9 17 -12 -11 6 0 10 36 -14 -8 17 0 -3 5 4 -4 8 -1 -17 23 -10 -10 -1 2 -10 18 -6 -16 24 -2 -11 -3 -8 -12 22 -11 -17 16 8 -26 3 18 13 6 -7 -4 12 3 2 11 -8 -9 23 -3 -8 11 17 11 5 -7 -8 23 2 -16 5 -4 6 0 11 10 -3 -12 0 9 4 8 12 0 -16 -12 8 7 5 -2 -7 22 -20 -19 25 -16 -14 20 5 -11 7 2 -12 26 -6 -13 19 -16 -5 10 -21 -19 30 -14 -19 9 -8 -13 -5 -17 -1 10 0 20 6 2 -1 0 -9 0 26 -21 -17 8 2 -28 6 1 -36 4 -2 -13 4 7 8 15 -5 -3 27 2 -1 17 -11 -4 -8 -6 -11 7 -6 -10 0 0 -4 -2 17 -3 6 10 5 10 0 -4 20 -10 -3 24 0 7 33 -6 -6 19 -9 -8 33 -10 -13 17 -16 -35 -11 -40 -52 -14 -34 -31 4 9 -8 -1 17 -18 -7 24 21 -13 0 -10 5 -1 -34 7 4 -7 0 1 0 -9 -4 -25 -9 -13 -6 -3 -4 -9 -10 -3 -10 -8 -2 -9 -10 -1 10 13 -2 0 20 -2 -2 9 -1 9 5 -3 6 1 -8 -6 -4 8 2 9 13 0 5 0 0 2 -3 -7 5 -1 -4 9 -4 0 2 6 8 17 -8 15 0 2 19 -5 -13 3 6 -5 19 13 -1 2 -12 3 0 6 -3 -9 2 0 -2 0 -6 -10 -9 16 0 5 -9 -9 -18 8 3 -5 10 -15 -4 5 2 -6 8 1 11 15 -16 14 0 -2 12 0 -4 0 -7 -11 -2 -3 -2 0 0 7 9 0 6 13 2 -4 -1 1 1 -1 10 0 -3 -1 0 -13 -3 -3 1 -1 -4 4 -6 -7 1 1 5 -3 12 2 2 14 0 0 -6 -14 1 0 -11 2 4 0 1 11 -10 -1 2 -8 13 -5 6 -7 27 2 -3 44 0 -6 16 2 -2 -28 -20 -13 -20 -14 -10 0 1 -9 -3 10 -3 0 28 8 7 0 -7 0 2 -1 2 8 5 -2 10 -1 0 0 1 0 -18 -4 -3 1 2 2 0 -5 9 13 0 5 7 -3 0 -6 5 -3 -25 -10 2 -5 -11 -11 -12 -5 0 0 0 0 -1 -3 -2 -9 -2 -6 -13 -6 -5 -5 1 -9 -5 -3 10 -11 11 8 -3 8 6 -5 -22 17 -15 -28 -8 0 -4 0 -3 -9 2 -8 -5 5 3 -8 -2 -7 -5 2 0 0 0 0 -5 0 1 1 5 0 2 -1 -3 -4 -2 -10 4 1 -6 6 9 6 7 -2 -6 5 1 -6 8 3 0 7 0 0 3 -2 5 6 2 3 6 6 2 -1 4 8 3 1 0 2 17 8 -5 9 5 -5 3 7 6 6 10 13 -10 -29 0 -2 -4 -1 0 -4 1 9 -20 5 -2 -10 19 -11 10 -3 1 29 -1 2 10 -9 4 -5 2 -9 -56 -15 -13 -23 -10 -20 0 0 -19 7 2 -6 1 -9 -5 8 3 3 25 8 2 0 -1 -6 0 -3 -6 0 -6 -3 -2 -8 -8 15 -12 -7 68 -17 -8 -1 -21 -8 -16 -9 -4 -17 -9 5 6 10 9 5 4 9 -3 -4 6 -8 -4 3 1 0 12 -25 -6 0 -10 -3 1 -13 -2 0 1 -33 -16 23 13 -5 -5 -10 -6 -15 -21 0 11 0 3 1 5 0 -7 1 -5 -6 1 -2 -6 -17 -11 -18 -24 5 8 -1 6 0 1 5 -3 1 6 0 6 -12 -6 -2 -3 -9 0 1 8 7 -4 16 5 2 20 16 1 11 9 -9 -27 -22 -8 -24 5 1 1 0 9 6 1 3 9 0 0 6 1 -4 0 -5 12 13 -1 2 -10 -6 -5 0 -9 -8 -21 -7 -1 7 -1 -3 -3 -10 0 1 -7 -3 -4 -12 6 11 1 6 1 1 0 5 10 10 -19 -5 9 -36 5 -3 17 -2 37 -1 -29 75 -22 -91 20 -13 -19 1 10 15 7 -21 -45 -5 -13 0 -19 -6 5 -25 -18 -9 -15 -8 0 -14 -12 17 -6 -15 18 0 0 0 -5 5 22 -8 1 13 -4 -3 0 -1 0 8 -5 9 6 -3 -6 -4 0 2 7 -2 0 6 -5 -7 -6 -7 -6 4 -34 -1 21 -21 18 40 16 6 2 -8 -12 16 9 7 -9 -6 2 12 -9 -7 8 0 -10 2 13 14 -28 25 -2 -68 4 -14 -22 2 -2 15 -6 -2 -14 0 -13 17 -15 -23 39 35 -22 -37 -4 2 17 11 2 -2 13 -7 -21 8 0 -1 -2 -10 1 -13 -20 19 5 -13 0 7 5 8 9 -4 -7 -5 -7 7 -1 6 10 -2 2 6 -4 2 5 -7 2 8 -6 17 -3 -2 4 -5 5 -2 9 2 -6 2 -2 4 7 0 8 14 1 -6 -2 0 -5 -4 -16 4 8 -25 21 26 -5 1 -7 19 -3 -10 14 -7 -3 8 -1 13 -4 5 13 -18 -8 31 -1 0 8 -10 -10 7 0 -4 6 -5 -5 4 -1 2 -11 25 -4 -79 12 5 -2 -3 6 19 -12 13 33 -1 -3 -12 -3 0 13 -4 -8 -3 -7 1 -6 8 3 2 7 0 -1 3 -4 -3 -1 1 -2 -2 0 1 -4 -6 -8 -5 2 12 1 -15 -9 -2 -2 20 -20 18 -5 1 58 -35 -5 5 12 1 -2 8 12 -5 1 -3 -11 1 -8 0 0 -5 6 4 -2 3 0 1 -3 3 0 -6 4 7 -3 6 11 0 2 10 -1 0 11 2 -6 3 7 13 3 4 9 0 0 -7 -5 12 12 -13 0 20 -5 -2 19 -1 0 -2 -4 0 0 0 1 -5 6 -8 1 12 1 5 12 5 6 15 6 3 12 -19 -45 -9 -10 2 -19 -11 17 9 -7 -7 -7 -10 0 -10 2 0 -18 0 29 -20 -4 14 9 0 -17 56 -24 -120 12 -14 -31 -2 -21 16 -4 -8 15 -4 -10 0 -6 -3 11 -29 0 53 -21 -16 9 6 3 1 -3 -4 -6 -3 -4 -4 -16 6 13 -20 -2 33 6 -13 -19 0 -8 -6 9 -3 -11 7 7 4 -2 2 15 -3 -14 8 7 -3 9 -7 14 21 9 -6 -11 -8 -12 25 -6 9 -15 -11 25 0 17 -23 9 14 14 6 -9 -8 -8 -8 -19 -6 -1 1 7 -3 -4 -1 -2 -5 0 13 9 -10 1 -4 -4 2 -3 10 11 4 6 -4 -7 4 -10 -15 8 -25 -7 15 -9 8 20 0 -5 0 -2 -2 -5 -8 -9 11 0 -3 -5 -3 -3 13 -3 -15 -10 -10 -1 30 7 0 2 -5 0 7 -3 -4 3 -12 -11 8 -15 2 19 7 1 -5 -2 -5 4 15 3 -19 16 2 -2 -3 -3 10 -6 -5 15 -10 -10 9 -12 -9 1 -16 1 -7 -14 0 0 7 2 5 16 11 -2 -2 5 5 10 6 -12 16 2 -3 5 -2 -8 0 -8 -1 7 4 6 -13 -19 3 -9 -8 -15 -16 -14 -18 -2 -4 -13 15 9 14 -2 1 -18 -10 2 -16 -12 -6 -1 -4 -1 -1 2 2 1 7 -49 3 -30 13 -18 -2 55 -29 -19 -30 -20 -2 -5 -11 32 31 4 -14 -12 -10 4 3 -2 7 3 3 8 10 1 16 14 -1 1 11 -8 -4 -9 -10 -5 -16 -5 10 12 19 0 7 -8 2 -2 -5 3 0 1 0 20 -2 15 2 24 -9 -2 8 10 -1 -5 -7 16 7 0 6 -2 7 0 -2 -10 -3 -4 -4 0 -8 7 -7 -2 -5 -20 0 -2 -16 2 -26 -28 -32 -19 -24 -9 72 50 -9 5 1 5 -7 -21 -10 -18 -42 -26 0 5 3 3 2 -5 6 -5 7 1 0 6 -3 -10 0 3 0 3 8 6 -5 -11 20 -6 2 7 -5 1 15 11 -11 -14 -6 9 -6 3 6 -1 -4 8 -5 0 1 -10 8 0 8 -5 0 11 -6 -13 5 -9 -41 -25 -16 11 -6 -49 56 45 41 1 -1 -4 -2 -1 -4 6 3 -1 6 -1 -5 11 -4 -11 8 -9 -16 3 -3 6 -1 -8 0 -7 -5 -3 8 1 10 -18 -12 10 2 16 14 -2 -9 20 39 15 -21 45 22 -31 2 6 8 12 3 4 -2 7 -8 -1 -2 -16 -5 7 6 -5 -3 -10 -1 -8 11 13 -12 -40 -1 -12 -18 9 14 14 -33 -20 13 -28 -8 18 -5 -16 2 -2 -20 -6 0 -6 2 18 3 -6 26 -7 -26 16 -12 -25 0 -9 -14 6 -3 -23 20 5 -21 3 7 -7 7 16 8 -9 2 13 8 10 21 6 -2 19 -10 -18 16 9 -9 -8 4 13 9 -1 16 8 9 5 1 2 0 8 2 -5 -2 11 -3 17 -11 -16 17 -12 6 -22 0 7 2 5 -8 0 0 -4 5 4 11 0 13 -2 -10 4 3 -3 10 -15 0 5 1 4 4 0 -5 3 8 1 5 -8 1 7 -6 0 6 -3 6 -8 -9 13 4 9 15 -8 1 5 40 7 2 12 -19 17 3 -3 4 0 0 8 -17 -11 -3 -6 9 11 1 -6 6 10 -8 2 -5 1 5 7 4 9 -2 -15 10 11 6 9 15 7 11 12 -4 7 9 -1 -5 7 -4 -8 3 -24 -7 8 -19 -26 31 1 -39 47 21 -43 8 8 5 1 -14 16 -7 -13 8 16 7 4 -7 0 9 -10 0 10 9 8 24 -8 4 3 -7 -1 -11 0 5 -1 0 -18 0 0 -5 5 -1 -2 2 -4 8 4 -6 5 5 8 3 5 -5 -5 1 -5 1 -3 -2 -10 0 0 -2 -4 -6 -4 0 13 0 -10 9 2 5 2 3 -13 13 0 1 9 -9 -1 6 -13 -2 -1 -9 3 -2 -4 -10 3 9 -22 6 1 13 -13 -10 -2 -1 0 10 0 -9 -4 3 23 0 -7 1 -5 -2 3 1 -21 -2 -1 0 12 8 0 0 0 -5 -7 -13 -12 -11 -11 -11 0 -13 3 5 -7 -15 -12 7 -2 0 0 -5 -5 0 4 4 5 10 5 2 0 0 0 -4 -16 -1 0 -5 -5 -2 -7 -5 2 -5 0 -3 4 -7 5 1 4 -10 -11 -4 10 15 12 4 -10 -5 9 -21 5 3 4 -1 1 4 1 3 -1 -1 4 -4 1 4 20 14 -4 10 -2 1 -12 13 5 0 -33 -6 47 17 2 10 13 6 4 -2 12 19 -2 10 8 4 13 18 13 6 6 11 -3 3 -1 4 0 2 19 -4 -7 10 9 8 0 -7 7 -5 -13 -5 4 7 5 7 -1 -2 12 8 4 8 1 -3 -5 -6 -12 -11 14 2 -3 0 5 -3 1 3 2 2 3 -5 23 5 -14 1 -9 -9 -3 -13 -5 -3 1 -19 -18 -5 3 -16 -24 7 3 6 1 -5 -19 -1 -7 -16 -7 2 5 9 8 2 1 0 16 10 17 12 4 -9 -2 0 -11 0 4 0 0 -21 -18 -3 3 9 0 6 0 -6 2 -5 -2 -12 -6 9 -7 -19 -9 12 42 15 4 3 1 0 5 0 -6 -2 0 -1 -5 0 2 -3 2 0 -13 -4 2 -7 2 -3 -17 -11 3 19 7 -3 6 1 2 -3 -12 -12 -1 -6 -20 0 1 -3 -7 -1 0 5 0 -9 0 -7 4 9 6 0 -5 -4 -12 -23 -16 -4 -3 0 5 11 6 0 1 5 5 2 0 0 -5 -8 12 0 -13 -2 0 -3 -2 3 0 -1 3 9 9 10 16 3 4 10 0 3 0 1 5 9 -9 -17 -10 -3 -6 4 7 -5 5 9 -11 5 15 -6 3 0 -18 0 13 3 -31 -12 8 16 13 17 10 0 6 3 17 9 9 2 5 1 0 -11 1 7 -11 -12 2 -18 -3 2 32 10 0 22 10 10 14 -7 -6 -14 -11 -8 1 20 3 0 -8 -4 -17 -4 -8 2 -4 -3 2 5 0 3 6 3 0 9 15 8 10 -13 -11 17 -12 10 -9 4 -6 -7 -24 -11 10 6 -2 -14 1 0 -1 13 13 3 7 4 5 6 0 -23 4 69 13 -18 -36 -11 -2 6 -21 -25 12 51 18 -26 0 -4 -1 -19 -17 7 11 -8 -12 5 4 -5 0 2 -3 -3 -3 -14 -7 13 -10 -7 11 14 -19 -9 2 10 -10 -10 -14 17 24 17 6 2 -1 0 0 5 1 -7 1 7 -3 7 12 -9 8 19 2 -10 -17 1 -17 0 6 -1 -2 -12 -10 14 13 2 -4 2 8 -11 12 28 -3 1 6 8 -5 -9 -6 -7 -7 -8 1 13 -16 -9 -4 13 16 -10 1 -5 -19 2 0 4 -7 -15 -9 -7 -11 -7 11 12 9 0 -16 12 -5 -24 18 -10 -29 -4 6 49 18 2 -14 -17 1 1 8 3 -8 0 0 -3 18 8 -2 6 20 16 6 -30 -10 21 -7 3 5 -5 2 4 3 3 9 -4 -25 -26 3 -49 -31 4 -9 7 -3 1 7 7 5 10 4 1 4 3 -39 -16 -22 -13 0 -19 -33 0 -73 -7 62 -100 -3 99 -71 -11 52 -2 8 11 -1 0 8 9 13 10 -4 -4 10 12 4 15 2 -19 -1 -11 -37 -24 -18 -41 -10 -16 -27 -5 2 -1 5 3 -7 8 7 0 9 5 -7 -8 -7 22 24 0 -19 -5 -12 -1 7 0 -6 0 -12 -11 13 -17 0 5 -17 0 5 -16 -5 4 9 -27 -9 0 -43 -21 5 -24 -3 4 18 1 -3 -10 2 7 0 -23 -15 0 16 -31 -4 37 -17 -5 21 9 -2 10 4 -8 15 4 -8 1 -5 -1 -6 -12 -7 0 -6 -3 0 -9 -1 11 13 -6 -2 0 -2 25 -3 -11 6 -31 -9 9 -2 -1 11 3 -21 -4 12 -17 0 12 -5 10 -4 -18 2 7 -31 -1 6 -26 -4 -5 13 7 14 1 -10 -18 -16 0 6 3 1 6 -10 0 -3 -2 3 2 -1 3 10 -10 1 12 -5 -1 7 -2 0 -4 -13 15 24 7 2 -24 -4 21 -32 -5 25 -28 -5 30 2 -9 5 13 2 8 14 2 16 9 0 -6 -6 -2 11 5 -9 -6 -12 -1 14 12 1 -14 -4 -4 20 2 -4 10 6 -5 1 5 -16 -4 -30 9 33 -58 -1 54 -39 0 39 41 12 -21 49 2 -58 5 4 -24 17 4 -18 12 -4 -15 12 0 -2 31 -7 -34 49 0 -38 39 0 -28 -10 2 11 -4 6 6 1 12 8 -38 -9 13 -56 -20 29 -31 -17 4 -13 0 12 6 0 -2 -13 -16 -4 2 -14 -1 -2 1 8 14 -6 8 -7 -11 -4 -5 -10 11 1 -1 10 0 -1 7 -2 7 5 -12 -4 -7 12 -7 -3 -9 -6 24 11 -4 5 4 -9 4 18 0 6 -14 -12 6 10 -2 4 13 7 8 -5 -6 -7 -10 -1 32 -15 -11 20 -30 -16 15 16 -13 -4 24 -11 32 10 -5 -4 -3 -1 2 7 -12 6 -2 11 9 5 5 11 15 1 16 15 -9 -5 0 0 7 0 -16 -2 9 1 5 -4 3 1 4 5 -5 -6 -1 9 4 -7 8 6 -8 0 -7 -6 11 66 -19 -100 113 0 -140 81 -4 -111 0 -7 -6 2 -6 -2 19 -10 1 -9 -22 0 -9 -5 22 10 2 0 -6 -11 -3 0 3 9 2 -6 7 5 -13 3 -2 -9 18 9 -19 -2 13 3 23 15 -11 4 0 -7 14 -14 -21 8 -1 -23 10 14 -6 20 -5 5 1 5 0 6 8 -2 3 3 -9 4 16 6 7 -5 -16 11 -9 -12 8 2 -5 19 -8 -10 15 7 -4 -2 0 -20 -19 12 -2 -15 18 -9 -7 -8 -8 1 6 11 -18 0 0 -4 1 0 -3 6 5 3 4 9 5 3 6 4 0 0 4 -1 -1 3 0 0 4 0 0 2 4 -1 -5 6 -9 -6 5 2 1 -3 -5 -6 4 2 0 6 2 0 -13 1 11 -20 -12 9 -15 -2 11 -6 -25 -9 -21 -50 -19 -2 -24 4 -10 -13 -5 -11 -9 -2 0 1 1 -4 1 0 5 6 1 7 4 -2 -21 -8 8 -27 -10 14 -12 0 13 2 -3 -3 9 5 4 1 0 -1 5 3 0 -1 -1 2 6 4 10 -2 7 10 -5 -2 3 7 10 16 12 10 7 9 7 5 16 14 10 0 -7 -2 1 -8 0 0 -5 0 -9 -3 0 -4 -3 8 -9 -11 0 -25 -30 -19 -19 -27 -9 -5 -12 3 -4 -6 1 -10 0 7 -5 0 5 18 10 10 21 8 7 19 9 6 11 2 4 2 -4 1 -1 0 0 1 -4 2 -1 -5 2 1 2 5 -4 0 -5 1 3 0 -2 0 -7 2 -5 6 3 -4 7 5 -4 -1 5 -5 -1 -7 -20 -3 -8 -5 14 0 1 -1 8 9 7 0 -2 -3 0 1 3 6 1 -2 4 0 -7 1 -1 -1 0 -4 4 13 10 8 -32 -17 -25 -12 4 -9 -15 -1 -12 -6 -9 3 -15 -19 2 -15 -17 6 -5 -4 -1 -3 0 4 -3 0 -5 -9 -7 -7 0 1 0 0 0 -1 0 -3 -2 -5 -6 -3 -2 2 -4 -10 -7 -3 -7 0 2 -4 -1 3 -2 11 -23 18 33 -11 1 11 -30 2 -8 -4 5 -7 -1 7 -3 -2 -11 -12 -11 -7 -7 -8 -5 -6 -7 0 0 5 0 2 9 0 1 7 -4 -4 11 -10 -12 5 -12 -12 2 1 -4 -4 0 -11 -11 -6 -12 -6 4 3 -4 4 3 0 -2 -1 -6 -8 4 -10 0 11 -4 -3 -1 -10 8 0 0 6 0 -5 10 -2 -6 -1 0 0 -2 -7 -2 3 1 1 -4 4 -1 3 6 2 -4 2 5 1 1 0 2 2 2 2 0 4 8 17 4 16 26 9 10 18 2 -4 0 3 -2 19 8 -2 7 -1 0 2 1 0 0 -1 -2 -6 -3 0 1 -4 3 1 0 6 -2 -5 -8 -4 -1 -12 -8 0 0 4 2 -4 -2 0 0 7 2 -2 15 -6 -4 -5 -1 3 0 -3 3 2 -5 8 12 -1 8 11 -4 0 1 -17 6 7 4 6 2 1 1 -1 0 -7 -3 0 3 9 7 7 9 1 3 2 1 4 -1 1 2 -3 -3 -8 -2 11 -8 -1 10 -4 0 10 1 -6 0 6 0 2 14 8 2 8 0 7 8 0 3 5 0 2 -9 -8 -2 0 0 0 0 -2 0 -7 -2 -7 0 0 -1 3 2 1 2 -3 -5 5 -1 0 4 -2 -3 1 0 11 -8 -8 11 -10 4 12 3 2 -5 0 -2 1 1 4 3 -8 -23 -20 -20 -43 -34 -5 -19 -26 1 11 17 3 14 28 5 24 17 -5 -10 -8 -7 -12 -10 -6 -11 -16 -6 4 -6 -6 -5 -6 0 2 -14 5 8 10 -2 -1 0 -11 -11 -10 6 -1 -8 7 -4 -12 2 0 -4 3 -3 -9 9 -1 -4 11 4 1 1 -5 -1 3 -7 -6 11 9 11 3 13 -18 -2 14 -9 2 0 -8 9 3 -5 9 0 -9 11 6 -1 6 8 12 -11 -4 3 -2 9 8 14 -9 -2 -16 10 29 -9 16 -9 8 12 5 1 -4 2 9 9 0 -1 1 -1 0 -2 -5 0 1 -5 2 -9 -7 0 -13 -18 -5 -16 -11 0 4 4 0 1 5 0 0 -2 3 2 3 2 -4 0 0 -7 -6 -1 -16 -15 0 9 8 -4 3 2 -1 -2 -2 0 2 1 0 0 0 -8 -3 -8 0 6 5 11 23 18 4 -2 5 12 -6 4 5 -5 1 -2 -5 0 0 1 3 4 16 11 1 3 -2 -5 -4 0 1 -10 -6 -5 -3 -2 -10 -5 0 -8 -7 -1 0 -12 -17 -24 -48 -42 -4 -26 -17 0 -13 -7 0 -11 0 0 -18 -6 -5 -4 0 -4 -8 0 4 -9 0 5 6 0 0 0 -5 0 -3 -3 4 -3 -3 4 -6 -8 1 -5 -3 7 12 9 -5 -1 3 -4 -1 5 1 1 16 -16 -15 1 -16 2 16 0 0 7 1 6 13 2 6 8 1 1 -1 -1 -1 -2 -2 -5 -2 3 0 0 1 -3 -3 4 1 3 -4 -3 0 0 0 3 3 2 7 2 0 -7 12 6 0 11 7 0 0 0 -3 -8 -2 -8 -9 -2 -9 2 1 -2 1 2 0 0 -4 -5 1 5 1 -3 -3 -14 -5 -3 -2 0 -15 2 -20 -30 -11 0 4 -7 7 12 -1 -6 -6 -4 9 -21 -1 2 0 1 6 16 8 4 13 5 4 -2 -7 -24 -31 -20 -2 -8 -19 6 12 -10 -2 7 12 -8 -5 17 4 -4 2 16 16 17 4 -1 7 -1 -4 -1 -2 -6 -2 0 -5 0 -4 7 23 0 9 5 -6 -9 -3 -6 5 -5 -14 -6 0 2 -1 6 0 9 8 -5 -10 3 8 -13 -2 5 5 12 -15 -17 23 9 8 2 1 -27 18 -3 -8 -10 -10 29 -9 -11 -4 14 -6 -2 2 0 20 4 4 0 -3 4 -1 -2 1 -1 -4 -16 -14 8 -14 -4 0 3 19 10 12 0 0 -8 -16 -2 -6 -14 4 -2 2 -14 2 4 -1 6 3 11 4 -7 -1 5 -1 -1 7 -3 -2 -1 -9 0 -8 -10 -3 0 7 -4 -5 -4 0 6 0 -5 9 7 -2 -1 -4 -1 1 1 7 2 -11 -2 -2 14 1 -13 -1 2 -15 -8 8 -21 -27 -17 -28 -38 -26 -24 -37 -26 5 3 -7 9 -4 -7 10 6 -4 -16 13 -3 -15 -2 19 0 -19 3 3 6 4 -1 -5 -2 3 3 3 4 14 8 -5 5 4 -17 -8 -11 4 23 10 -9 9 2 -5 0 -1 -34 -3 -7 -66 -18 19 -26 -4 -22 7 6 9 11 10 14 16 10 11 -10 1 4 -6 1 -6 -2 8 -2 -9 4 -3 0 15 4 -10 9 0 8 3 19 11 -3 4 -12 5 8 1 3 -5 8 -5 -23 5 1 -10 -1 -2 -5 3 2 -5 3 3 2 1 -1 0 -3 13 3 10 4 0 0 -24 -9 -22 33 -19 1 0 4 10 3 5 11 11 4 3 11 -7 -4 -2 0 -4 -6 0 1 4 7 -6 -1 -23 10 13 -42 -37 2 -15 -7 0 5 -11 8 6 2 9 7 1 10 1 0 16 1 -6 10 -1 -25 2 0 -17 37 10 -7 -12 -30 -1 1 3 4 11 0 2 1 1 6 -1 2 -15 -19 5 2 5 10 -30 -10 -21 -7 -26 -61 -35 -11 -22 -6 16 3 -9 29 9 0 14 -3 -12 11 9 -31 -7 19 -6 2 -3 4 -4 1 0 -4 2 -3 5 13 6 2 -6 0 11 -3 2 -8 -7 -22 -11 -32 -21 0 -28 -18 -4 -32 -9 -15 -10 15 15 11 5 10 20 -2 12 3 -5 8 -7 -8 0 -3 -7 0 -7 -6 11 2 -3 7 -2 3 7 7 0 0 4 6 6 18 0 -2 -9 -26 6 15 12 0 -9 -7 2 0 -5 2 0 0 6 -1 0 8 4 -6 12 0 -5 4 -2 0 2 1 -3 10 0 3 9 7 0 9 0 4 14 -1 1 6 3 -8 0 -3 -4 6 3 -3 6 0 6 13 13 3 12 8 8 17 14 0 0 -10 1 0 -12 0 -1 -11 5 7 1 -8 -2 13 -12 -4 4 2 -4 -2 5 4 -12 -5 -8 -11 9 -5 -14 0 2 -13 11 -4 0 -15 -1 6 -3 8 -2 -7 -4 -2 2 -3 -2 7 6 7 4 -3 -3 11 -1 -11 -7 0 0 3 6 3 -18 0 -8 -11 15 -13 -15 4 -7 1 3 8 -4 0 2 -3 0 3 -4 5 2 -7 22 30 4 -9 -15 -5 -5 -10 14 23 -10 0 -7 -12 -5 14 5 -11 11 5 -5 5 1 -1 7 -9 8 -29 -8 -4 20 11 -13 -4 5 8 2 -13 -7 -4 1 -5 -8 -3 5 -5 -7 -2 -7 -11 -2 -3 3 -5 0 6 -2 -4 1 -1 0 0 5 9 -4 0 0 -5 16 17 6 19 -7 -3 -1 -9 -1 0 -10 -2 16 -9 -2 6 -9 4 0 -4 -9 -25 -14 -4 9 0 -12 10 -1 6 18 25 17 5 2 0 20 10 -9 35 6 -24 9 15 4 21 3 5 14 -10 0 8 -9 2 5 -1 -11 12 -4 -10 -9 -20 -18 -5 2 -9 10 21 1 -4 0 -14 -3 0 0 -14 -7 -10 -4 -6 0 -19 19 9 -5 12 -28 -2 -20 12 3 6 9 -10 -11 -2 -2 -7 0 1 3 8 1 6 8 6 7 5 6 0 2 4 -1 4 4 3 9 -13 -9 -2 -9 2 0 -12 -3 -5 -3 0 0 -7 -6 -1 -7 -6 -1 0 11 19 -14 12 20 -2 21 23 -3 -1 -24 17 22 -7 3 3 -19 10 15 4 4 3 4 3 -1 5 3 -8 4 -4 -8 0 -6 -1 5 11 12 -2 13 20 -3 5 23 2 3 3 5 0 5 0 1 -1 4 -11 -9 -1 5 7 -2 3 13 24 -4 -10 -8 8 12 -2 0 3 -3 2 3 8 1 3 9 5 6 11 -4 -1 -6 0 2 -3 -8 1 2 11 -5 -16 40 25 23 18 20 21 -9 -2 -11 5 16 1 1 11 -3 -11 -7 -3 -7 -5 -3 -3 -2 5 2 5 4 -5 -5 -5 -9 -12 -8 -1 0 3 -2 1 0 -7 -5 -3 -2 1 0 -6 4 -5 -8 6 -8 -5 -2 0 6 12 12 0 4 7 -4 -1 6 -5 -1 4 -2 2 1 2 12 12 10 12 8 20 10 3 4 1 -2 -2 -3 -4 -3 -1 1 -3 -8 -14 1 5 -6 -1 6 -8 0 7 0 0 6 1 -9 -4 -3 7 16 7 4 7 6 0 -3 0 3 21 12 5 17 3 -7 -8 -21 -6 -9 -4 -4 -4 1 -1 0 0 -4 0 5 -13 -1 7 -1 -2 0 -9 -7 -2 10 10 13 13 6 11 14 14 2 20 13 -3 18 3 -9 5 9 -2 13 16 3 6 5 -4 9 12 4 -6 -2 0 -19 -15 -4 6 15 12 5 17 15 -4 3 1 10 7 12 3 0 5 1 -2 4 2 1 -4 -3 0 -1 3 9 6 0 6 7 -10 3 14 -3 5 7 -4 7 9 3 0 2 5 -8 -10 12 -3 -1 2 -19 -9 -2 -8 5 2 -1 2 -1 -4 0 -3 -6 0 -3 0 2 -6 -8 0 1 -1 6 -4 -8 -1 -6 0 1 -1 3 0 2 -1 5 -2 -2 4 -3 -4 6 0 0 -5 3 1 -3 -5 -10 -10 0 6 2 -6 -11 4 -8 -18 3 2 -5 -5 -5 -7 -8 -2 0 6 -11 -11 -8 -2 -2 -2 -10 -5 -4 1 -6 -3 6 -4 -5 3 2 -5 1 5 10 -5 -2 2 -11 -11 5 -4 -4 -4 0 -2 -7 0 -2 -2 -13 -3 2 -8 0 4 -12 -3 -2 -2 3 3 -3 -4 -7 -1 -12 -12 -7 -5 -7 -4 -3 -5 -7 -4 -8 5 -2 0 0 -3 0 -4 -2 3 1 -2 -1 8 -2 -7 11 4 -5 -18 -16 -17 -5 0 -8 -7 -1 -9 -1 -2 0 -10 -8 -3 -9 -6 0 2 0 2 2 0 4 8 9 9 -1 -6 1 -7 -5 1 -1 1 2 -8 -3 0 -3 2 3 0 3 5 -6 0 -11 -13 0 2 -8 1 -2 -5 7 8 9 13 7 -2 -11 -6 31 20 -15 16 -9 -34 36 -5 -19 3 9 0 8 -23 -22 20 -16 -29 -10 -7 -3 -10 -10 -12 4 0 -13 23 4 19 1 -12 12 0 5 2 -1 -1 -10 1 0 -5 4 2 1 12 -8 19 1 -15 0 2 12 -13 2 -1 7 2 -5 9 -5 -3 -2 3 -5 12 -5 3 -5 13 3 -1 28 21 10 29 10 -7 1 -5 -31 1 -9 3 4 -3 -2 5 4 -5 9 9 -27 24 11 -42 22 -11 -32 -22 -11 18 -15 28 3 8 -24 -3 21 9 1 13 -16 15 2 7 -12 -1 -7 1 -9 -18 5 13 15 17 7 -12 2 8 -9 -11 7 -1 6 3 2 8 1 -1 -7 7 -6 -8 6 4 4 -1 3 7 -4 1 0 -16 -11 -5 -18 4 -6 -9 -13 -3 0 1 4 -8 -2 0 -2 1 -1 0 -16 0 -1 -32 -14 2 -14 -6 -2 -1 4 7 -26 2 -3 -11 6 -19 -4 -15 -2 26 3 -10 9 2 6 4 -9 14 -2 -10 7 0 -4 6 0 0 0 -12 0 7 5 12 11 13 -18 -6 -10 -6 22 6 6 -9 -8 0 -4 -2 1 -5 13 20 1 0 7 6 1 4 5 -11 -12 4 0 -6 2 7 -6 -4 0 0 1 -2 -4 -2 6 11 -1 -8 -1 0 -8 -3 -6 -18 3 26 -11 0 -2 12 -26 9 8 -32 23 -7 -18 -7 16 5 2 9 -6 2 -15 -25 -4 -10 -1 -2 0 0 -5 -1 2 -9 -1 0 -2 13 4 -8 5 2 3 -1 -1 0 2 3 -1 0 -1 -4 -2 4 2 -11 4 3 -7 -3 -9 1 -2 -8 6 -7 -7 -5 -2 -4 -13 -5 2 -8 2 0 -2 9 -8 -3 -20 -14 -5 7 -12 -3 6 -8 3 11 -24 -13 12 -6 -16 3 -10 0 0 -23 -17 44 -10 9 42 12 -8 9 15 -3 -7 -5 -21 -31 24 22 -9 4 -17 -39 32 -1 -39 -18 -12 -5 -20 -8 17 1 13 8 10 3 8 12 2 -12 -2 -12 -23 5 -5 3 4 -9 -5 2 -4 -4 7 1 -9 -20 41 0 0 -2 33 -11 -6 -4 -22 0 27 -4 16 27 -3 0 6 3 -4 2 -12 -2 -5 -22 0 -10 -1 -30 -2 -16 20 11 -20 -34 29 -8 5 -33 -33 0 16 0 -13 1 17 -16 -17 1 4 14 4 -3 4 1 -8 8 -1 -8 -6 -17 -9 31 -22 -5 2 -31 -11 3 -2 -10 -15 7 -4 1 10 -5 1 -10 -3 35 -31 -8 40 -49 -5 15 -3 -1 10 -11 -23 -9 0 -29 1 0 -1 3 18 4 0 15 -4 -1 5 4 7 -5 -11 -3 0 8 4 7 -6 -18 29 -28 -21 15 -17 -9 -12 -16 -17 -4 -21 14 19 20 30 -11 -3 -12 0 13 -2 -13 1 -11 5 -9 14 -9 -11 3 12 12 -3 -6 9 -5 -15 -24 1 12 2 3 -1 -7 -3 -1 -10 -2 8 0 6 -3 -3 -10 -1 6 2 -3 0 -2 2 3 6 5 6 6 1 -1 6 2 3 3 16 12 -12 5 6 -8 2 9 11 6 13 15 7 11 15 4 8 -4 3 2 -3 -2 7 3 5 2 3 -1 0 0 -5 -1 0 -4 8 12 -17 -2 0 1 14 3 0 -1 8 -7 -2 -1 -12 5 0 -1 -3 -6 2 0 -4 4 6 -6 -8 -13 -15 -12 -32 -18 -7 -12 -4 -16 24 7 -6 -15 1 10 -15 1 13 14 1 -3 -4 -4 -7 -5 12 7 10 6 1 17 7 -1 8 -3 14 8 -6 6 6 0 -4 -15 -7 0 -3 -10 -3 -9 -10 -6 -12 -10 -3 -2 -5 -2 -5 -4 -1 -1 5 -3 32 10 -7 0 -1 -16 -26 -13 0 1 4 -9 -10 0 -9 -9 0 -4 2 -2 -5 17 6 -23 0 -3 27 13 -2 5 22 7 -7 13 -3 4 9 1 -5 -9 -10 1 -5 2 3 0 9 5 13 1 2 3 -5 6 4 1 0 4 -1 -1 8 1 3 0 -2 5 -4 -5 0 4 0 -1 -12 -3 1 -7 -8 -4 -5 -15 -22 -33 -19 -17 -35 -24 -12 -11 -17 2 0 -7 -1 0 -1 -9 -7 -5 3 -2 2 -5 -8 -6 -2 -2 0 -18 -31 -20 1 -3 -10 -1 5 -14 0 3 -4 4 -6 -12 -2 -5 18 -5 0 -3 0 -3 -6 -1 0 -1 4 3 0 6 2 4 2 -2 2 5 5 0 5 2 0 0 -1 0 2 14 10 -6 3 6 -7 0 0 5 3 0 2 5 0 -7 -2 -4 0 -3 2 23 29 9 25 29 5 5 1 4 2 -1 -3 2 -2 1 0 6 13 0 -6 -4 4 0 3 -4 -1 0 -3 -9 -8 -4 -3 0 3 -1 3 1 -20 -6 -9 -8 13 5 9 4 -3 -2 -3 -1 1 -4 3 -5 -1 -11 -19 -15 -6 -3 0 0 -7 0 -2 2 -1 -6 6 10 16 23 9 6 9 6 1 14 8 0 3 -2 1 4 1 -8 -8 -6 -10 4 13 -16 -13 -7 8 -7 8 4 2 -9 0 -20 -3 -6 1 -6 -33 -28 -14 13 -4 -1 21 6 -5 1 -24 5 4 25 -14 -1 2 -17 0 0 7 1 5 -17 -1 -19 -4 -9 -1 -13 0 8 -13 -14 -17 -24 -2 0 -1 -5 -2 -6 -3 1 -2 2 6 1 -1 -6 -10 -6 -11 -11 -24 -42 -15 7 13 18 0 22 8 9 1 3 0 -2 7 -6 0 0 0 3 9 2 -2 4 8 -3 0 -11 5 -22 -10 7 -5 -30 -11 -2 7 7 -11 1 22 2 -12 -1 -2 -1 -5 6 15 6 11 -1 -2 -5 -4 -16 -18 -9 -2 0 -12 -8 -4 3 10 5 0 0 0 -6 -11 -10 5 7 3 0 0 9 -12 -6 6 13 -22 -7 -12 -7 30 -13 22 -15 6 9 3 10 23 -10 1 -7 -20 -15 7 2 -1 15 3 10 0 -10 -10 -4 -2 -14 2 16 -18 -16 0 6 -9 2 0 -7 14 -1 -9 13 7 15 21 -2 6 18 -4 4 15 -3 -6 3 -1 -6 25 1 -10 9 4 7 -8 -4 3 -2 -8 0 2 1 13 10 -4 -16 8 -10 -4 10 11 -13 6 6 -14 5 -5 -4 11 -1 1 3 -7 5 3 -10 6 -1 2 14 -4 8 20 -15 -2 0 -21 0 -21 -13 -17 37 2 2 -8 -7 4 11 14 0 13 -10 -1 13 0 0 4 -8 0 5 -5 5 0 -5 -3 -3 1 3 -8 0 9 5 -5 -2 6 7 -13 7 2 -26 -6 -4 1 4 0 0 2 -1 -1 -2 2 0 -10 0 -2 4 -3 0 11 -8 -3 -2 3 7 7 2 3 0 1 16 13 -13 2 16 0 3 10 -7 -7 14 4 -9 27 25 -13 6 -2 17 7 3 5 -8 10 13 1 9 4 1 11 -1 6 19 3 11 17 9 -3 -4 4 -1 -17 -1 11 11 3 -1 -16 18 14 -48 -7 14 -15 -18 -2 -3 -14 12 19 -6 15 12 6 8 -5 6 6 -8 -5 2 4 -2 4 9 -6 -5 5 -6 -9 1 3 -3 -13 -5 -2 0 -4 -1 6 3 5 -2 0 -7 -24 9 9 -2 -4 18 2 -8 38 -6 -12 13 -8 5 9 -2 -13 -9 -10 -7 0 -1 12 3 -2 1 -5 -2 -3 -10 -5 5 -3 -5 -1 -6 -3 2 -7 0 -5 1 -2 -3 0 0 0 -1 4 2 0 -10 0 5 0 -2 1 4 3 5 17 -6 -5 7 -17 0 2 -8 0 0 0 3 -1 -7 -4 0 7 17 16 4 -1 -3 0 10 4 -8 -6 3 -18 12 5 2 -7 -12 -10 -34 -13 15 14 -48 -5 7 -1 2 -10 13 -11 -13 8 -5 5 5 -5 5 0 12 18 -21 0 -5 -12 17 -20 -36 31 15 -41 19 35 25 -4 -9 7 -5 -8 12 2 13 20 2 3 0 4 9 5 5 9 10 -5 9 24 -5 -16 7 -11 -11 -10 0 -33 -63 29 40 -42 4 30 -4 -1 11 11 2 0 -5 1 1 -11 0 -3 2 -16 9 10 -7 -16 -11 -3 1 -14 -5 -11 19 20 -10 -14 -11 9 13 -24 7 25 -20 -20 -9 9 2 -7 3 2 -1 -4 -6 0 -9 -8 3 -10 1 4 5 -2 -7 14 3 11 6 -2 -1 -2 -1 18 0 -31 -9 24 -4 -14 16 21 5 -20 5 6 -13 4 1 16 4 -1 9 5 8 7 -22 -15 6 -16 -17 5 11 17 8 3 5 9 4 -5 -9 2 17 -11 11 8 -12 -5 -8 10 -12 -64 28 24 -44 21 25 -2 -1 -2 -1 0 -3 0 -2 -4 4 0 -5 -13 1 3 6 -3 -8 -5 17 -9 -14 1 60 -17 -36 13 25 -6 0 3 -2 -1 -3 6 8 10 -15 -11 0 -3 -9 -5 8 0 -1 -5 -7 -9 -3 -1 -8 -6 -2 -8 -4 -3 0 -9 0 -8 -10 3 0 4 4 4 3 3 1 0 4 2 1 -9 -37 8 10 -24 9 19 -6 2 -16 -21 -4 -7 -12 -2 7 14 10 0 -6 11 11 3 -3 -5 -3 14 5 5 3 -8 -3 13 9 8 3 -3 -10 12 6 -4 3 10 -1 -7 2 1 -8 -2 -4 -2 -8 3 6 4 24 -4 1 -9 -15 -1 4 -1 5 14 -9 -7 -1 -6 -6 -6 -4 -2 2 -8 -4 0 -10 -8 -3 3 -2 -7 -2 7 -8 -10 8 4 14 1 -14 9 9 -16 0 23 11 0 -9 -10 14 10 0 15 27 24 -5 -7 0 3 8 12 0 1 3 -6 -5 4 -9 -11 0 -8 -6 1 -9 -9 1 0 0 -3 6 0 -6 -7 -17 -19 2 -8 -30 5 12 -17 1 0 -2 -6 -5 -6 -4 1 10 -4 -4 -6 -7 -16 -2 0 -6 0 -8 -11 -19 0 2 -5 1 7 3 -10 -3 -1 -8 -2 -2 6 5 2 2 0 -14 5 -1 -11 9 -4 -12 -5 -13 -21 0 0 -7 -1 0 8 -8 0 3 -8 -2 9 -10 -10 0 2 1 -9 -3 10 -4 -2 7 4 7 4 -5 0 -5 -9 -3 -3 -9 0 7 8 -4 -2 4 0 -12 1 10 1 -7 9 11 3 -8 -5 6 3 -3 0 5 0 5 15 10 17 17 56 52 -25 29 50 -55 -19 8 0 -2 -6 0 2 -6 -2 0 -2 0 2 8 -7 0 4 -10 0 5 -2 -1 -11 0 2 0 -1 0 4 -1 -6 -8 3 3 -5 8 11 10 7 9 7 0 3 20 4 -3 12 -2 -5 -2 -1 -2 -6 1 0 1 6 13 11 -3 -16 -3 6 -8 2 2 0 -1 3 2 0 -3 5 1 1 5 6 0 -5 -5 2 8 11 0 8 6 -9 -15 0 0 -11 0 7 -2 -2 1 -10 -5 0 -7 -8 8 18 20 -10 4 14 -21 -6 4 3 3 7 -3 -16 2 12 -10 2 -8 -1 -3 -4 -5 0 -5 0 6 0 -2 7 0 -10 1 0 2 0 -2 -5 16 11 -15 -1 3 -1 12 12 0 -4 0 24 -14 1 9 3 -3 -6 0 -6 -5 -4 -2 -5 0 5 33 22 -20 14 14 -36 -11 -4 -2 -11 -19 3 3 -5 15 6 -1 -2 2 -1 -6 -2 7 -11 -8 2 5 5 0 -1 -4 2 -4 -9 3 5 6 -4 -6 4 -2 -14 5 -1 -6 -14 0 -2 -5 0 -8 0 6 11 2 -1 5 -3 -10 7 7 3 -6 -16 -1 -3 -9 -1 -5 0 -10 0 8 2 -7 -4 2 3 6 11 0 -3 4 -1 -5 0 -1 -5 0 -3 10 -19 -1 20 -5 -6 8 14 9 3 -3 -1 2 12 -2 -9 -5 11 19 -18 -3 11 -14 5 -3 -6 -5 5 -10 3 19 -13 -3 -2 -1 -8 -13 -12 1 -19 -11 -9 -27 -13 16 -28 12 17 -19 16 16 16 14 20 14 -1 15 10 -10 -8 -14 -16 20 3 0 0 -30 -1 16 23 -2 12 14 0 -2 -3 -3 -5 -11 -3 4 3 11 -12 -16 -12 21 14 9 13 -37 0 10 -54 5 -11 35 6 0 -1 5 -4 -4 1 0 4 0 9 29 0 12 28 1 -11 -16 -13 3 2 -8 10 -51 14 14 38 -4 17 9 -14 17 8 -7 0 0 6 -12 -5 -3 1 5 1 6 5 -8 17 -19 9 8 -22 11 -6 -5 -11 10 9 -2 -1 0 -3 -3 1 7 6 4 0 0 -2 -4 6 3 6 11 21 0 -17 -6 -7 -11 -6 12 5 6 0 4 1 4 0 3 3 1 17 -2 -1 15 -12 -5 0 -1 21 -11 17 -13 -18 13 -6 17 -14 25 28 -13 16 4 -1 -19 -38 -11 -2 -15 7 5 -25 2 -4 -20 0 4 3 -7 12 3 -17 6 1 -7 -22 -13 -4 0 4 -9 2 -3 -14 -19 -19 8 -9 -16 6 -5 10 -10 -2 -2 -7 7 15 -3 -1 -9 -3 5 4 -3 3 0 -2 -1 -1 0 3 5 -12 0 1 -5 0 1 2 20 13 4 0 -7 -2 1 9 -6 3 34 12 5 10 3 6 -14 -3 -1 3 -12 1 7 5 8 0 0 2 9 5 0 3 1 -4 -4 -6 -3 -4 3 0 -5 9 5 1 9 6 2 0 14 7 9 4 -1 3 10 0 -1 0 -4 1 2 -1 4 5 7 2 17 19 -8 -4 -5 -24 -4 -5 -4 0 1 2 -3 0 -2 2 -13 -13 18 4 -24 6 1 -2 -6 -1 0 -19 -26 5 16 21 26 -12 -26 -12 1 -23 -3 17 28 2 4 -35 -16 -18 -90 -18 12 17 9 4 11 -23 4 27 -7 -12 -17 -18 3 6 2 37 8 -10 0 -11 2 12 -4 0 -11 -62 -9 4 1 3 -4 -14 -9 2 -13 2 8 -4 2 -16 13 -21 1 40 -32 14 -62 -20 -27 -37 -6 3 -9 11 11 6 2 6 23 -1 -6 4 1 1 -8 3 1 -6 -12 0 -20 -8 -18 14 15 11 -46 7 22 -39 4 -1 49 -4 0 -12 -6 -24 -27 14 0 9 10 13 -3 -9 12 -6 -4 7 -4 -8 -28 -49 -1 -5 -39 24 19 34 39 23 6 -2 2 -8 0 -6 -7 -4 -28 -52 -5 -27 -41 -5 23 37 10 -15 8 0 -12 8 11 0 -7 -9 20 30 2 -7 -7 -10 1 -4 2 -7 -3 1 0 2 -5 -4 -17 -17 6 -21 6 0 -32 4 0 11 -23 -1 5 5 18 18 0 0 -12 -16 0 -11 -8 2 -13 -4 4 -11 -3 12 -20 16 13 -13 5 -6 0 -10 11 -24 12 8 -9 -1 1 16 -10 6 3 3 -3 -10 -1 -2 -6 -6 4 0 0 -2 -3 2 4 3 1 5 7 13 -1 1 5 -2 -1 1 -4 -16 -20 2 26 14 -10 -14 -13 -16 -11 -10 -14 -7 -5 -12 -6 -5 1 -13 -5 6 -7 5 3 -11 10 -3 2 9 -5 3 12 -10 -3 6 1 2 7 4 2 11 0 11 22 7 -1 4 14 0 11 11 2 -1 7 -4 -4 10 0 -7 -3 -8 -11 -1 -5 -5 15 -4 -30 0 -1 5 -8 0 26 16 -8 -7 -6 7 15 1 5 14 7 -10 6 3 -1 7 13 27 30 8 33 41 6 14 14 19 5 -6 9 -13 -26 12 10 12 1 -5 3 4 -8 -3 -1 -4 7 5 0 -5 4 -1 -13 -9 -8 -8 -8 -6 0 2 -10 -19 -8 -8 -3 -1 0 2 -4 0 3 -3 -4 -3 -21 -19 -10 -16 -3 8 -23 -28 -24 -24 -25 2 -35 -35 20 -23 -37 -16 0 -16 -18 10 -17 -28 5 -10 -10 2 -7 -8 4 7 10 16 1 -7 -9 0 0 -1 7 8 3 1 -1 -5 2 0 7 10 -8 0 0 -6 -6 -5 0 -8 0 11 -2 -8 6 12 11 9 20 8 0 5 9 4 -3 -1 11 -6 0 9 0 -5 -5 0 2 2 -1 -1 -3 0 8 9 -26 -22 -16 -24 0 36 -15 -3 11 -4 0 -1 7 4 -27 -5 0 7 -1 -6 -4 4 -2 1 -4 -8 -2 -10 -2 4 -8 7 17 1 10 11 5 3 10 2 0 0 1 0 0 3 10 12 5 11 14 6 9 9 -6 -1 7 -5 2 16 -8 -3 1 8 15 19 4 13 20 -6 2 10 6 0 -16 4 3 -16 5 5 -8 18 -5 -5 12 -3 -12 23 10 4 1 3 -5 1 -2 -5 -2 0 0 -7 1 3 -3 0 1 -7 3 -9 -4 -8 -17 0 -1 -5 -4 5 -4 -2 -1 -5 -4 -11 -10 -7 -4 -8 -3 2 -2 -5 2 -5 2 5 -2 2 -8 9 0 -9 18 -1 -7 12 6 10 17 0 6 13 6 9 7 -11 -9 -3 -3 7 -12 -3 0 0 0 4 -2 0 -2 -13 10 20 2 -6 -18 -22 -3 -6 -6 -4 -2 -17 -2 -8 -14 -14 -23 11 31 -4 -26 0 -1 0 10 -6 9 0 0 4 4 0 1 3 -4 4 -4 0 0 -8 -6 -5 -6 -8 -11 -2 -2 -4 4 3 -10 0 -3 -6 0 0 -5 -9 -17 -10 -17 -5 5 -12 0 1 2 4 -9 2 7 -11 5 6 -14 -9 -8 -23 -1 26 18 8 -13 -7 26 5 12 27 -12 -13 10 3 1 -13 -20 4 -25 -33 23 -8 -17 -3 -2 -5 -2 -4 1 6 1 1 -3 0 -2 0 -4 -3 3 8 8 -10 -11 -20 -26 -7 -21 -34 -13 -17 -26 6 8 9 -6 -4 -6 -2 2 11 7 8 -2 1 -13 3 -3 2 2 3 -4 -5 -1 -6 0 -3 6 12 7 -6 -11 8 -6 0 1 2 4 -7 4 -9 -6 1 -9 -12 -4 -14 1 -12 2 -4 -30 -2 2 16 29 -19 -6 8 -18 0 20 -14 -3 9 2 -5 -6 12 -18 -33 -2 -16 -4 2 -2 0 4 -10 -5 6 -1 -4 6 -14 -15 5 -11 -9 2 6 7 -10 -14 9 -4 -20 -10 -4 -19 11 1 10 -3 7 0 -19 2 -6 -12 17 7 7 0 -4 9 -4 -2 6 12 19 14 4 -2 -41 3 1 0 -5 -5 0 -7 -17 -7 -17 -10 -7 -2 -4 -5 12 -4 -7 14 4 4 -4 -8 -7 9 -5 -38 -6 0 -10 3 -4 2 9 -5 4 8 0 0 -1 2 1 0 4 -1 3 6 -2 -8 4 -2 -23 3 -7 -8 0 -13 2 2 -4 3 -2 -17 4 -2 -15 21 -6 -1 -7 -44 1 5 -12 13 2 -1 -10 8 -22 -38 2 -15 -12 -3 -1 9 -8 14 23 -3 6 7 -4 -4 -6 0 -16 -5 -2 -7 -11 -2 -5 -12 11 8 -12 4 -2 -13 -5 -12 -8 5 0 -2 1 0 -5 5 -7 -9 6 -15 -31 19 -10 -16 6 0 0 13 12 -1 -2 0 4 -2 6 6 -8 7 5 0 6 0 -6 -6 0 -2 -4 0 0 0 4 -2 1 -1 11 -6 -14 -5 -25 -9 10 2 -7 -7 -3 7 0 -5 0 4 0 2 6 4 6 -2 0 5 6 -2 2 0 -5 4 4 -5 -2 -3 0 -1 -7 0 -3 -2 -3 0 0 2 -10 11 7 -18 14 5 -15 13 -3 -5 13 -12 -7 15 0 -3 -7 -2 -3 -22 0 14 -24 -2 13 0 -4 -5 7 6 2 5 0 -6 0 13 0 -1 24 20 -10 4 15 5 2 1 16 -2 -4 18 3 7 -1 -7 3 8 3 3 12 0 4 0 -4 -10 7 2 -33 2 -3 -23 -1 -14 -12 16 0 8 -6 -3 14 11 -1 0 9 19 1 5 -10 -25 14 0 -2 5 0 -28 10 -9 -28 4 -4 0 6 -7 -5 -2 -11 -9 0 -18 -20 -3 25 27 3 4 -16 0 -6 -6 4 2 -21 5 0 -11 -14 -1 4 -20 -11 2 -3 18 9 2 -12 7 20 -45 6 -3 -19 11 -2 5 8 9 20 -23 -13 -1 -18 5 -23 -11 15 -19 -14 27 10 5 3 1 -2 10 1 -11 9 -2 -8 -6 -8 -9 1 -7 -21 13 -3 -13 13 4 8 16 -2 2 2 0 10 -6 -8 -12 16 -7 -14 8 -11 0 -11 -15 -14 -31 -43 -23 -17 -17 -10 12 3 11 13 0 3 14 0 0 11 -8 0 22 -4 8 0 -11 -10 0 5 22 9 -22 15 3 -21 0 8 7 16 22 7 11 8 -12 1 -5 0 -6 -1 8 0 -9 0 -10 -8 9 -21 7 19 -42 -5 6 -9 -19 22 -3 24 -4 -21 -5 -9 40 -4 -4 -4 0 3 3 -3 -1 0 -2 -3 -7 -2 -1 -2 1 -4 -1 0 0 -3 3 5 1 -1 -1 -3 4 3 0 8 5 -2 0 -1 3 -3 -1 0 0 3 4 1 2 3 5 14 0 14 9 -38 17 25 -19 -3 -8 4 -2 -5 8 5 7 19 1 2 0 -4 -7 -9 -2 -3 -2 -4 -9 -5 -2 -1 2 -2 1 0 -1 -7 -3 -6 -12 0 1 -3 2 -4 4 4 0 3 2 0 4 -1 0 12 3 2 0 5 3 2 0 -4 -3 0 0 5 8 5 2 7 4 1 3 5 4 7 7 4 8 -5 -5 2 0 -2 3 0 -6 -8 11 8 11 10 10 16 -7 -32 -7 0 0 3 4 2 9 10 6 15 9 4 4 6 -2 2 2 -6 1 2 -2 -1 4 6 6 10 11 8 4 12 7 1 1 -2 0 -8 -3 13 5 4 7 0 13 6 0 7 -7 -4 -5 1 2 1 -2 -1 -2 1 2 -3 5 6 -3 -7 -3 -8 6 -13 -1 -10 -39 -3 7 4 30 -2 -3 0 0 0 0 -2 1 1 1 0 2 -3 -5 -8 -7 -9 -10 -1 -2 -2 2 2 -3 0 5 1 -16 -4 1 2 32 31 5 25 24 -25 -29 -27 -26 -37 -32 -19 -27 -24 3 0 1 4 -5 -1 0 -3 -8 -6 4 5 -4 7 5 -3 2 2 5 -3 -6 -7 -18 -24 6 24 18 0 0 3 1 14 17 1 13 14 -7 1 -16 6 23 7 2 15 1 3 0 0 2 -4 -3 2 -3 -4 -14 -19 -15 -15 -23 -17 -10 -17 -12 1 0 -1 2 0 0 3 0 0 8 3 4 0 0 2 -8 -4 1 0 5 0 1 6 -3 0 3 0 -6 1 -6 0 3 -1 1 9 6 -7 3 7 -2 12 7 -5 -1 -13 0 -3 -2 -1 -1 -1 -1 -2 -6 0 0 -2 0 1 0 0 0 1 -4 -2 1 0 11 5 -2 4 0 6 4 3 3 5 5 1 0 1 14 24 22 22 41 37 15 31 28 -3 4 0 2 7 -1 -6 2 1 -1 4 1 -4 0 -4 -9 -3 -4 0 0 3 5 0 0 3 3 -2 -6 -4 -3 -9 8 8 -10 0 12 -2 4 1 -2 5 3 -1 1 3 1 3 -6 0 2 2 -1 -1 4 -12 -1 -4 -1 8 7 0 9 6 -1 3 -4 0 0 -6 -5 -2 -7 0 -1 0 -1 -1 2 -3 1 4 0 5 1 -2 2 1 -2 -1 -7 -1 -6 0 7 -4 -7 2 -4 -5 -1 3 -2 -6 -6 -6 -5 -6 -3 0 1 -1 2 1 0 0 -3 -5 0 -4 -3 1 0 -2 0 0 2 -7 0 5 0 6 0 0 2 -5 -4 -2 -4 0 1 0 0 1 0 4 -5 -5 3 -5 -10 1 0 0 3 -4 7 -1 -6 1 -1 12 7 4 7 10 7 0 0 5 -1 1 10 8 10 2 -2 5 8 0 2 -2 5 0 0 -1 -10 4 -3 -9 2 -28 -21 13 -41 -27 8 -11 5 -2 -6 1 0 -5 -1 0 -5 -2 -21 -19 -1 -37 5 17 -17 -30 -5 12 5 6 29 6 -12 -14 -20 -16 7 0 -3 0 1 -8 -9 1 6 3 -3 0 16 3 14 6 -18 -3 -35 -42 -27 -34 -50 -28 -28 -27 -32 -5 0 12 2 0 1 8 3 13 -14 6 7 -1 9 -10 -8 -9 22 0 9 10 -8 -3 7 -2 9 5 -5 -2 -2 -6 -1 -9 0 0 -6 -2 -33 -3 0 -47 -19 15 -18 2 -3 0 17 27 -1 -1 -7 -6 -14 32 -7 -20 56 3 -28 34 8 0 0 -3 7 -2 4 4 -3 -1 0 -16 -4 1 -7 0 2 -8 2 12 -8 -15 1 0 -4 12 4 2 12 -9 -14 8 -15 -31 5 -2 -3 11 -2 -18 0 1 -19 -5 12 -7 4 0 -15 0 0 -20 13 8 -7 14 1 9 0 36 3 2 -16 -27 -4 5 7 7 5 -6 0 -1 -5 -2 -11 -4 -10 -14 3 1 -8 -2 -7 0 -5 -6 4 -7 -3 7 5 9 -39 -4 29 -47 -5 40 -28 -11 22 14 -11 -35 94 40 -57 33 -4 -40 4 7 13 -1 -19 -3 -1 -18 -9 -9 -3 -3 -5 10 0 -4 -8 2 6 3 -11 2 11 9 -10 -8 11 -24 0 34 -37 0 36 -14 7 34 -16 -7 49 -29 -6 74 -3 -13 35 19 -10 -42 22 -13 -50 3 -13 -31 26 -1 -15 38 5 -14 31 6 -11 -7 6 2 -14 1 2 -5 -2 -4 38 0 29 58 15 34 42 7 41 -2 1 -2 -2 5 1 -4 0 -5 3 -7 2 6 -2 -3 4 -9 3 -6 -6 -7 -11 3 9 -10 -5 -4 -10 -11 -2 2 2 14 -5 -7 8 -6 -5 0 7 -11 -3 8 2 10 12 -1 6 -1 -3 13 4 -7 7 -12 -11 -1 -7 4 11 -6 -6 3 -41 -9 45 -55 -8 68 -31 -3 46 -2 -16 10 5 -9 4 7 -15 -4 -5 -5 -4 5 0 9 -3 0 5 -11 9 27 12 -3 13 21 2 -2 2 8 -3 0 -14 6 0 0 4 -10 -4 6 15 9 -2 -8 -15 -10 -1 -8 1 17 1 5 -6 0 12 31 4 -4 23 3 -1 20 -1 -7 -2 -1 0 9 1 -1 -7 -16 -1 0 -4 1 -14 -12 17 -7 6 22 1 -12 -7 5 3 5 -4 -2 4 4 -9 6 -5 -14 6 12 -13 11 8 8 22 5 -6 3 7 0 2 3 -3 9 -4 -21 0 9 0 3 1 -5 -6 11 -2 3 5 -8 0 -2 -11 -3 2 -3 18 5 0 6 -5 -7 3 3 -4 6 1 -4 4 -11 -8 -10 -2 -6 -19 -7 -9 -13 19 -6 -14 3 -8 19 1 3 -5 1 -6 2 27 22 32 2 -8 -2 -3 -7 -5 2 -3 -6 7 -1 -11 14 17 16 7 6 10 6 6 10 -4 -17 -1 -3 -29 -12 -3 -5 -10 0 2 3 2 1 4 3 1 1 9 -10 17 4 -26 13 9 -2 21 8 3 1 -1 -15 -4 5 -4 0 -8 -2 1 2 5 11 6 5 14 3 13 0 -8 16 -14 -8 11 -18 -5 -4 19 -7 -12 24 6 2 21 -3 -4 -12 9 13 12 -3 0 -1 8 -7 -24 12 4 -17 -14 8 21 1 -7 0 5 5 7 2 6 5 -5 -4 -4 0 2 -2 -2 1 -2 -4 -11 -5 0 -21 -8 -2 -8 -9 0 0 6 -11 -15 -8 4 -15 -12 1 0 0 1 -3 4 4 -1 7 -9 -9 -5 -11 2 5 -3 7 4 -3 -2 -1 -3 -6 -5 0 -3 -4 -5 -5 -13 -13 -8 -1 -14 -10 -2 4 3 0 -12 -8 0 -5 8 1 1 1 7 0 -7 0 -5 -5 -7 0 -6 6 -3 -14 0 -2 -3 -1 7 -5 -7 -6 -15 -4 -16 -8 11 -8 -10 -6 15 14 12 4 -2 -7 -18 -19 -7 -19 -11 -14 -15 -7 -6 -1 -1 -11 -14 -14 -16 -3 0 3 0 4 -5 9 15 -2 -4 -1 -3 1 4 11 -7 -7 7 -5 -6 4 0 -7 -9 -11 -12 -6 0 3 0 -2 0 0 10 15 19 4 -11 -6 -1 -3 -4 3 -7 -10 12 10 -7 -10 -5 -11 -4 2 -7 -1 -1 -7 4 -2 -8 5 1 -1 4 6 -1 0 2 0 7 5 2 0 -1 -9 -9 -9 -4 -10 -11 -3 4 6 5 1 0 2 -2 -5 0 -3 -5 -1 0 -1 -2 5 -5 -5 7 0 -4 4 0 -9 15 10 -2 14 4 -5 -1 -4 -19 8 3 0 0 3 7 -11 9 0 1 13 9 0 4 -17 -5 2 -6 -6 6 -6 -3 8 -7 1 -2 -11 10 10 15 2 2 7 4 4 2 6 12 4 -1 0 8 0 5 -8 -2 10 -5 -1 11 1 0 3 0 0 -3 -1 -2 -1 -1 0 3 -3 -1 -14 -15 12 13 12 2 6 8 7 16 20 6 5 0 -7 8 0 -16 -19 -7 6 -6 -14 8 6 0 0 4 7 -8 4 6 5 19 -13 -10 11 13 -14 -4 12 9 1 -9 9 15 3 4 13 2 0 -3 5 -7 -14 6 -2 -3 6 6 11 0 8 16 7 2 8 2 -6 -11 -10 -11 -7 -2 -5 5 1 -5 18 9 0 18 7 4 8 -11 7 7 10 8 -3 2 7 2 -4 -15 -8 -13 -22 -23 -13 3 0 -4 -3 0 -4 -5 -13 -4 -4 -17 -17 6 6 5 6 5 -9 3 15 -3 -6 0 0 6 8 13 6 8 2 0 0 -4 0 0 0 1 4 0 -5 -11 8 -8 -25 -2 0 -8 13 -22 6 17 9 6 4 24 6 -5 -9 -14 -21 -4 -31 -18 8 -37 8 -6 4 -3 6 3 -4 -14 -31 6 3 1 -3 10 10 3 -9 -13 -12 2 -1 10 7 13 2 14 17 4 -9 -7 -9 6 15 0 18 29 7 -3 -10 7 6 -11 -4 11 0 -6 -6 -10 -1 6 1 1 10 9 3 -7 -1 -6 -11 -18 5 -16 -6 -19 -2 -20 -6 -13 4 -11 -11 25 -2 1 -5 8 -1 -10 1 1 -7 3 -1 7 0 -13 -39 -13 -36 -93 -29 7 6 -15 2 2 18 12 -60 13 -13 5 -6 -10 -11 1 -13 -47 35 -2 6 0 -14 -15 -7 -19 -29 -7 6 -5 -5 0 6 -2 7 17 14 -6 -3 0 -1 -2 -6 7 5 10 -1 -7 1 4 -4 1 -1 -10 -3 3 -13 -11 15 2 4 4 -11 -2 -3 0 -1 0 -2 1 2 -2 0 -2 -1 7 9 -14 0 -18 -43 -2 -7 -7 -3 6 7 -10 21 8 -3 5 6 12 -11 -7 11 -23 -19 0 0 -15 -4 0 23 -6 -3 42 -3 -8 -11 -9 -3 0 -2 3 7 1 -13 -5 -1 -3 -15 0 -4 -47 3 4 -12 7 3 8 1 9 14 3 -6 2 5 -9 -29 0 5 -10 3 0 -5 -7 12 8 5 3 1 3 0 -9 -4 3 -7 -2 14 5 4 4 9 6 9 7 11 -18 -32 1 -12 11 6 11 -15 -18 32 -49 -13 0 2 4 0 -2 9 -1 -13 8 -9 -7 -2 0 3 2 8 9 3 -4 -5 0 -2 0 4 1 -2 3 -9 -8 -12 5 4 5 5 3 8 -11 -15 -10 5 4 0 11 10 1 6 -8 -7 19 8 -5 23 32 3 3 -8 -2 2 -2 -1 3 0 -1 -11 8 12 3 -14 -29 15 3 -26 6 12 -4 1 -3 -7 4 -42 -3 -4 0 6 -2 -10 5 -6 -37 7 -2 -9 -15 -1 13 -9 2 35 -9 -7 -7 -7 -16 -37 -14 -38 -98 -21 -5 -3 15 6 27 -13 -3 0 -24 -6 -15 -6 1 17 -7 11 49 -3 -3 -10 -3 -4 -6 -1 -3 -1 1 -10 -6 0 -22 -12 0 4 44 -10 1 14 13 1 -10 -8 -17 -48 -20 0 -15 -9 2 -4 -1 -9 -14 -21 15 1 3 12 1 0 -3 -28 25 -3 12 14 12 -32 21 16 -6 3 8 1 -3 -20 -19 -1 -18 -17 12 2 -7 -1 6 -2 0 12 1 7 14 17 5 -6 -16 5 -19 -30 0 -5 6 0 -3 -1 -5 5 3 10 0 3 5 7 9 0 1 -12 -8 -6 0 3 -5 5 6 0 0 0 1 6 4 6 0 13 -21 -33 8 -3 2 -2 1 -2 -5 11 13 12 -7 -10 3 -1 14 -3 4 16 -14 -2 9 18 -1 -9 -1 -6 -35 -7 -13 -17 -16 -6 -8 -11 0 3 -3 -6 8 0 -1 -13 2 13 -3 -1 0 9 3 12 -39 -10 -1 -17 2 3 7 -4 15 11 -7 10 13 1 1 0 -3 -2 4 -8 1 -19 -8 -4 -8 -8 -7 -12 -9 -2 -9 -8 6 -4 15 15 -7 3 -7 -1 1 12 8 1 8 4 -4 0 0 0 1 2 1 2 -9 -5 -5 5 -9 -9 1 2 -9 -2 1 -4 0 5 -1 7 6 8 9 -2 6 10 4 4 2 -12 20 8 -2 12 0 -12 -10 -6 0 -11 -1 1 1 2 -4 -8 5 -3 0 -6 -13 -4 0 1 -1 2 5 7 -78 12 -11 6 -15 -4 20 -6 8 -13 6 19 -2 16 -5 3 4 -3 9 3 4 11 2 -22 -6 1 -35 -21 6 8 13 7 3 1 0 0 -15 -11 15 -7 -10 5 3 -1 7 -7 1 6 0 8 10 1 1 -9 -12 -24 2 11 0 -11 -13 6 -19 -20 9 -2 5 18 -21 4 -3 -9 29 9 -9 6 4 -30 -3 -12 -69 6 20 -13 21 -6 11 0 2 18 -14 -3 3 2 6 6 3 -19 -1 -3 -39 -15 -7 -29 13 -4 -6 0 -4 1 -1 -1 0 -8 5 5 4 4 5 11 2 -1 -37 -7 4 -34 2 -10 -20 7 1 1 -14 3 -13 5 1 -3 4 -5 4 -2 -8 11 1 -5 2 1 5 -1 -1 6 -4 -18 -2 3 0 4 3 -4 -7 -19 17 15 -6 13 -9 -4 13 -5 0 -8 -37 -13 -2 22 1 -5 7 0 -9 -2 6 6 -1 2 1 2 10 0 -4 -5 -5 2 2 0 8 2 -5 2 4 6 3 -7 -17 7 -2 -10 17 9 11 15 -5 6 4 -10 5 8 0 6 0 -4 2 -6 11 25 -6 -1 7 -5 0 6 -5 -3 2 -4 -5 3 0 -16 -10 -16 15 13 -22 1 5 -5 -5 -2 -5 0 -2 -8 0 13 -11 2 0 -12 2 -4 -7 -1 -11 8 -4 -9 5 -6 -37 7 -13 -22 9 10 9 -10 4 18 -3 7 6 -18 -12 -13 -8 -3 -12 2 -10 -12 34 4 -20 2 -2 -55 14 -8 -20 17 -2 -1 -1 -6 -5 -1 1 2 3 10 -12 -21 30 15 -8 2 3 -7 2 5 1 3 -8 20 1 -3 9 21 16 3 8 -11 4 21 -12 -10 3 4 7 -19 44 -2 8 0 -16 6 -8 9 19 -38 13 0 -9 9 -14 3 4 -8 -12 -11 5 -4 -10 0 -8 -5 -7 -18 -2 0 0 -1 6 -4 9 19 -9 2 0 4 -12 3 -12 -4 -19 12 27 6 21 0 13 7 1 0 1 -6 0 -5 -10 4 4 16 10 14 9 -10 -10 -11 10 16 4 -9 -16 -7 -10 -1 22 10 14 0 0 9 6 11 8 -2 10 -4 0 -3 -5 0 3 -9 -1 -6 -9 3 -9 4 11 -7 -2 14 15 -7 -3 10 -24 -6 10 -8 1 7 -3 16 -14 -15 2 0 -10 1 26 -16 0 -9 4 9 7 -8 -18 5 5 -2 1 2 -13 -3 7 10 9 6 4 -8 -23 -14 10 11 10 -3 4 0 0 5 -3 0 0 -9 6 -25 -2 -5 -43 13 4 -2 10 5 -1 -4 13 3 -3 20 11 0 4 0 14 0 6 14 3 13 12 -15 -11 -7 -9 2 0 3 18 4 1 7 14 25 28 30 16 6 19 11 9 5 3 7 0 5 18 5 -13 -4 4 -4 9 15 0 16 9 2 7 3 -5 3 -2 -13 -15 -15 10 -5 21 -2 -8 -17 2 8 0 18 2 17 -8 -18 8 -4 18 2 -9 -5 -7 6 11 0 4 4 -1 -11 -3 -2 0 -7 -3 -14 7 6 -12 0 -3 -5 9 6 7 13 3 4 4 0 9 13 7 10 18 2 -3 -22 0 -12 19 1 -6 2 -13 -6 5 -3 25 56 19 10 36 2 -2 0 7 -13 -10 10 14 4 18 7 1 10 -13 -19 4 -3 10 6 4 -1 -6 0 -9 -6 5 0 0 -1 -5 -1 -6 -21 12 -7 -22 6 -1 0 7 -9 0 6 4 8 12 0 1 0 -3 -5 -2 8 7 4 -10 -18 2 -22 -25 -3 -10 -17 -3 -10 0 -6 -4 11 4 -2 3 9 -5 0 -11 5 9 -9 -12 -16 -18 -2 4 0 -7 -1 -9 -10 -1 -19 9 3 6 -1 -14 11 0 0 3 14 5 -3 -3 -6 -10 -5 -20 -27 -1 -6 -2 -1 1 2 4 6 9 -4 4 -10 6 24 -1 7 7 -15 -2 -6 0 1 -3 1 4 -1 5 -2 0 -3 12 31 4 -7 6 -11 -8 -3 -9 3 9 -7 0 7 -15 11 11 6 27 13 10 25 3 11 0 3 4 -7 0 5 -6 3 9 5 -1 6 -11 -7 21 0 8 23 -3 5 0 -8 -6 -10 -14 -2 -1 -6 5 1 -19 3 -3 -2 11 -2 -1 5 5 -5 5 6 -9 0 4 2 8 2 -3 -2 -5 5 4 4 7 -4 -3 -5 -13 -10 0 4 0 -2 -12 9 -4 -10 1 -12 -16 -7 5 2 0 5 0 -3 12 8 1 -20 17 0 10 11 -4 13 -30 7 5 0 8 -1 0 -2 7 0 0 -14 20 -8 -16 -19 -8 0 -10 -3 7 17 -7 -6 -18 0 -10 -4 -14 -10 -10 13 12 2 5 17 -2 4 -3 -5 -2 -15 -19 -13 -13 -20 -15 2 1 2 -5 -8 0 6 9 8 4 -3 0 -1 5 -2 -3 4 0 -8 -16 -13 -14 -9 6 -4 5 5 -9 1 10 0 1 3 6 -1 11 11 23 17 10 18 10 24 20 16 -19 -18 -5 -20 -12 -5 -11 3 -15 1 0 6 15 -16 -1 10 -4 -1 -2 -12 -4 -3 -3 -7 -4 3 -9 -6 -5 -8 -15 -28 -26 -5 -6 -17 2 2 10 2 3 12 7 8 16 0 14 -6 18 29 4 25 44 17 25 -24 -5 -4 7 7 4 -7 -8 1 -11 -5 3 -13 0 6 -10 3 11 13 9 0 -2 2 -7 -20 -13 -4 3 -1 -1 0 -3 -6 -10 -10 4 5 0 -14 -7 13 5 16 -4 3 7 14 0 2 12 3 5 9 5 10 3 -3 -2 0 -4 2 -2 2 3 -4 2 4 2 -2 0 -5 -10 -3 8 2 -3 -4 3 2 -10 1 9 7 -14 7 10 -8 23 8 7 5 -2 0 6 0 -6 -3 -4 -10 -15 -12 -1 -5 -5 -3 -12 -13 -13 9 -10 -20 32 18 1 -27 -6 9 -8 0 -17 -17 10 -14 -4 -8 0 4 4 -5 -3 2 -2 0 4 5 12 -1 -4 7 -2 -1 1 2 -5 -1 -5 0 1 -1 -6 -12 -4 -5 0 -1 -7 0 3 -6 0 0 -8 -14 -5 1 28 9 2 2 -6 -10 6 1 -6 10 4 -2 2 -2 -9 -20 -16 -2 -10 -7 -3 -3 -7 -10 -2 -8 -3 0 0 8 9 -3 -10 -13 -6 0 2 1 2 2 0 3 3 1 10 0 0 9 8 12 -2 -5 -12 -7 1 -2 -11 4 4 4 -5 6 1 -11 -3 -1 -11 -15 -1 4 -3 -3 1 -7 -7 -3 -12 -17 -2 -8 1 5 0 3 -1 -3 -1 -3 -1 6 6 9 0 -3 -3 -1 8 7 -8 0 5 -1 5 1 -13 -9 -20 -4 -9 -10 -3 -2 2 17 -3 1 5 -16 6 4 -5 -1 -7 -2 0 0 0 -4 -2 -10 -14 1 0 3 0 9 13 0 5 9 -2 1 -1 2 7 2 5 0 2 -3 8 4 -2 10 6 4 5 -3 -5 0 -4 0 9 8 1 7 0 -3 2 20 15 5 -2 15 4 -2 -1 -2 5 2 0 6 0 1 4 -2 0 9 4 -17 -3 9 9 0 -1 -11 -18 2 -3 -17 0 -17 0 -5 -23 -7 3 -8 -2 -8 12 14 0 7 -3 -8 5 1 -7 5 3 0 -10 -5 -13 -29 -16 5 -14 0 -12 -43 -27 2 8 -5 0 35 5 4 6 -12 -3 9 -2 7 35 16 5 6 7 -1 0 -1 0 -4 -8 -2 0 1 5 12 -28 0 -15 -6 -5 -21 -27 3 0 -28 -2 7 -16 -14 9 -7 -3 0 -13 -8 -13 -7 -3 3 5 16 -21 -2 14 -10 -9 -2 15 6 10 -25 -4 6 -23 -16 5 23 11 -8 -19 -16 -10 -34 -27 -8 0 -5 -6 2 -4 1 5 0 9 18 0 2 2 -9 -2 -27 -25 4 21 0 12 8 -4 -2 -9 -7 -4 -19 -17 -2 3 -8 5 23 8 7 2 -9 -2 4 -14 13 7 7 -4 -28 -25 3 8 10 -6 -4 -10 -4 0 0 -1 0 2 7 15 10 0 23 -2 -2 17 0 2 -7 -13 -1 -18 -18 3 -5 -11 8 15 -6 -4 0 -6 0 9 -1 0 6 -4 0 3 6 -3 -6 7 -2 -5 -1 -1 -35 -14 0 11 -6 -3 22 -17 -5 3 -17 11 29 -18 3 15 -15 0 -1 2 -4 4 -2 12 10 -11 -8 -1 13 -9 -11 -12 -5 -12 -18 5 -11 -6 14 -5 -1 0 -8 1 -4 -11 4 -5 -12 6 11 7 12 12 7 12 11 3 7 -11 -22 -11 0 0 -6 3 6 -6 -7 -7 -11 20 14 -1 5 -6 0 -21 -29 -15 -9 -17 -2 10 17 20 -7 -37 -12 -1 8 9 0 -3 4 -4 -10 -7 -3 2 -3 -2 0 -17 -1 6 -12 -22 -18 8 2 33 1 -8 -19 -31 6 -4 -13 -9 8 -6 2 5 -4 -1 -4 -13 4 12 -7 -1 7 -7 -13 -3 -1 1 -12 4 5 -1 11 -11 26 -8 -2 17 -13 4 1 -21 -1 -6 -1 -2 -11 0 1 -4 -1 -9 -18 -5 8 10 11 1 28 12 1 0 -1 2 6 -1 -2 -2 -3 -5 -5 0 1 5 -2 -15 -6 -7 -8 -1 -2 -8 19 7 -6 -8 -10 -17 -24 -5 0 -15 -9 30 38 13 0 -6 3 7 -1 12 21 7 6 0 11 -9 -2 29 6 -19 -5 0 9 10 -5 -15 18 4 -6 3 0 0 1 0 4 12 4 -18 -24 -23 12 19 0 -12 -27 -12 6 5 8 0 -2 3 -1 -6 1 1 0 11 5 -2 6 0 -1 -1 9 4 -11 0 4 -5 5 20 -6 0 17 0 -6 -5 -25 -14 16 -14 2 16 3 -2 -4 -5 7 13 -15 3 12 -12 -10 -6 -5 -5 0 -5 0 0 6 0 -7 1 5 -8 -2 5 -3 2 1 3 4 0 6 2 2 10 0 2 -2 9 0 -9 2 4 -5 -4 -20 -11 -3 -15 -14 9 1 0 23 1 4 5 -4 -2 3 -6 -7 4 -11 4 16 -43 -21 23 -24 -13 14 -22 20 14 5 21 -36 0 -12 -42 -9 6 -36 -31 24 -9 -16 -23 -7 -13 0 -13 4 24 5 -14 -25 -23 -2 9 -6 3 17 -28 6 15 -16 19 1 4 -17 -17 13 -6 -4 15 6 -9 -4 24 8 23 -16 -19 -9 1 8 3 3 5 0 -5 -6 -3 3 34 -17 8 -27 -12 4 8 7 5 12 -30 -15 27 14 -26 -28 -17 -6 4 7 -9 -3 5 6 5 7 -12 2 2 -4 47 -21 0 0 -34 -33 -15 -6 8 45 -9 12 -46 -26 -16 11 4 15 18 -35 -5 -20 -50 4 2 0 -1 -7 -6 -5 -15 -19 -11 25 12 16 32 -27 -10 -28 -44 -13 -10 -5 3 11 10 10 16 17 15 3 -18 -6 37 10 -34 -5 -10 -7 9 10 9 9 -5 -24 -14 -23 5 -3 12 -2 -7 18 8 8 4 -14 -6 3 -8 11 12 0 11 9 -12 -15 -13 6 20 7 -14 -29 2 0 -7 -17 -27 8 21 -12 5 2 1 0 -14 1 -4 -12 -7 -11 -17 0 -7 -3 7 -8 -2 16 -12 -15 15 -7 -34 -30 36 5 -17 -24 -7 -2 0 5 -9 7 10 -15 0 11 -1 6 -6 -13 -12 -7 13 12 13 -7 -5 -3 1 1 1 -4 -8 -8 -2 -2 9 0 -6 10 -4 17 15 4 2 0 4 5 3 4 1 0 -32 -6 9 11 -15 -12 27 7 -11 -45 -56 -48 2 0 -3 43 54 38 1 0 5 -7 -9 -3 -1 -4 -2 1 12 19 -3 -7 -4 -7 6 0 14 -7 11 7 -7 10 14 5 -8 -8 -1 5 0 4 3 0 2 4 1 1 -2 10 -16 -6 3 3 6 6 6 -5 6 -4 4 6 2 5 -11 -17 -14 5 2 1 0 -4 2 -2 5 18 -7 -11 8 5 10 25 14 3 -16 15 29 -8 -22 -34 -29 -3 -3 -2 -10 -10 -10 6 18 19 6 -16 3 -7 7 14 0 14 1 -15 -19 -11 0 -3 2 12 16 15 6 -2 4 -18 -20 -1 -10 -1 8 3 5 2 2 -12 6 14 2 26 0 -1 -8 -14 -14 -21 4 10 5 8 -7 -1 -2 -5 2 -1 3 7 13 7 -19 -9 -40 -26 5 16 24 0 3 7 -1 3 1 -3 -1 0 7 -13 5 -5 -4 0 10 22 11 -9 -17 -17 -19 -27 -24 5 4 0 -45 -45 -33 13 22 8 35 48 31 42 57 27 9 2 -6 -23 -49 -33 10 4 11 1 -9 2 -5 -11 12 -3 11 12 -6 0 1 3 8 8 -2 -5 -6 -35 -66 -44 8 -4 -4 -49 -62 -37 0 14 12 32 59 35 13 12 8 -7 -12 -4 -1 -2 10 25 16 15 6 -8 1 -2 -13 -8 14 16 9 -9 -11 -6 -28 -33 -20 -1 -2 -2 2 4 1 4 4 -3 0 -11 -9 3 1 3 10 24 27 4 11 -1 5 4 -6 6 3 0 2 7 1 -2 5 4 -3 12 21 0 1 3 9 11 -10 3 -5 -24 2 13 8 2 0 5 -2 -4 6 -8 -2 4 -13 7 7 -19 -11 5 -3 -5 2 0 0 -3 8 16 7 2 -6 7 0 -2 8 4 9 5 -25 -31 -17 0 1 5 22 26 28 21 22 10 -22 24 -20 8 22 -4 2 3 -4 -1 -3 -11 -1 3 -4 6 8 14 -25 -38 -16 15 1 -8 -1 -1 -2 3 3 -7 10 0 9 -5 16 -9 1 8 -8 15 17 -14 -14 0 -3 -14 -11 -5 20 13 8 70 81 59 -5 -7 -11 -57 -82 -63 9 6 -1 4 -2 -11 3 10 -5 -18 -24 -12 -23 -18 -2 3 12 20 5 -2 -1 6 -12 -6 -2 5 -5 -5 -3 17 6 7 14 0 -2 2 -9 -20 4 -49 -62 -9 0 3 8 0 1 -2 1 -3 0 10 -1 13 -3 -10 0 -2 -8 2 -1 0 -15 1 5 0 1 -9 -11 2 6 16 -7 -4 1 -8 -5 0 15 25 18 9 8 1 15 10 -4 0 -7 -8 6 -12 -11 -1 -5 0 -8 9 0 3 2 -2 3 6 0 -2 -6 -7 -2 -1 1 3 11 3 -10 -10 -5 -9 -10 -9 -4 -4 -4 1 0 -3 -3 8 12 8 -23 -3 4 -9 0 -17 -18 -12 -3 -1 0 12 16 12 9 1 -17 -16 1 18 -15 0 15 -14 -11 -13 -1 4 0 4 12 5 -9 -12 -15 -14 -16 -17 -15 -14 -16 -1 1 5 3 -1 7 -5 -4 3 -13 -4 5 0 -9 1 -1 -14 -3 6 7 1 -7 -14 -15 -6 0 -4 -4 1 -2 0 -5 14 11 -4 -6 2 0 -8 0 6 12 0 -6 11 -7 -7 -1 -5 2 3 -6 0 0 -9 8 16 -15 -11 8 -3 -7 3 -19 -22 -2 -14 -31 -17 22 35 8 -11 -24 -13 0 -12 -9 13 5 -2 6 -7 -6 -2 1 0 10 28 14 -12 -14 -8 -5 -4 1 6 9 7 -3 -5 -16 -10 -12 -10 -17 -18 -11 16 12 0 -8 -14 2 -2 -13 -3 -6 -2 0 -3 -4 -4 0 5 2 -2 -3 -2 5 0 -2 3 -3 -3 -20 -14 3 15 30 12 18 0 -25 -4 4 9 -1 0 -3 -4 -2 -3 16 13 18 2 -4 -10 0 -3 -3 -13 -14 -12 -19 -17 -20 -11 -3 -12 -9 -1 3 -11 -10 -6 -12 -12 -7 -18 -45 -36 17 23 10 34 53 29 1 8 9 -12 -15 -2 1 -4 -6 4 12 9 2 4 -1 11 6 5 7 21 1 8 40 11 -12 8 -2 -1 11 13 -1 0 2 -3 -3 0 16 25 14 0 1 -2 -3 -7 -7 -10 -16 -4 12 7 4 19 22 11 -5 -13 -20 1 -2 -11 12 13 -1 -3 -5 -5 3 3 1 8 17 11 3 0 0 1 0 0 -2 -6 -4 -13 -4 5 -9 -7 -7 3 0 -2 1 5 -2 -9 1 0 1 -5 -4 4 9 -6 -8 -14 0 -7 -2 15 9 1 1 2 -4 0 -4 -11 -1 13 14 9 -2 0 -2 -7 -10 -7 2 2 2 0 0 -4 0 1 2 1 0 1 -3 -5 2 1 1 5 10 17 8 -5 -6 -10 -13 -17 -16 24 7 10 -9 -2 -6 -5 5 5 13 12 8 3 -11 -6 0 0 2 5 23 0 -25 -3 3 4 -4 -5 -4 8 -1 0 16 -5 13 9 5 2 9 14 -3 -9 0 -6 4 -6 10 7 9 -11 -10 -3 -8 -4 0 -2 -11 -16 -5 -3 -9 3 5 -2 -1 7 9 -2 -6 0 1 2 -4 14 7 -4 -9 -11 -8 0 18 9 3 5 -4 0 0 -2 -1 -2 0 -7 13 4 0 0 -5 3 -3 0 5 11 0 -6 -9 -5 -9 -16 -22 -11 8 11 -13 -10 3 0 -3 0 -10 -8 -3 4 -6 -1 13 0 2 3 10 7 -1 -8 -10 0 -5 -5 1 5 7 -5 -6 2 7 11 13 -6 -3 -5 0 0 -12 -4 -7 -10 0 10 0 11 -9 -1 -6 12 14 -8 3 -13 0 36 21 -16 -1 -16 -2 -13 -23 2 32 22 -6 7 -3 -5 -7 -8 -3 -6 -11 -7 -10 -13 4 -19 11 14 -21 -17 15 14 11 8 5 2 11 21 15 5 9 9 -6 7 6 -3 -10 -17 -7 15 11 -3 3 -7 -3 1 -4 -2 6 -6 11 -6 -4 -4 -17 -11 7 8 4 -4 35 59 1 -29 -32 -14 22 -14 -5 -1 0 -7 -14 -6 -4 3 5 -10 3 -8 -4 32 29 -2 11 9 -10 -9 6 12 -17 -7 1 25 0 2 -2 3 17 3 -1 -5 5 -1 0 3 7 4 4 9 0 5 7 9 -6 9 15 -20 -11 -1 0 -14 -7 8 -7 -8 7 -1 -2 -2 -3 -4 -1 -7 -3 1 -4 -3 4 -1 0 26 13 -2 16 0 2 8 0 -3 3 5 0 -1 -1 0 3 6 -10 -12 -8 4 7 6 11 20 20 -13 -7 9 2 -45 -3 0 10 19 24 35 5 25 53 29 8 -5 4 -4 6 9 -2 12 -11 -1 1 -20 -6 0 2 -4 -1 1 -2 11 0 1 -2 0 3 0 -4 4 8 0 -10 -4 0 3 -21 -22 -5 5 0 5 -10 -11 6 10 0 7 11 11 -8 4 -7 -3 7 -7 5 8 -5 -1 2 0 -6 -8 -10 -4 0 -2 -2 13 3 3 -2 7 9 -6 -3 -9 28 2 -16 19 11 1 -9 -1 -1 -5 -10 -1 7 -2 1 8 8 4 13 3 0 3 -2 -1 -2 -8 -2 9 3 -3 0 -5 -3 -3 -4 -1 4 -5 7 6 -7 -6 0 -3 4 0 0 8 -2 -2 4 0 -2 2 -7 1 -5 11 14 -4 9 5 2 -2 -4 4 6 0 -5 0 0 -4 -3 -13 10 21 7 -5 -4 13 5 6 -19 -11 1 4 -14 -11 -5 -10 4 19 0 -17 -27 5 5 -5 -5 -16 12 -15 -73 -25 -9 -49 -28 -9 -3 -24 -13 36 27 -12 5 -7 4 -6 -12 -1 -9 -23 -5 -9 5 -17 10 10 -10 -26 -20 -3 -9 -18 -6 1 -5 -2 0 -4 2 -3 -9 -6 -11 -27 -23 67 32 -15 -15 0 0 -15 9 11 -28 -36 16 5 -3 -1 7 -5 -5 20 6 3 5 3 9 7 -1 9 2 1 1 0 -6 6 -11 37 10 -7 -44 -16 6 -4 -4 -4 -19 8 17 4 0 6 -6 -5 0 2 -4 -8 -6 -8 -5 -7 4 -11 -5 3 -13 -24 -1 -9 -10 -1 15 5 5 9 0 7 5 2 -11 -10 19 -20 -68 -20 -4 -23 -12 -10 4 13 -7 -11 28 4 -11 -4 -2 12 2 -2 12 11 3 6 6 5 13 5 6 19 10 -6 0 10 3 0 29 7 -63 0 -3 -10 1 7 2 13 12 0 -6 3 -5 -7 -11 -2 -4 -10 -6 -11 -13 -8 -12 2 5 4 12 0 -2 5 23 17 1 10 17 25 -49 -34 2 18 -6 11 0 1 15 -7 -2 4 -22 -18 1 -5 1 8 15 12 -11 -17 -2 -1 -5 -12 -5 0 -11 -8 -3 -10 4 -2 -9 -6 13 -29 -18 -2 -17 -7 -1 3 -8 0 6 -8 -4 4 -3 1 0 0 0 1 6 0 6 0 0 4 2 6 4 2 2 -2 13 5 -13 -19 -19 -6 -8 7 10 -9 -5 9 4 -6 -34 -8 -8 -11 -12 -2 1 -8 0 0 -5 7 6 6 2 1 15 -20 -19 16 -3 -16 -1 -12 28 8 -26 -15 -3 31 -1 -2 3 -13 -5 -6 -3 -5 -10 3 10 1 -4 5 4 -3 -8 -6 -1 -23 -22 0 -8 -25 0 10 1 8 -9 -4 5 0 10 15 -11 5 19 4 6 3 3 0 -1 3 2 4 10 -17 1 -1 -52 -18 13 -12 -16 7 3 8 2 -12 -6 4 -6 -3 3 12 -8 13 19 -8 -16 -10 -17 -7 -18 2 5 -19 0 24 11 23 0 9 13 -2 -5 17 -6 -12 10 1 13 -3 4 34 -12 -1 20 -27 -1 -1 -6 0 -6 -24 -9 1 -11 4 0 0 6 -11 -12 0 -5 -12 -24 -10 -14 -6 9 -37 4 9 -13 -5 -18 -4 -9 -8 -3 16 11 0 0 -2 0 -1 -3 0 12 13 10 -1 -10 1 -3 -2 5 -7 1 8 -14 -9 -5 -1 -1 3 -1 -5 3 -2 1 10 10 -20 -22 9 -1 -17 5 4 13 4 6 13 0 1 10 5 0 -1 5 -8 -5 4 -3 1 4 2 3 3 -7 -5 0 2 1 11 6 11 6 4 12 3 5 12 -9 -2 3 4 11 6 -3 1 0 0 4 3 -15 10 11 -6 11 2 -5 2 3 -9 1 -2 -6 3 5 4 9 -9 1 14 3 -9 -4 5 -4 13 4 -9 17 31 -11 -4 11 2 0 16 0 -11 -8 -9 5 1 10 -1 -1 16 -25 -25 15 -9 -23 5 1 -1 10 6 6 7 -18 -18 -12 -5 -8 -10 -13 -48 8 3 -25 -1 14 0 2 -20 -31 10 7 -22 -6 0 -3 5 3 -6 4 3 -11 2 -12 -4 11 -9 13 -4 -2 16 -7 -6 0 -13 -36 -50 -4 -8 -9 0 3 3 20 4 26 11 -5 5 -9 -37 -22 -8 20 14 4 -19 10 -1 14 0 -18 7 -6 8 5 -7 -6 1 7 -5 23 28 -3 -3 18 -2 -3 3 0 3 5 -7 0 1 -7 6 22 -11 14 29 -14 3 22 -46 -17 -19 -19 -2 -7 -6 1 3 -4 8 11 0 -6 8 -2 -1 -1 20 -1 -1 15 1 2 5 6 -6 -2 14 14 4 0 0 0 -1 0 -18 18 -25 -2 24 -10 2 12 4 9 0 4 18 -1 -30 2 2 -19 -15 -14 -22 4 -8 -41 -13 -13 -43 -2 -6 -7 -1 -18 -12 6 -3 -2 -11 -24 -15 -6 -1 -26 5 3 -3 -12 -9 32 26 -9 -14 -7 20 0 2 -5 3 10 9 1 11 11 -14 5 -7 2 -5 -14 -10 17 24 3 -8 -1 -3 -16 -13 -13 2 10 5 -1 -13 -10 -11 -23 -9 -5 -18 -29 9 9 11 5 4 7 2 6 10 -1 -12 -11 -3 -3 10 -4 -1 6 -1 -4 0 2 2 3 -2 -4 -1 14 16 1 12 18 11 0 3 11 15 0 9 14 -19 0 27 -14 -1 1 0 6 -4 -8 -1 -7 -8 -4 12 -1 -3 22 47 37 10 11 4 8 1 8 -2 3 -21 -1 3 11 4 -9 5 22 33 33 9 35 7 0 1 -1 4 7 2 10 16 10 -1 -9 -2 6 -21 -19 -10 -22 -1 3 -4 -4 0 5 -12 1 14 -8 -6 -6 -2 -9 -7 -5 3 3 -1 -8 3 8 2 28 10 -4 8 15 0 2 0 -5 -2 -9 -5 -2 -5 -6 -16 -6 1 9 10 2 8 9 -2 -12 -7 0 -22 0 -7 -13 21 8 8 0 20 29 8 -4 -6 -21 12 9 14 -5 -16 0 8 -5 -5 1 0 8 -6 -1 2 -11 -3 11 3 -2 5 -6 -11 4 12 5 -2 -7 -11 0 -8 -12 7 -8 -12 -2 -6 1 0 -7 3 -1 -2 2 1 -2 1 -5 -1 4 -1 -5 0 -4 0 1 7 -1 5 10 -8 -6 -1 0 0 -2 -1 4 10 1 9 -3 13 -16 -14 -2 20 40 -2 12 6 -3 -7 -13 -3 2 -7 -1 10 1 0 3 6 -3 5 7 -12 -8 -3 -1 -6 -9 -1 0 -1 -4 0 0 0 -2 -3 -8 -10 -13 4 0 -1 2 0 6 3 3 5 0 0 -2 4 7 9 3 5 5 0 1 2 2 5 8 -10 -12 -5 0 2 9 6 -1 -4 -8 -3 23 7 1 -7 2 3 -1 7 11 0 -6 0 -8 -2 11 1 -13 5 10 0 15 17 5 -1 9 -5 -17 -8 15 -3 10 6 -4 2 10 8 -3 22 39 1 4 6 3 -16 -9 0 -9 4 13 4 -7 4 -7 -24 -8 7 -12 11 1 -3 0 2 0 4 5 1 3 -6 16 10 -6 1 -8 -11 -18 14 -10 -9 -12 -3 15 10 4 -4 -3 -4 2 -3 6 6 2 10 7 -4 -10 5 0 3 15 1 -18 48 -3 12 12 0 -4 13 9 -21 -19 -2 -2 -12 -3 10 12 -1 -20 -8 -13 -6 -8 0 -4 -3 2 0 2 3 -8 -9 -8 -9 0 1 1 -2 -3 1 4 4 3 15 10 -6 0 0 3 -1 -7 -5 -11 -13 -5 -1 1 -4 8 7 -8 -13 -3 6 -13 -13 -6 -11 2 11 24 11 -12 -4 -16 5 9 6 3 0 1 1 -5 -3 -3 -7 14 -11 -24 17 5 -6 21 3 -11 -12 0 10 30 1 3 -6 7 0 6 4 2 9 0 -6 0 0 -6 -5 -20 -33 -4 -4 -11 0 0 -5 -1 -20 25 34 -10 -22 -12 0 -16 -10 14 -2 6 11 10 6 4 -7 -8 -3 -7 -4 6 23 28 -7 -5 -2 0 -1 -8 -8 0 -7 -5 4 0 -1 14 -3 -9 -5 -19 4 -5 -3 11 -2 0 16 5 7 2 -5 -11 3 9 -5 -17 -8 2 0 0 2 -2 2 4 -16 -6 -2 -2 5 1 11 2 0 11 11 5 -2 0 -12 -9 5 -25 18 15 -2 4 1 -2 1 4 -2 -10 -6 -4 -4 -19 -18 9 3 13 7 0 8 -7 4 11 -20 -1 -29 -23 21 10 2 0 2 3 0 1 -16 10 0 -3 -2 1 3 10 10 -2 4 8 -8 0 -12 0 5 -16 0 8 -9 0 -10 -7 5 -6 -3 8 5 4 -4 -7 -9 0 -2 -5 -4 0 6 8 2 -3 6 8 6 0 -2 7 -9 -5 -5 1 12 6 -3 3 1 -4 -14 -2 -2 1 -1 -15 -3 -5 6 -6 -5 14 -4 -5 3 -5 3 0 5 11 2 6 17 -4 -10 -2 -2 8 2 3 1 1 11 0 -4 2 6 13 -5 0 13 -15 -15 7 -15 -7 -3 -27 8 24 -26 -12 11 1 -3 -15 0 1 -14 -8 -1 -6 2 -6 -1 -3 -8 5 -13 -5 -4 -1 0 -3 1 3 1 0 -5 -1 -1 2 1 -1 0 0 -10 -2 11 -7 3 -1 1 8 10 -17 -3 5 8 -26 -14 17 -3 2 25 11 10 -1 -2 -8 0 0 1 -5 -2 6 -2 1 2 -2 2 3 1 2 2 5 0 4 0 1 4 -7 -5 7 4 0 -1 7 9 5 -6 -6 -3 0 0 -2 7 1 -3 6 13 8 7 16 -2 0 12 8 5 0 10 1 0 -4 0 1 -2 8 6 4 6 -3 16 -5 -1 23 -20 -16 0 10 3 5 11 -14 -26 1 -9 -12 15 9 5 -17 23 30 -22 -30 0 -5 6 -12 -1 5 -35 6 22 -12 9 -3 -7 3 -13 0 21 14 7 2 14 28 -9 37 45 -49 -30 0 0 0 -19 16 11 -24 19 16 -10 5 1 -1 1 3 1 -7 0 2 5 14 11 1 -31 25 18 -12 15 -4 8 24 -24 29 38 -52 -37 1 -5 0 -5 -6 -7 3 0 -9 -3 14 4 -7 1 -4 -14 9 15 -15 -1 -12 0 -6 4 -37 1 6 -12 -9 -28 -38 6 -8 -45 16 14 0 -3 -10 -11 0 -2 -10 -2 0 0 0 -10 -3 -5 -4 -23 -2 -7 -7 6 3 0 -11 0 2 3 10 5 2 23 15 1 33 7 -27 -7 -4 1 -6 -14 15 2 0 17 4 -1 -7 -2 0 0 4 -7 -8 7 -3 0 2 10 2 -6 5 14 3 -4 14 -4 -6 6 -3 -21 11 28 8 2 16 37 -36 11 56 -59 -26 15 -1 -1 -5 0 1 0 -3 -4 0 2 2 14 11 -10 -4 -3 -4 1 5 6 -8 -12 51 13 -18 -24 -4 0 -8 -5 9 3 1 1 2 2 -2 -1 7 -2 -2 0 5 -1 -2 -5 -3 1 -2 -4 -3 -7 -10 -5 7 4 -20 20 5 -21 -1 0 -1 -5 -4 -1 -8 -8 -4 -9 -9 -7 -8 -3 12 -2 -4 8 6 -7 -3 22 23 8 17 19 7 8 10 4 5 5 -1 0 1 3 -3 -1 0 -2 19 7 -7 2 0 -4 -8 6 -9 -3 -4 -8 -4 -5 -7 -5 -9 1 -3 4 5 5 3 2 6 2 -18 -2 15 4 8 10 12 0 -8 -7 5 -2 0 6 -1 0 -4 0 9 10 2 13 22 7 -2 1 -4 -20 -10 -10 -4 -9 -1 8 0 2 -6 -18 -12 12 -1 -1 14 1 0 10 11 7 10 12 3 1 2 -6 2 3 4 0 0 12 -1 8 2 -2 -7 -7 0 -2 -6 3 0 1 -5 5 -8 0 0 -13 -18 -20 -25 -2 21 -8 -3 20 -5 0 -15 -11 0 -8 6 2 -7 -2 1 -1 2 2 0 -7 8 1 -9 4 3 3 20 4 -1 5 -7 -2 1 -6 8 1 -4 -11 -4 4 5 -6 4 1 6 4 5 0 0 7 4 5 12 -1 2 7 -1 -2 4 8 8 7 11 9 1 10 10 0 0 0 -1 21 15 0 12 4 -4 0 -5 -5 -3 0 -12 17 41 3 -2 12 -9 0 -1 -15 0 12 -5 -3 6 -1 -3 -6 -4 -6 -5 -7 3 4 4 16 12 4 11 13 6 3 7 7 21 18 10 15 8 -1 0 -6 -10 30 21 6 23 16 0 9 7 0 17 20 6 14 12 0 4 -3 -6 -2 0 0 -6 -3 -1 -6 -6 -8 -2 -9 -11 -1 -3 -4 1 0 -1 -7 -13 -8 0 -14 -4 8 -3 11 -2 -2 0 1 -4 -12 -4 0 -2 -6 -1 0 -7 9 19 -1 4 4 -3 5 -3 -4 8 0 -3 -3 0 -13 -19 -4 7 10 4 0 -1 0 -1 -1 -1 0 7 4 3 5 6 4 7 5 -3 1 9 -1 -2 3 -2 1 -6 5 9 0 1 0 0 0 -15 5 -8 -19 12 3 19 6 -6 -4 -8 -19 0 6 -5 5 2 5 -9 -7 10 -1 -6 9 -1 -10 2 17 1 -1 18 -19 2 -18 -7 1 14 -2 -8 3 3 15 -5 -1 -2 1 -4 -2 1 2 5 0 6 32 30 19 29 19 7 24 11 2 1 -3 -3 0 -5 -8 0 3 0 -2 3 -9 9 16 1 2 11 1 -11 1 0 -12 4 1 -11 0 0 3 -2 -25 18 0 -25 -8 -7 -19 -3 4 6 -1 -4 0 6 0 -3 0 13 10 0 23 19 -1 -2 4 0 5 4 -10 0 1 -6 -3 0 -10 3 6 1 8 0 1 0 2 -7 -5 -4 -8 -8 -6 -8 -7 -4 -7 -5 -16 6 11 1 11 9 -7 -5 14 -12 -5 25 -6 -12 -2 0 -6 -13 -7 0 -7 -3 0 2 5 3 3 13 3 3 7 -6 13 5 7 5 3 4 3 -3 2 1 -4 -3 -6 -10 0 -6 -29 7 20 -31 -7 -6 -11 -4 0 -8 0 1 -5 -5 1 -5 -14 -12 -4 -9 4 7 -1 0 -6 0 10 4 -1 12 4 9 0 -6 7 14 8 -4 -3 7 12 1 5 4 -6 -5 -8 3 -11 -2 -5 -2 -9 -6 0 -2 5 0 1 -3 -2 1 -1 2 10 -4 0 -7 15 4 14 1 1 7 -17 -7 10 0 -5 -4 -7 -17 3 20 -13 4 -2 -6 20 32 11 27 45 17 2 12 29 0 1 20 -7 -10 4 -6 -1 -3 -4 10 4 -11 -8 13 1 4 -4 -1 -2 -4 -6 -18 -10 -10 -3 -9 3 -8 1 11 -21 6 -3 -8 -1 -4 -10 -8 5 -3 -2 -17 -11 -25 -14 25 -17 -1 39 -29 -27 -32 -10 -35 -27 -12 -35 18 -10 12 11 0 8 -8 -9 9 -21 -11 21 2 -3 17 9 -11 7 19 -21 -2 8 1 3 7 1 0 -2 -5 -3 -7 0 -8 0 10 -11 1 0 6 6 0 0 10 -6 11 31 -7 15 4 10 16 -14 11 -1 -31 0 4 -9 0 2 -4 -1 -1 0 -3 8 3 -8 8 -3 -3 7 -7 3 -53 -70 -44 -60 -73 -59 -21 11 -8 5 0 5 1 5 6 2 -2 -6 -5 -6 -9 -2 -10 0 3 -9 2 -7 -8 -4 -3 7 6 3 15 10 0 -1 1 -4 -12 1 3 -3 9 -1 2 2 7 12 12 16 16 15 -5 -10 -11 -6 0 -6 12 31 17 -7 -8 -12 5 12 2 14 28 10 -5 -1 2 0 1 -3 -1 -3 -6 -1 -4 6 -10 -7 0 1 -7 -11 4 -1 -7 7 4 0 -6 3 1 9 -2 7 6 5 4 -4 3 -7 0 1 7 -2 -13 3 -6 -10 7 -4 0 -2 -6 -11 -7 8 14 10 2 -4 0 -10 2 -2 -6 13 6 -6 14 1 -1 2 0 8 0 12 4 4 7 3 7 6 2 11 7 -6 8 0 -1 0 2 15 -23 -5 6 1 6 0 12 7 -3 0 -10 -22 -13 -12 -28 -49 -13 -20 -49 -3 6 -13 15 -3 -24 -3 -18 23 1 -8 -5 7 11 4 -3 0 5 -4 -6 -1 3 -3 -2 -8 2 17 0 -3 -5 -12 -3 -7 -7 4 6 3 2 -2 -8 9 2 4 3 7 2 0 -18 -6 -23 -35 -13 -10 -11 -9 8 2 -4 2 4 -9 -11 3 -10 -14 -19 -34 -19 -35 -25 8 1 -16 20 23 11 -8 -10 0 3 3 9 -32 -12 -8 -27 11 -5 -4 48 7 4 -4 4 3 -1 0 2 13 2 5 3 -2 -3 6 5 -3 17 7 -12 -10 -13 -21 -32 -27 -27 -53 -39 2 3 0 1 -1 3 -1 1 10 0 -1 3 -3 -12 3 2 13 2 5 15 16 3 5 13 -33 -56 -9 -14 0 0 34 40 16 -25 -42 -8 -6 0 -1 -4 0 0 -13 -19 -14 -18 -2 -21 0 12 0 0 7 3 -5 -4 -3 0 3 0 4 5 3 8 -1 -4 6 0 8 6 -3 3 5 10 1 0 2 -5 -11 -5 -5 6 12 11 -17 -13 0 -7 0 0 9 15 17 -24 -4 13 -32 2 8 1 4 0 -5 5 7 -10 3 2 3 9 0 -9 -21 -23 -10 -14 2 7 0 -13 10 -9 10 6 -56 13 -9 -4 -1 5 13 2 -4 -34 8 0 4 3 3 12 4 -3 -8 -12 0 -6 -12 -6 -7 -3 3 2 6 5 14 11 0 -1 1 -13 -24 0 1 -1 1 2 -5 0 9 2 8 13 -7 4 22 -7 5 15 20 9 5 8 8 -7 -12 -1 -2 -6 0 -5 11 -9 3 28 -3 -26 6 -7 4 0 -10 -16 24 -10 -23 2 -20 2 -9 -15 -2 -23 -13 19 8 11 -2 -7 -19 0 17 -12 1 8 -4 -1 0 -7 10 7 -11 13 2 -3 -6 3 -2 15 11 -16 0 -14 -16 8 -4 -21 -2 3 -18 -6 19 -9 0 0 7 -8 -13 -20 17 31 24 -6 -4 1 -5 -13 -5 10 3 7 3 6 9 7 2 4 -1 -4 -1 3 9 -3 -2 23 0 3 8 -6 -16 7 5 -1 5 -13 -11 -21 3 7 10 8 6 -4 -1 7 -1 2 10 2 10 1 -10 -1 14 7 3 7 10 4 -6 -10 -3 3 4 10 5 3 10 1 -8 4 11 4 10 -4 2 -5 -4 11 0 -15 0 -3 -3 1 4 -3 9 -3 1 18 5 5 2 -5 2 5 -1 2 8 4 -11 -4 3 -7 -1 -13 -12 14 12 0 -2 4 -8 -8 6 6 -43 -8 -4 -7 5 20 9 1 30 21 22 -4 -2 -1 -17 -10 9 -33 -12 -9 0 0 2 15 19 14 -19 -49 -16 -2 -2 -14 0 16 -12 15 18 13 0 -1 0 -16 -27 1 -15 2 2 2 8 5 -2 2 4 -10 -2 4 0 -1 8 -8 -10 4 7 35 -21 0 0 -11 6 1 -4 14 15 0 0 -11 -20 -3 2 -1 7 -4 -5 -9 -13 3 2 23 -17 -7 -47 3 5 14 -6 3 -28 1 27 -39 31 -15 -1 -11 -21 -4 -6 -36 -50 -7 1 1 -8 0 3 -4 -4 -3 0 -3 10 17 -12 -33 9 3 -42 3 -8 -9 -7 6 6 0 6 0 -3 -2 -3 5 1 11 9 12 17 -1 2 -4 2 9 4 9 -1 8 -10 -2 9 7 1 -6 0 0 -16 -4 17 19 6 12 22 -3 0 -6 -6 -1 -6 14 -8 -6 20 -19 -15 -4 -8 -5 -18 12 26 -2 12 14 10 0 -11 -11 -4 -23 -16 9 -3 1 4 -5 0 20 8 7 16 -12 -15 9 -3 8 -13 -1 -4 -9 4 -17 -37 7 17 -39 22 42 -37 -14 6 -7 -11 0 -3 -6 8 -4 -2 -3 1 -7 -5 -8 -11 -20 -17 -10 -19 2 8 -12 6 5 -22 -2 5 -14 -10 -14 -4 0 -2 5 15 15 17 6 -8 0 7 1 -11 -4 -2 4 9 -4 0 6 -1 -4 4 3 1 7 -5 -15 5 -7 -19 2 0 -3 -12 3 18 -2 -2 5 -8 -41 -19 -3 7 -11 3 14 -5 -3 5 -1 -8 3 15 -34 -16 13 -3 0 11 13 -5 15 19 18 1 5 18 12 0 13 -4 0 20 -3 -6 3 7 -3 -2 1 0 4 0 -8 0 0 11 -11 -18 5 -2 -5 0 0 -2 0 1 -2 1 0 -8 7 13 4 7 0 -5 5 -4 -14 3 -3 -10 6 -5 -3 -1 -11 5 -3 -12 -11 1 5 -5 4 3 -7 5 0 -2 3 1 8 1 -7 -2 5 -4 -1 16 -1 2 7 -17 1 0 -19 -12 -30 -28 -14 -3 8 12 22 32 46 3 9 1 9 3 -4 3 -2 -14 -3 1 0 -9 -7 0 0 -17 -15 -6 16 6 -15 -3 8 -1 -14 -14 23 -6 -17 19 -2 -33 10 -2 -13 17 -3 -6 0 -18 -14 -7 -1 3 -6 -4 -2 -3 3 1 3 2 5 2 -7 0 3 -3 0 10 2 -1 15 14 -3 13 12 2 -7 -10 -1 -8 -2 -3 -14 -6 15 16 -18 -4 5 -4 0 3 3 -2 2 1 -4 -1 -4 0 -2 -5 -4 3 0 5 0 1 3 -4 -1 2 -3 -7 1 5 4 -1 1 4 -1 -6 -2 -5 17 5 -2 12 -3 -10 2 -5 -16 -5 0 -16 0 5 2 5 9 6 -3 -2 -5 4 5 -4 10 9 2 -14 -5 15 -12 -9 17 6 -9 8 -22 -22 -9 -17 6 -2 -12 2 15 -6 1 -22 -2 -9 0 22 -22 -14 23 7 0 23 2 -2 -16 -61 -52 -25 12 21 -43 8 34 -32 -1 28 8 11 1 -9 2 18 -3 -19 -5 21 0 -13 30 8 0 -2 -46 -41 5 0 0 9 3 3 1 -5 -2 2 8 11 8 -22 17 0 18 18 -2 14 6 1 -6 8 1 -16 8 16 13 5 10 -8 0 5 -13 -3 1 0 -5 13 16 -14 10 8 9 -4 -2 3 -5 43 -13 5 -8 -13 8 -10 -22 17 15 -18 8 18 14 2 4 0 4 6 -1 -2 -2 -7 0 4 -4 9 28 -16 3 11 -12 0 2 2 1 -6 7 8 5 2 10 5 -7 7 -3 1 -4 -32 -13 15 -7 -1 21 -14 -3 -9 0 5 8 0 -5 15 6 3 7 -1 2 -10 3 3 -7 1 2 2 -1 0 15 21 22 18 -5 3 1 -26 -21 3 17 14 -3 -8 13 0 -13 -4 -1 -7 -7 -2 -11 -7 3 -8 -2 -3 -1 -2 4 -2 -23 -7 8 -8 -5 21 -12 -2 -22 23 18 2 16 2 0 -2 3 4 3 2 4 5 -7 -8 7 -2 -8 2 14 0 0 -5 -5 -7 -3 -3 -3 1 1 1 3 5 3 0 0 -1 -4 -1 -2 -5 -2 -2 -2 0 -1 -6 -5 -3 -7 0 5 4 -6 0 9 -2 0 33 38 -15 54 59 -8 0 0 -41 -7 -1 6 -5 -2 0 0 0 0 -3 0 0 -1 2 -1 -7 0 1 -1 -3 5 -3 -6 3 -10 -1 4 0 -2 -1 0 -2 1 5 4 5 -2 2 6 -5 -3 10 2 -2 4 9 9 8 -5 -3 6 -4 -6 2 12 12 7 10 10 7 11 10 9 -4 -3 5 -6 -6 3 -6 -8 0 -2 0 0 0 2 -3 0 1 -3 18 16 -3 26 26 -2 6 6 -11 -3 1 -4 0 4 -1 -5 -3 -1 10 1 -3 11 4 -4 10 5 -4 1 0 3 -3 -7 3 0 -2 12 -3 0 4 -6 0 4 -1 0 3 -8 -7 -5 -3 -4 -3 2 0 -4 0 4 1 3 6 2 -2 0 0 -4 -4 -1 -4 1 7 2 9 11 2 -1 -3 0 0 -1 -7 -4 -1 -2 0 4 -3 -1 1 -5 -4 0 -3 -8 -9 1 -2 -2 0 0 2 3 0 -14 18 11 -10 -1 -8 -21 0 11 -7 16 29 2 0 6 -9 -1 -4 6 -7 -8 4 6 3 6 -12 -3 3 -6 -3 3 -10 -4 6 -8 -7 -8 -3 -4 -3 11 9 3 7 15 0 24 35 6 7 11 -5 -37 -28 -7 -37 -25 -3 -14 -6 0 0 -4 -8 -2 -4 -6 -13 -10 -5 -3 -3 -5 -1 -3 -7 -1 -4 -6 0 4 -1 1 5 -2 2 3 -1 8 3 -7 16 14 1 8 4 -4 -3 -6 6 0 -5 6 1 -2 9 0 0 0 0 0 -2 0 0 -6 -2 4 3 5 4 -1 -2 0 -3 -6 -5 0 -2 1 3 -2 0 4 2 -1 0 0 -5 0 -3 -3 0 2 1 -3 7 0 -6 4 0 -3 -3 -5 0 0 -2 0 1 0 3 -4 -7 -2 -1 -7 -2 1 -4 -4 0 -1 0 0 0 1 -1 4 7 2 -1 -5 0 -3 -3 -8 -1 1 1 2 -1 2 -1 -3 0 0 -4 1 0 -1 0 -1 0 0 -2 2 0 2 2 5 0 0 2 2 4 0 0 3 -7 -4 3 -5 -5 3 -27 -25 -7 -32 -30 -4 -2 -1 10 3 1 0 4 0 -1 3 2 -2 7 3 1 3 0 2 2 -2 4 0 1 3 7 3 0 4 -1 1 -4 -1 6 -4 -3 6 0 2 9 -2 0 1 1 -1 0 -6 -8 -5 0 -1 0 2 -4 1 5 -4 2 -1 -10 -5 6 -1 -3 0 -2 0 -3 -3 1 0 -5 0 -2 -3 3 -1 0 3 2 2 4 3 3 3 -6 0 6 0 -1 2 0 0 0 0 -5 0 -3 -1 0 1 7 3 3 -1 13 -1 -12 -9 13 5 14 -5 6 21 9 5 11 5 -22 -18 3 4 6 -1 0 3 0 2 5 6 -10 -6 -4 -28 -27 0 -9 -3 6 3 5 7 0 0 5 -2 -2 2 -15 -1 -5 -39 -13 7 -20 -13 58 -6 -86 106 14 -125 63 0 -90 -2 0 3 5 7 -2 11 15 1 3 -10 2 6 5 3 8 1 -7 0 -5 25 0 -22 9 21 -4 14 2 2 1 7 -5 5 6 -14 -4 0 -1 1 -18 4 7 -4 -2 4 -3 -4 5 6 4 8 -6 -7 11 1 -3 -13 8 7 -15 9 8 -7 -2 -21 -16 0 -31 -5 10 -20 0 6 -6 -5 8 14 -11 -5 1 7 26 -4 -14 52 0 -35 35 0 -17 11 -4 6 5 -9 5 1 0 -2 3 3 2 -2 -4 -6 -10 -6 -10 -5 -11 7 13 5 0 6 -6 2 1 -7 -9 -2 -2 -1 6 0 -3 -8 -19 -6 0 -22 1 7 -10 10 10 0 7 4 -5 7 0 -10 -2 6 -7 4 7 7 4 7 -4 -17 2 -4 0 10 -8 -4 6 1 9 -10 -3 2 -4 17 10 -19 -11 -9 8 0 4 8 -7 11 8 5 8 11 1 -7 14 -5 -13 19 4 -5 -8 -15 10 15 3 21 18 -4 10 6 4 -6 5 2 7 4 1 -10 -1 1 1 5 10 7 -10 -16 -10 8 -2 -3 0 -6 11 -7 -8 -5 3 3 -7 21 10 -26 2 7 -11 -18 -11 30 -29 4 75 -3 -10 31 -2 -7 -3 1 -1 -3 5 0 -1 -15 1 15 -15 9 24 -13 7 21 3 10 3 6 0 -3 8 -1 0 35 -2 9 56 11 7 38 0 16 -17 0 2 -11 7 17 -14 -6 0 5 -11 0 6 -1 0 13 6 7 -18 -14 -2 -11 -15 4 -5 9 16 4 -2 -6 3 3 9 -2 -4 -4 2 0 10 7 -12 7 16 -2 0 3 -3 5 13 -11 -3 -6 -23 -1 8 7 3 10 6 9 -12 -11 -14 10 -7 -8 13 4 4 11 -3 -8 -1 1 11 7 -28 7 9 3 9 -3 -11 3 6 -12 2 -1 4 19 5 -5 -1 15 0 9 0 -8 -8 3 -3 0 7 -4 0 -1 -17 16 3 1 -6 4 14 2 15 -5 6 3 -2 5 11 8 11 -6 -23 -7 -85 -27 52 -112 -3 120 -96 -19 88 -2 -16 -7 -9 -1 2 13 5 13 6 0 -2 -7 0 15 -9 -4 4 -5 -8 -2 -9 1 5 3 11 12 16 0 3 4 -10 6 1 -2 3 3 0 18 12 5 15 -2 -12 6 -7 0 2 2 0 6 6 0 11 5 -6 11 0 0 0 -5 0 -4 4 -8 -1 16 -2 14 -4 -18 0 -1 -6 2 4 -6 9 0 -9 5 -10 -5 -13 -7 -1 -26 -3 0 -12 7 -4 1 11 6 0 0 14 -7 4 0 5 3 0 4 8 6 6 -13 -5 -2 -6 -2 0 10 5 0 -4 -11 2 -13 -15 1 -2 -1 11 -9 28 -14 3 36 -10 -13 -9 -24 4 6 19 1 2 14 11 9 19 8 21 0 9 17 -6 -11 -24 -17 5 2 1 4 2 1 -7 -7 0 11 9 18 4 9 10 7 6 8 0 34 9 -8 27 -13 -4 -5 2 4 4 0 4 3 0 -11 -8 -9 -3 -10 7 -9 -17 -3 6 5 12 0 7 10 -4 55 -10 -7 0 1 -13 -2 4 11 7 2 18 0 9 -10 -3 -2 -11 -2 -1 -9 -6 -3 13 5 -1 11 7 3 -1 -2 -1 -5 -5 -2 5 3 5 -3 -2 -2 -6 -4 -2 -5 0 -2 -6 -2 -1 12 -4 4 13 2 11 1 -8 5 -5 -5 1 -5 -6 4 -6 -6 6 2 -12 2 -4 -7 1 -6 -8 -11 31 1 -9 38 3 -16 7 -17 -10 -28 -9 0 -13 5 1 16 28 18 -8 18 5 -1 27 1 7 17 1 -8 6 8 7 19 5 -7 -7 -5 0 0 -10 -8 2 -5 -11 1 -7 11 28 0 7 28 -4 -1 -2 -9 -13 -14 -5 -19 -18 -6 1 8 -5 -4 4 4 -5 2 3 -8 0 -1 -1 1 1 4 11 0 -1 -2 -4 -21 -23 -4 -5 0 0 6 1 -2 -4 -5 7 -6 9 -4 0 7 -4 -9 3 0 -8 3 0 -4 2 2 -2 -6 -2 -1 -5 0 -2 0 6 0 13 1 -3 9 -6 0 1 -8 -1 9 5 -6 4 0 -9 -5 -5 -4 0 0 -1 0 0 -2 -5 0 2 3 21 0 4 11 0 4 11 0 4 0 -6 1 -6 2 0 0 3 2 8 11 0 8 10 11 8 -1 -1 -4 2 2 -2 2 0 -4 -3 0 17 0 16 7 -15 -4 1 18 22 17 19 19 0 10 -10 0 0 1 20 -2 -11 8 12 7 14 -10 -4 -13 -10 20 -7 -9 8 -2 20 32 13 14 40 1 -2 5 -5 -2 2 8 -5 0 1 1 0 0 4 -21 20 -26 -52 26 -12 12 12 -21 4 -10 -11 11 0 -21 2 9 7 -13 -6 -10 -11 -4 -5 0 -11 -5 -13 -1 7 4 0 2 -14 -5 2 24 -8 -8 41 -6 -15 2 13 -18 -1 7 -8 0 -9 -2 -2 -4 -13 -1 1 -5 6 1 0 2 2 -8 1 -5 -10 15 -11 -3 1 -8 -1 -4 1 3 11 8 -5 3 -3 -7 -9 1 16 11 0 -2 -5 4 28 -11 -3 25 -5 -7 10 0 -8 -34 -31 -15 -18 -11 -5 0 -4 -9 -6 1 16 -13 0 11 3 5 9 30 22 -5 18 12 -18 0 -10 0 -24 -10 -11 -16 5 -1 -15 4 1 -7 10 18 -11 4 11 -4 8 15 -12 10 -12 -3 12 -2 2 0 -5 6 4 -17 38 18 -2 -2 -14 7 5 5 5 10 -3 1 -9 -5 9 -2 -1 13 7 -6 -1 8 0 2 -10 -4 1 -15 -13 -6 -10 -3 1 17 -46 -22 14 -51 -28 11 10 12 0 8 16 -2 8 18 -8 -2 9 -1 -50 0 6 -103 -27 -3 -14 -12 34 0 -17 24 -18 -29 7 -14 -17 2 -4 7 -11 -2 11 -3 9 5 3 3 18 22 3 16 2 -23 -1 -3 -11 7 -2 -9 4 -9 -17 7 10 2 -6 11 0 3 15 6 13 -5 19 23 -5 -3 -18 -16 16 -3 -8 7 13 -18 -19 11 -17 1 13 -7 -4 -7 -7 -8 -15 -3 -4 -6 -5 -48 -21 4 -54 -25 10 0 11 19 -6 -24 -3 12 3 -15 -9 8 7 11 10 -13 -6 -1 -13 -1 6 2 -11 11 -19 -7 0 4 7 11 5 -4 -8 2 -15 -12 13 10 5 4 -18 -4 9 -4 6 18 11 15 -4 -20 4 -10 -38 11 12 1 23 7 -5 8 3 -10 2 0 1 4 0 -33 -9 0 -28 -1 4 -16 4 -3 -19 -2 11 5 7 -2 -30 -24 4 7 1 6 -8 -1 10 -4 -3 -7 -9 -15 0 -3 -20 18 -1 -1 -1 -17 -9 1 -11 -1 18 2 8 29 7 -25 38 4 -38 20 5 -13 -23 15 45 -58 7 86 -32 -11 30 23 7 4 1 -17 0 10 -8 6 -13 -11 0 3 1 -2 -5 -6 18 -15 -15 10 14 -16 -1 16 4 -13 12 -11 -30 39 0 -41 17 1 -14 1 5 7 0 2 7 -11 -10 0 -22 -9 12 -18 -5 26 -9 -9 6 -41 -2 27 -52 -7 34 -42 -8 23 -5 -3 -6 -10 14 10 -18 0 2 -10 -6 -9 -4 -6 -21 -3 -7 -12 7 0 -5 16 15 2 -4 -9 -1 2 -6 12 16 -9 -5 -6 -11 3 10 25 3 1 -14 -11 -11 -8 -2 -3 -3 2 8 -9 3 4 -6 3 12 -2 -2 0 -11 4 10 -4 7 4 6 -3 4 -5 -8 5 6 12 -10 -9 -8 6 -6 4 18 -1 11 22 -9 -34 32 -6 -42 12 -3 -21 24 -28 0 29 -4 19 4 -15 -15 6 14 0 6 -2 3 6 -1 -12 -8 1 20 4 -23 15 28 3 3 -15 -5 15 -2 -8 11 3 1 -5 -4 -9 12 20 -4 -5 -7 -2 -14 0 -5 -4 23 0 -10 13 11 -3 -48 -6 55 -61 -7 83 -61 -28 39 11 6 4 24 9 -31 -5 -12 -31 16 -10 -5 -18 -9 7 -5 6 4 9 3 3 12 1 0 -2 -13 -8 5 -17 3 -2 -18 7 12 -4 4 14 0 17 11 -16 3 -5 0 13 -1 -16 1 8 -32 -6 10 -4 -2 -20 -6 -5 -8 -6 8 9 -3 20 11 -8 -4 10 4 12 8 4 6 12 -2 -2 4 -14 -6 -1 -9 0 -8 -25 -13 -10 -34 -22 0 -6 6 3 -5 -22 -3 -6 15 11 -11 -16 1 2 0 -6 1 -9 0 4 4 1 -8 -5 -5 7 -5 -10 -4 -4 -14 -4 -6 -6 -8 -5 -1 -7 0 22 5 -2 6 -3 -6 -15 13 8 4 4 7 7 8 4 14 17 11 16 7 -32 -12 -10 7 -24 -33 12 11 6 10 -4 -1 -5 -5 1 -4 -5 -12 -14 0 0 1 8 6 3 2 17 12 -10 -2 -6 -9 5 6 -27 -8 7 2 -4 2 2 0 7 0 1 0 -1 5 4 -8 5 -1 4 3 7 -1 -4 0 -4 6 5 14 9 16 -8 6 -2 0 11 -6 6 10 5 7 11 4 -5 -16 -12 0 6 11 0 -2 12 5 9 20 -9 7 14 -11 -40 -1 -13 15 4 -35 -55 -36 -10 -18 -19 12 17 0 -9 -27 -19 -12 5 4 3 17 7 1 -2 -2 0 -1 -3 -7 -12 -9 1 -3 6 -13 -8 0 -7 -6 -6 1 6 2 5 -4 4 15 6 2 0 0 -6 -3 -8 -19 4 3 0 9 -7 2 3 -4 3 9 19 8 -16 -14 6 -26 24 -3 -9 6 -41 1 -7 0 -9 -7 -11 -10 2 6 6 0 4 0 7 -6 19 17 4 -2 -4 -5 -15 -16 -11 -3 4 0 36 48 32 3 -11 -5 -28 -59 -36 -63 -83 -43 -13 35 24 31 123 84 1 -2 -4 -11 -29 -16 -3 2 0 7 4 6 -7 8 7 4 7 -1 -4 5 -22 -27 37 -5 -22 11 -9 19 39 31 4 -4 1 -1 -39 -19 25 37 30 -6 -10 -8 -19 -40 -32 -28 -30 -20 0 15 -3 17 31 14 -41 -38 -24 -16 -4 -6 11 37 26 5 5 6 4 -4 3 0 -3 3 -1 -3 7 -3 -3 -8 12 7 -6 2 -6 7 0 1 3 -2 0 -2 2 3 -9 -9 3 0 3 2 1 1 7 2 4 -15 -10 -1 3 8 0 13 3 0 -5 1 3 -7 13 -2 0 0 -6 1 -4 -9 8 4 -12 -2 5 -1 9 -8 1 10 0 2 6 0 -2 1 -8 7 8 -4 50 65 44 12 1 -3 -25 -54 -44 14 22 4 -9 -12 -27 16 -4 -4 -3 1 8 -2 0 -5 -2 2 -5 6 6 15 -20 -53 -25 16 5 -5 10 0 0 10 9 -3 3 0 -6 0 6 -7 6 0 10 10 -5 4 5 2 -9 -11 1 -5 5 6 6 -23 -22 -21 -10 7 -1 21 51 39 14 13 9 1 -7 3 9 1 4 -7 -20 -11 -23 -26 0 -1 11 10 3 18 1 -3 3 -2 -4 6 -4 -4 0 14 0 -2 15 1 -2 13 -8 -17 -5 -41 -55 -36 3 7 0 5 3 6 0 0 -1 4 5 0 -15 -6 -10 -10 -4 -14 -5 3 -17 -4 1 -5 -6 0 -10 0 20 3 8 11 2 -4 -4 -11 0 7 -3 12 0 -4 12 3 -10 2 1 7 1 -1 -2 0 14 1 -13 0 1 13 17 15 -15 -49 10 -8 -12 -1 -5 -4 -10 -21 -27 -5 -28 -28 -22 3 -7 -23 -12 -18 -18 -17 -19 -2 3 9 9 5 -9 8 9 15 20 6 19 11 -12 4 -5 -40 -26 -20 -1 3 15 -3 0 8 2 15 7 -1 -3 -8 -9 -14 -12 8 18 8 -30 -30 -22 -15 -8 -36 13 20 -14 -11 15 -1 -13 19 -33 3 16 -4 15 -2 2 5 -15 -5 10 1 5 -6 -1 9 -39 -93 -24 -15 -12 9 2 22 -16 23 -46 10 2 -16 -13 9 -1 -9 -2 -34 23 7 0 8 8 2 8 -18 -35 -11 5 -2 17 0 6 -9 -15 1 -2 -8 -1 8 4 -19 10 -24 -53 0 7 1 14 9 11 7 -4 -5 -2 -8 2 2 -8 -9 1 -10 -19 7 16 2 7 -3 -6 5 -8 -19 2 5 0 3 9 -8 -7 -24 -40 -2 7 1 15 7 11 0 8 1 -7 16 16 5 -3 8 20 -33 -26 1 -1 5 8 2 1 -12 -4 4 -22 -4 -3 -16 -1 -6 -1 -8 -25 -2 12 12 16 0 2 0 18 -23 19 -9 -5 -4 0 1 5 24 15 -1 19 6 0 8 -6 10 -18 -39 -2 -1 2 7 3 4 8 3 -1 6 -2 2 5 -3 5 4 0 -1 -2 0 9 1 -8 -7 1 -31 -39 -6 7 1 13 1 11 10 4 -70 -3 -18 -5 7 10 2 13 -17 -49 -2 8 -15 8 -5 4 4 0 6 7 -7 0 0 -4 -11 -8 -4 -13 -1 6 3 -2 0 2 2 -4 -2 6 4 14 13 -14 -11 -13 -8 0 -6 0 8 -1 0 -17 -17 14 7 -9 -5 -13 -15 8 3 -1 20 11 1 5 -4 -10 -6 7 3 -4 4 -21 -11 23 -3 -3 2 -12 5 -20 -1 10 5 -3 2 -3 -5 35 -5 15 -2 2 -8 -9 7 -23 -3 27 -24 8 29 -6 -7 -4 13 -21 -56 12 -20 -27 0 0 -2 -1 -3 -23 3 -11 -8 3 0 0 0 6 11 -10 19 20 0 -1 -3 -8 -5 -8 -7 4 13 1 -10 -21 2 -7 39 -44 14 26 -1 9 5 15 13 -20 20 10 7 -5 2 -4 4 -35 -31 -15 -2 4 4 3 10 -6 -4 -25 12 22 3 11 14 8 10 14 -10 -18 -17 13 12 7 0 2 3 -13 1 9 11 18 -5 -5 -1 -14 -18 2 6 13 13 4 3 -23 18 0 -7 16 11 15 2 -6 4 -16 -10 5 7 8 20 -20 1 -8 1 0 -21 23 5 -16 -5 10 0 -14 5 -12 -8 -2 -9 -4 -12 -5 -36 -49 2 -5 0 6 21 -2 -3 6 -26 -24 0 -9 -19 -3 -1 5 -4 2 -1 -2 2 21 1 3 9 -3 -21 23 11 16 33 10 12 8 -10 -9 -5 2 10 4 0 -5 -14 12 -11 -15 -2 7 5 4 -3 13 -11 -29 21 -8 20 -16 -19 -7 -5 -10 8 7 -9 5 7 2 4 13 3 -1 2 -5 -5 -7 17 11 -1 5 -3 -14 -6 -10 -7 -13 -3 -7 -17 0 6 -30 -27 -20 -7 -2 6 -4 1 9 3 11 18 1 -18 -8 -4 -18 -1 -7 -12 0 3 -1 4 0 -5 5 -8 -8 4 4 6 -1 -18 -10 -7 6 5 -1 -5 -9 7 -3 -6 0 2 3 7 3 -13 -15 5 -11 -8 0 -7 -4 -6 0 3 20 15 -6 -5 -4 -2 -13 -14 10 16 17 -25 -13 -5 1 -2 8 -3 -2 7 -4 3 0 1 -5 -9 -7 -3 -3 -2 0 -4 -4 4 -42 -56 0 -54 -65 -1 -28 -41 6 -1 4 0 0 1 5 2 7 -3 0 -5 6 10 -3 -5 2 -5 24 21 -2 26 17 -20 3 -8 -10 8 14 -17 33 32 -28 -4 -10 -34 -3 -2 -3 -17 -11 -5 15 7 1 11 -1 6 -5 -18 9 12 16 18 -10 0 -11 -1 9 -1 -4 10 7 10 14 1 -5 32 19 -22 -4 -3 -1 4 1 0 -5 -10 0 -10 -11 -16 -2 -6 6 16 2 -5 -3 -3 -24 -2 -7 -6 17 1 -15 -1 -16 13 8 -19 -7 -12 -30 -44 -45 -38 9 5 1 6 6 0 -10 -8 2 -2 -5 -14 9 5 -5 3 -4 -7 16 5 22 -8 -16 3 21 15 19 -14 -1 0 15 34 5 -6 -6 -5 0 7 -2 -5 -3 -1 0 3 5 17 9 3 13 13 3 -6 -6 -1 6 1 -5 12 6 -8 -6 -1 -1 8 14 -16 18 21 -14 -20 -11 -10 10 0 -4 8 -1 -1 10 4 4 1 -1 -8 12 5 2 11 15 6 -5 -8 -4 3 -3 -6 4 -1 -9 -27 -25 22 -8 -4 34 3 -6 -2 -14 -7 -4 -2 4 0 -11 0 4 -15 1 5 -6 11 4 2 2 4 -6 -1 -7 3 7 3 -12 -8 -1 -11 -1 -5 -1 5 3 0 3 9 -5 9 3 5 30 -1 -8 9 -3 -3 7 -5 8 20 -12 -9 0 -12 -6 1 6 -4 0 2 -15 -6 0 -1 1 -2 11 2 16 -6 -19 3 -23 8 0 8 16 -8 -5 -4 -3 4 -1 -1 -17 -13 -7 -30 -17 -14 2 11 -1 -15 4 7 9 4 12 2 1 -10 -1 8 7 -5 3 10 18 6 0 13 -2 1 1 1 12 -1 -4 -6 6 0 -4 0 0 -1 -7 -2 -11 0 13 -8 -17 -3 -13 -11 -28 -11 -21 -13 7 -8 -1 -11 -9 4 -1 -2 9 -4 -8 -4 -3 0 -5 -1 -5 -1 11 0 -2 7 -10 -1 -25 -1 -9 -50 10 7 -17 -3 -28 -13 -8 -35 -10 15 0 15 2 15 -13 -6 20 -14 -5 15 -7 2 1 6 0 0 2 11 5 -5 15 30 5 27 43 6 0 20 -3 11 -7 -6 12 -8 1 0 -11 2 -9 -8 2 -1 -12 20 13 10 9 6 5 11 -1 -2 1 2 -5 -1 -4 -1 -1 -10 0 1 6 7 4 0 0 5 -9 -4 3 -7 0 1 -18 0 -36 8 22 -50 -25 -2 -13 3 8 7 6 12 11 12 14 16 -20 -2 5 -11 11 7 0 11 -6 -3 0 8 -4 0 2 -4 0 1 16 12 7 -2 0 25 3 8 11 6 3 -4 -6 2 -25 -3 7 3 -2 2 0 -3 2 -5 -5 2 -8 0 2 -4 9 9 9 -5 -9 -11 8 9 1 -17 -27 22 -6 14 3 -8 7 -6 6 13 -6 0 -17 8 6 11 7 5 12 4 1 0 2 -20 -4 -6 -29 -6 18 -17 -8 -9 -1 0 1 -4 -2 3 0 1 1 -5 -2 -1 0 -1 -3 5 0 0 22 -13 -19 5 -30 1 8 -1 5 6 6 11 -7 -10 10 -6 -10 0 -13 7 -10 6 26 8 1 14 5 -14 7 -3 -25 29 18 -17 -3 0 22 16 19 18 6 19 6 -9 -2 -12 -17 -26 6 8 -43 -4 14 -10 4 6 -1 2 0 -13 0 0 1 0 3 -10 8 3 -25 -2 -4 -3 -26 -16 -34 -21 -11 -40 -27 -15 -28 3 3 9 -1 -3 6 -5 9 3 -7 0 2 -11 -5 3 1 2 2 -3 5 10 -3 -2 0 2 -6 -1 6 9 8 7 19 8 -16 -7 0 -15 4 1 -2 2 -12 0 -1 -5 3 3 0 8 5 4 -4 -3 -4 0 -4 2 -2 -13 0 6 -4 0 6 1 -4 5 2 2 -2 -12 -5 4 9 3 -1 -4 0 2 -3 -1 -3 2 -2 -4 5 -4 -10 -3 -7 7 0 13 -5 11 12 -4 21 11 1 -5 -4 0 0 -4 0 -1 0 -20 -12 15 5 -2 -13 8 -4 -12 -7 -12 -5 -18 -7 3 -6 0 -6 0 -8 -1 0 -5 -18 3 0 8 3 -2 -4 -6 -14 -15 -4 -15 -10 0 4 2 -4 0 4 4 3 11 -1 -1 -11 12 16 -15 -5 -3 12 -11 16 4 -9 -7 -12 -7 -4 -6 -5 1 1 -3 5 8 -4 0 3 9 -1 9 10 -14 13 -4 9 -10 0 0 -17 2 -7 -20 -2 -3 0 -12 -26 -8 29 0 -1 7 0 0 3 -26 4 -5 31 -2 -2 4 2 19 3 -10 -4 13 -2 3 3 -7 -30 -10 2 -33 6 5 -12 -3 -14 2 0 -6 10 10 2 -2 -6 -7 1 -4 0 -2 -5 0 0 0 -1 -20 0 16 -3 27 11 -6 6 1 -6 0 5 -3 0 -1 1 1 9 -19 -3 -1 -7 0 -8 -6 22 11 12 17 -2 7 8 9 0 3 8 -13 13 -1 -23 20 24 -2 4 7 8 -9 5 4 -6 -6 1 -3 3 7 4 -15 8 6 -25 0 -2 -7 -9 -3 -1 -1 0 9 0 -1 4 2 -8 0 -8 -10 0 -5 6 9 7 13 -6 18 -15 -17 -5 0 6 0 3 0 4 -4 -8 3 0 4 -9 -1 7 0 -12 -20 -4 2 1 9 5 5 -5 -6 -8 1 -2 -4 13 22 26 -12 -32 15 0 -9 6 -8 -4 0 2 5 1 0 3 1 1 -2 -2 6 -10 0 6 9 5 -5 -4 -7 4 -1 -1 4 4 0 -8 -7 16 -13 -1 0 4 13 4 5 1 5 -2 -44 13 3 -3 20 -1 -3 -8 0 -4 -3 4 3 2 3 -17 -10 4 -1 -3 -8 -11 -4 -7 14 -24 -4 16 20 -2 -29 9 1 2 0 12 -20 -1 2 13 3 7 -1 0 -5 -9 5 0 7 13 -4 13 0 0 19 -5 0 17 11 -8 -15 -7 10 -11 2 10 -1 -3 -2 4 0 0 9 3 -13 0 -1 3 1 -7 -9 15 0 -15 -12 -10 4 7 8 2 8 5 8 6 0 -6 -16 0 -11 -28 -10 15 16 23 -12 -10 -25 8 -17 -13 2 0 8 -7 9 -16 8 28 -8 -13 -7 -15 8 16 14 8 -23 7 -1 -20 13 -7 -3 3 -1 2 5 8 0 4 -9 -2 -1 -9 0 -6 -5 0 -8 -12 0 -7 -20 -16 5 -18 -12 4 12 5 -1 0 16 13 3 6 9 8 -4 -6 5 -1 -1 6 1 9 4 -2 -7 4 -7 -1 2 1 7 15 4 -5 5 -6 -9 -9 -14 0 3 6 -3 -1 -15 0 3 0 1 -1 4 -2 0 0 -7 7 0 -6 3 2 -3 -4 8 5 -9 0 3 5 -6 -4 0 -4 -1 3 -1 7 -1 0 0 -5 6 6 -2 8 6 0 -1 7 2 -5 8 5 2 11 -1 0 3 8 7 -12 8 9 -3 -1 -3 0 6 4 2 -7 -7 -5 -12 -11 5 16 -8 4 7 -2 -8 11 1 -3 11 -6 -9 8 -13 -11 7 -2 -16 6 -1 9 -10 2 0 0 -3 -8 -16 -22 -16 -14 -14 -1 -2 0 3 0 -4 -5 -13 -10 0 -19 -4 0 12 10 0 0 -11 1 -13 3 -12 -19 -2 0 -27 -9 1 7 -2 0 3 -11 -4 6 -7 -2 -21 -19 10 -27 79 -8 4 7 -36 0 7 14 0 2 3 4 4 1 -7 2 -3 -28 6 11 -42 -2 2 2 22 5 9 -71 -18 4 3 15 1 19 0 15 -36 -18 -2 -3 7 -8 -27 -15 -32 -79 -41 -20 -29 -16 3 0 2 0 -11 -4 -3 -7 -2 12 5 -4 5 -26 -11 8 -20 -7 0 16 0 7 4 5 9 2 6 -1 -3 4 6 -14 15 2 4 12 -1 4 4 -45 -7 1 -20 1 0 6 10 -1 15 18 -7 12 14 3 -6 -15 -28 8 -6 -20 1 1 0 3 -10 4 -13 -51 12 -6 -18 8 -6 21 1 2 12 1 7 18 11 -14 5 -4 -5 16 9 -17 2 -5 6 0 7 7 -21 -3 12 -8 4 1 15 5 3 9 -6 -1 3 -26 -2 1 -13 -7 0 -14 7 17 2 5 15 8 0 13 19 -4 -6 1 -1 -4 0 -1 -8 0 -3 -7 0 -1 6 9 -7 3 -1 -8 9 3 5 5 4 2 0 -1 3 -3 -6 -6 3 11 -1 -2 -4 12 8 -9 -119 -150 -111 1 9 -11 137 163 91 -2 -11 -5 11 2 10 11 8 5 0 9 0 2 4 -4 3 12 7 -4 -7 2 -4 -12 -4 9 1 6 3 8 -2 -7 1 0 -1 2 -1 1 16 0 2 0 6 -18 -7 0 4 8 -7 -1 11 -7 -3 -4 -12 -14 -10 -2 3 10 7 4 7 0 10 13 8 -1 0 0 1 3 9 -11 -11 -18 1 12 -14 11 13 -4 -72 -74 -44 -23 -15 -5 35 52 27 -13 -11 -5 0 -4 4 8 8 6 5 2 -1 3 0 3 -3 -4 -4 -4 -2 1 -17 -6 -6 -5 9 1 4 5 9 -9 -3 0 -1 3 0 1 18 8 -7 0 -7 -5 -4 -10 2 3 -1 -2 1 3 8 7 11 1 5 -15 -2 5 -24 5 12 -15 -1 0 -4 -12 4 1 6 14 -1 14 10 12 1 -7 2 -3 -9 3 -5 -12 0 -12 -18 -5 -1 -9 -2 9 16 8 -4 1 3 -16 -20 -7 -28 -22 -3 -5 1 7 33 50 30 -3 -6 0 -6 -5 7 -4 7 2 1 12 1 -6 13 3 8 0 3 4 5 11 1 -10 -12 23 16 10 -26 -40 -18 -6 -6 5 20 37 35 98 107 43 11 -2 -16 -79 -107 -58 -3 -6 1 -2 -4 4 8 10 11 2 5 8 0 -4 3 -11 -21 -9 0 4 0 0 7 0 -10 -7 -4 -27 -30 -8 -10 -2 0 28 53 31 14 3 -6 7 7 0 -6 -2 5 -3 0 -1 -3 -3 -11 -3 19 3 0 0 3 -11 12 10 9 11 -3 0 -8 1 2 -7 4 3 7 16 -4 -2 -13 -1 4 -9 9 15 0 -7 3 3 -10 -4 5 -2 -3 0 4 0 0 0 -14 5 10 -9 6 28 31 18 3 0 -1 -24 -34 -18 -7 8 4 -16 -25 -14 17 17 0 1 7 2 -15 1 0 -2 6 2 -6 1 12 -27 -33 -8 8 -4 -3 5 5 13 7 12 -1 0 -10 0 0 -7 7 -11 9 -14 6 11 -14 0 0 8 -14 -7 0 -2 0 8 96 121 76 8 9 -9 -97 -128 -102 0 -5 6 1 -6 -3 -5 8 3 -4 -16 2 -19 -13 9 -5 1 8 -2 0 2 -6 -4 -5 4 6 8 -7 8 -2 3 6 13 6 6 5 -5 -11 0 -20 -24 -10 4 0 -7 0 -2 0 0 1 -10 8 8 -11 4 -11 -3 3 -16 3 7 -4 9 4 9 1 -6 7 -10 -3 1 -1 0 1 3 -7 -8 1 7 1 9 2 -2 2 8 3 -3 1 4 -4 0 -11 -5 -8 7 -2 -8 -4 15 -24 3 17 -47 9 32 -11 -1 12 -7 -8 2 -28 2 13 -3 10 9 2 -5 -8 -3 -11 3 -7 -5 8 1 -3 -8 6 0 1 -5 -10 -4 20 7 -1 20 3 -4 16 7 3 -5 -13 -3 3 5 -6 0 0 -14 -6 -8 -4 5 0 3 2 -3 0 21 17 -8 42 2 -9 27 -5 -24 17 -15 -2 18 -15 -1 -2 -23 8 -10 -7 1 0 4 1 1 3 -4 -21 -6 12 -35 15 31 -7 -8 8 28 -23 -8 -41 15 14 6 20 -13 3 12 -13 -10 45 1 -11 9 2 -10 0 4 0 4 8 9 3 12 0 -5 -12 19 3 -17 0 -1 -12 -3 -6 2 -16 2 12 6 0 -2 -3 -1 0 -1 1 0 2 0 4 11 -29 -15 -1 -25 8 -3 0 3 -1 -3 5 -4 0 5 -6 -12 -2 -15 4 -10 10 5 -3 11 -2 -10 -6 -2 -8 9 1 -4 -3 -5 6 3 -3 3 13 3 11 8 -3 3 8 -2 -1 22 -13 1 -1 -16 3 15 11 -14 15 -2 -25 12 -3 -16 14 4 0 -1 13 0 3 -11 -21 -14 -6 -14 5 7 -10 -3 -4 -10 -6 7 3 -5 1 0 6 2 -5 8 -3 -2 4 -2 -3 2 -7 -14 -4 0 6 4 6 1 0 1 0 1 -6 -13 -2 2 0 1 -1 4 -2 -9 23 -34 -13 34 7 3 12 0 -1 4 -10 0 6 -5 -7 0 0 0 8 2 -5 3 0 -6 -4 -7 -4 3 1 6 4 13 4 -1 -14 -5 0 -4 -3 0 -8 -12 2 0 -2 -2 9 6 0 4 0 0 15 4 1 13 -8 -23 9 6 -11 4 0 -3 4 3 0 2 -1 -1 -18 -9 3 1 -13 -11 0 -19 -5 -16 -25 -4 -40 -6 13 1 15 12 22 -9 -16 3 28 -10 14 3 -26 11 -6 -11 2 -1 -8 -4 1 -6 -21 -8 7 -58 16 48 -17 0 22 27 6 -15 38 9 -12 -8 -8 -15 6 -4 -4 13 2 -5 -4 -6 -1 -8 -7 3 -6 2 12 1 0 2 11 -9 -2 26 -22 2 5 -1 0 9 -1 -15 10 13 -24 -7 -17 -19 3 16 0 0 14 8 4 3 0 10 -16 -7 -7 9 4 5 2 -12 11 -18 33 -18 -9 36 24 3 -33 -37 -29 8 -37 4 35 0 15 31 -10 -8 -9 4 9 -4 9 0 -8 -10 -33 -7 -21 -6 23 4 9 23 0 -17 -3 -5 -17 0 0 -2 2 -3 -4 -8 8 3 -9 2 -8 -5 -10 -10 -6 7 2 4 -3 -7 -11 8 -3 -1 -1 6 16 0 -2 -4 -8 -8 4 2 -12 0 9 -6 8 -5 2 11 -5 5 -2 9 6 -11 25 15 -7 23 17 -15 -5 -26 -31 -2 -10 -10 1 -2 -1 -2 -11 -9 1 -7 -4 0 -19 -6 -5 -4 2 -19 13 -7 18 5 -31 -10 -28 4 -8 -8 5 5 8 16 0 2 8 -3 -3 -1 2 8 0 -11 -4 -6 -3 -11 -5 1 -4 -4 -2 -8 -4 -6 -2 -9 8 -18 -16 2 1 11 -6 -5 -7 0 3 -4 -4 -7 -12 0 5 7 -5 -14 4 5 14 15 4 -2 -2 3 0 9 3 0 0 -9 5 9 -3 0 -2 8 7 9 -13 15 -8 0 -18 -15 -10 1 10 -5 0 0 -2 -5 1 -2 1 11 2 5 -4 -10 6 11 -3 4 1 15 20 0 1 -65 -14 10 -4 7 -7 6 3 8 8 5 13 4 7 2 -3 -8 4 -4 -14 -4 -4 -9 2 -7 -2 -1 -17 0 -2 -11 -5 -4 -9 2 -10 -12 7 5 13 23 0 3 5 -2 0 3 -2 1 0 9 -2 -3 -16 -10 -1 -11 -7 -5 7 4 0 3 -1 0 6 3 1 -14 -8 -1 -4 5 0 10 1 -1 17 -11 5 4 -9 14 13 17 24 6 25 17 7 20 6 -3 -2 -7 -5 22 -3 6 19 -25 -8 -6 -13 -4 -4 2 0 16 14 -3 0 4 -11 -6 3 -4 7 4 -11 0 -5 -4 6 -4 0 -11 -9 4 7 16 -4 -15 -7 -11 -4 -1 -6 0 5 -2 5 3 2 11 5 -4 3 -2 -7 -6 -9 0 1 1 -8 -5 -9 7 13 6 12 1 -8 0 -2 5 0 5 0 -10 -4 1 -2 -2 4 -1 -4 4 3 2 12 8 1 0 0 -3 -2 -9 -13 -4 -2 -3 -2 -4 2 -2 -1 0 -4 2 1 -2 4 3 2 13 11 13 8 4 5 -7 -8 -7 -4 -6 -5 -2 -2 -2 19 0 -8 19 9 -8 14 11 -9 -6 0 3 2 0 2 -2 -3 0 -3 -1 3 18 12 -3 22 2 -9 12 7 17 -2 -23 -3 3 -8 0 7 0 -13 3 -7 0 3 5 14 2 -2 -5 -5 -35 -16 -2 -13 5 -6 -9 3 -7 4 7 -12 -4 -3 -17 7 7 15 47 8 -6 -10 -5 2 -12 -10 10 -37 -15 6 -16 8 -1 -1 -5 0 -4 -7 0 0 -2 -3 -26 3 -24 36 38 -8 9 -22 0 0 -9 2 -7 5 -5 -9 -16 -7 -4 0 -8 -5 -1 4 -1 -1 3 18 10 22 24 -21 2 -5 -2 3 15 -19 2 -4 -22 -6 9 9 0 -12 -10 -11 -33 -22 -2 -14 -1 -9 -2 6 -1 0 8 0 3 8 -6 -11 -1 -7 -41 -16 10 -6 -3 4 10 1 3 12 -10 3 4 -4 13 0 0 23 -11 -1 13 -14 -2 15 -18 6 14 -32 6 15 7 14 6 28 15 0 5 -2 -4 -9 -8 -8 -5 -8 -2 10 -2 -3 -1 -3 26 1 8 26 -36 10 15 -9 21 -10 -1 0 0 14 0 -3 -9 -20 0 -7 -1 1 -13 -5 -2 -13 -8 -2 19 1 -5 -1 -6 -10 7 2 9 16 -1 0 -13 4 -2 -3 -13 -13 -4 10 -14 9 32 -2 8 16 7 -8 -10 -2 -3 3 3 -1 -6 -1 0 -3 -4 -8 -9 -5 -11 -5 -28 -10 -16 -26 8 24 -10 4 -8 20 2 -3 21 1 -4 16 0 -2 0 -9 4 0 -3 -1 -8 -5 5 10 -4 3 8 -5 -1 0 -7 -2 -5 -8 5 7 -2 0 12 0 -5 13 -19 -6 6 -31 10 17 -20 8 9 2 1 9 1 1 0 -3 1 -14 -5 17 -12 5 29 -5 -10 1 -14 14 1 -17 24 -13 -8 13 4 14 -8 -2 4 8 15 3 2 -32 -10 -3 5 -10 -2 9 0 1 2 6 9 7 7 2 -21 -10 -18 -22 10 -9 0 11 -5 2 10 -4 -5 3 1 1 5 8 0 0 0 -19 -16 28 10 -5 47 -2 -21 -9 -30 -13 0 10 -9 7 9 -2 1 5 -9 -9 3 -12 21 31 13 13 6 17 9 2 11 -28 -12 -12 -30 -15 9 20 13 0 13 -2 2 1 -7 -7 -15 3 -4 -1 41 9 9 26 4 -14 -4 -7 -14 14 -9 -15 6 -5 -9 6 -15 -7 20 -2 0 13 -21 -14 -1 -25 2 5 -27 -13 -14 0 9 25 14 8 -11 -12 -6 0 7 6 2 6 2 0 0 -8 0 4 -1 2 5 -1 -4 1 -7 -11 0 -4 3 -11 -34 -14 -8 -14 16 0 -20 -8 -18 0 40 8 1 -2 2 9 11 5 4 -2 -1 -2 -5 -10 -8 -1 -2 2 3 3 0 1 5 7 8 3 2 -8 1 -5 0 -10 4 6 -6 6 -3 -9 -4 -4 0 -3 2 1 -3 6 5 4 7 6 12 9 15 4 -5 10 -9 -5 4 -2 3 1 -3 9 0 -3 4 15 -13 -15 -10 -37 0 4 -15 6 -3 -4 0 -4 -2 3 0 4 6 13 -14 -7 -3 -13 10 8 -7 -6 2 -1 -4 -3 -9 -10 -4 -16 -2 -15 -1 11 -2 -4 13 -8 2 21 -14 -24 -7 -31 6 36 -16 -10 1 -4 -8 0 -12 3 -1 -15 -10 0 -2 0 6 -3 -5 0 -3 -6 0 -12 25 24 20 25 -14 2 -21 15 -6 -14 -4 -13 -7 1 -3 -15 -3 7 0 9 10 1 -10 4 21 7 18 4 6 10 -35 0 11 3 -2 5 -13 -4 11 -10 0 6 1 2 15 -4 0 19 -5 -11 9 -2 -2 1 0 7 1 -3 -2 1 -3 -1 15 6 6 6 -4 2 9 7 15 32 2 -10 20 -29 -20 -7 -29 -8 4 -28 -3 -17 -30 2 3 -5 1 0 4 9 -16 1 -12 -6 -3 2 -2 2 1 -12 24 14 0 2 -20 15 5 5 16 -17 -11 18 -10 -9 5 -3 13 -8 -10 14 0 -5 9 -19 -16 0 -25 -7 36 -1 1 7 0 1 1 7 7 1 1 -5 -13 -9 -9 -1 0 -9 -7 0 -14 -21 3 11 -6 -5 -12 -11 16 4 5 -5 -20 9 10 -52 3 20 -10 -1 8 8 -13 -7 2 -4 -1 7 -2 -2 0 -4 -12 -9 -5 -11 -3 1 9 13 7 -6 4 19 -5 0 3 3 7 -5 0 13 3 -8 0 2 0 1 -9 3 7 -1 -5 -1 0 -3 11 6 0 8 3 -11 -6 -6 14 5 8 -11 9 -1 5 27 16 -15 8 3 -13 -7 -2 8 9 -4 11 2 6 -2 -5 0 0 1 0 -15 -19 7 7 -22 -9 4 -3 1 -2 11 -2 6 6 2 -6 18 8 1 0 11 -13 -61 4 17 -8 3 2 -3 -6 -3 -12 -9 6 1 0 11 25 -3 -11 10 17 -2 -4 -3 -5 3 -9 7 19 5 -1 -3 -15 4 9 6 -3 7 4 -14 -6 -5 -20 -6 7 -7 -7 17 1 0 0 0 2 6 0 0 7 6 1 1 -6 -12 1 0 -39 -14 0 5 6 -6 8 -9 3 2 5 3 2 11 13 5 -7 3 8 -3 -7 -9 -8 3 3 6 0 9 -2 3 0 -5 -5 -2 13 0 -31 -5 9 -2 -14 10 6 13 1 -42 -8 20 4 -7 -5 7 1 0 18 3 -11 0 -11 13 -4 -6 14 -9 -8 -4 -2 -3 0 0 1 0 0 1 3 -5 -8 -8 -11 6 10 4 1 3 1 -15 -3 5 0 -8 -22 2 17 2 3 -17 -17 12 9 -46 -40 -7 0 -6 -7 -5 0 9 6 2 0 -6 -6 -4 -5 -2 -1 2 3 -4 -4 0 0 -1 10 1 -10 7 3 -7 0 -4 5 6 -3 7 9 -5 4 1 1 5 0 1 7 5 -5 2 5 -6 2 7 -9 7 7 2 1 0 3 0 1 3 7 3 4 3 -3 -2 3 -6 6 0 -19 6 5 -8 -1 -2 -22 -2 -14 -24 10 10 0 -4 4 30 21 -47 -1 26 10 3 -20 3 5 -20 -15 0 -4 -19 1 -1 -11 17 -27 -79 -21 16 -5 0 15 2 23 0 -56 7 7 6 11 -8 -1 1 -15 -10 0 -10 -11 3 0 1 6 -5 -7 1 -1 -7 0 5 -26 -16 -6 63 -21 -25 -10 -12 -3 -33 0 1 -68 -28 17 -5 -5 15 4 5 17 11 0 12 4 -10 -23 12 2 -3 -2 13 2 15 3 -1 -3 6 19 17 -13 -32 -13 -9 20 44 -2 19 60 20 -12 6 -14 -5 -3 -1 0 -3 0 -6 -1 -3 3 11 -2 23 35 7 -6 -2 -27 -9 -6 4 -2 -26 -4 3 -12 -5 8 -5 1 -6 -62 -19 17 -9 6 5 20 -2 -10 29 -1 -15 -10 -16 9 5 0 -9 -22 0 2 8 14 3 -1 -9 12 11 5 13 14 7 -23 -3 -9 -11 0 -4 -4 -2 5 -18 -30 2 -18 -89 -27 -7 -16 2 -9 -9 -2 -5 -5 -1 0 -1 -6 8 -13 14 11 -16 -2 -6 -5 5 -1 -30 26 47 -54 6 -8 18 -23 19 23 13 -23 -17 -14 -8 -4 -2 2 5 -1 -1 -16 -1 -9 -11 -11 -1 -3 4 -5 -4 -4 3 2 -3 22 2 -1 -8 0 11 -13 8 3 11 0 0 15 8 7 21 18 12 -2 1 16 7 0 5 13 13 3 5 -1 0 3 -2 -1 1 -2 -7 3 4 2 -8 -20 -18 -2 -14 0 -1 14 4 -5 -10 -7 0 -7 -2 6 6 6 5 6 7 3 10 8 -7 -16 -7 -10 0 -8 -21 -17 -23 16 -50 16 15 31 1 -31 21 -7 -1 -4 -6 19 0 4 7 -11 -1 2 7 -5 6 6 -1 1 0 1 -8 0 10 3 -7 7 15 16 9 4 -4 9 -7 -4 0 -12 -12 0 -6 -16 0 0 -2 -1 2 4 0 -30 -60 -4 -3 2 8 -10 18 -13 1 4 4 3 9 -2 -3 1 -4 -3 7 -5 -43 -57 -26 -23 -14 8 -33 0 -19 -3 -15 -6 28 -1 25 -11 -22 -6 0 6 -1 -8 0 -11 18 1 13 10 -19 -3 -2 0 6 18 15 16 -4 -21 -9 -8 -20 7 3 7 0 -12 2 0 -7 -4 -9 0 -7 -2 1 5 7 -11 9 -5 -11 3 -22 -3 24 -9 -19 1 -21 -4 -9 9 -2 0 7 -4 0 0 2 -2 7 -5 -5 1 4 -2 -2 3 26 -10 -8 7 -22 -7 -18 -24 1 -9 2 -14 -11 1 5 14 -2 -8 -11 -5 -14 -10 -12 -2 2 2 13 -4 0 2 1 -2 3 5 -6 -5 -19 2 -2 -3 7 0 4 10 0 -2 4 6 7 -1 5 5 5 0 -1 1 -1 -6 1 11 5 10 8 8 -1 1 2 4 10 16 16 5 0 -1 4 8 -1 3 4 -2 -4 3 12 -12 -10 18 -4 0 3 -8 1 5 1 0 -8 -4 -5 -2 7 17 7 6 19 6 -4 -11 -9 -8 -4 2 -6 -4 -7 3 9 -3 -5 -3 -9 4 28 2 -21 -26 -22 4 1 11 -7 -12 1 4 16 0 2 -20 1 2 6 -2 6 28 -14 9 1 14 3 1 8 -4 -4 3 21 -11 14 -12 21 0 -8 0 -22 7 1 1 5 14 4 -9 -15 -23 38 28 0 7 6 -28 -18 1 -12 3 23 -15 3 -24 -6 23 -22 13 -5 10 0 0 -10 2 11 -7 -7 2 10 -3 -1 5 -2 -13 -11 -19 -2 0 3 -6 -5 1 -2 -3 7 -1 -4 11 0 9 11 -13 -7 3 11 35 -8 3 15 -2 -12 -29 -19 3 18 5 10 5 -6 -2 -6 -9 5 -4 8 4 6 11 -15 13 1 -33 -36 -6 -21 -37 -10 6 0 2 -8 9 0 -16 -15 5 0 -3 17 1 -12 -4 -2 -6 3 3 10 -1 0 16 10 -3 11 -1 -18 -18 -8 2 -8 0 0 3 -8 -3 3 -14 1 18 2 9 3 -6 5 -2 -3 -18 14 0 8 17 -19 -8 -29 9 8 17 2 -4 -13 -16 0 -11 -12 -1 2 0 0 3 1 -8 -17 -12 -3 1 1 -15 -13 -11 -22 -24 -26 8 11 21 1 -17 4 17 -4 4 -32 -29 -21 -4 5 9 20 32 31 8 12 7 5 -7 -1 1 -9 1 4 20 21 -16 -12 -6 -12 -7 0 -36 -37 -31 -37 -37 -32 -31 -30 -23 1 21 23 -7 1 -3 1 0 -12 0 8 19 -4 -10 2 0 -9 -2 7 18 15 -16 -28 -32 -2 4 -3 -4 18 10 13 -21 -7 25 9 -5 -18 -3 -4 -4 -28 1 19 4 1 -1 0 3 -7 -7 -3 -20 -28 -19 9 20 23 -12 -7 6 -4 -2 8 11 20 23 -18 -15 -8 -12 -11 -3 7 14 8 -10 -8 -9 1 5 3 15 -2 -1 5 7 2 9 -4 -13 13 23 21 -5 -2 2 -19 -21 -13 -3 -11 -7 -12 -39 -22 0 -16 -5 6 7 18 -3 -15 7 3 0 8 -4 6 -8 0 0 -15 16 20 0 3 0 -5 2 2 2 13 12 4 13 19 0 2 1 -21 0 -5 -22 1 12 10 -4 -12 -12 -16 -16 0 15 19 25 2 0 4 7 1 19 -11 -17 -2 -29 -53 -38 -6 -27 -13 -2 -4 0 2 1 2 2 -2 2 12 18 4 -3 -4 -12 -3 4 -1 5 13 26 0 -11 -1 15 -6 -8 2 7 12 -16 -13 -7 -13 18 20 -3 1 2 -9 -11 -6 11 4 5 -5 -1 0 -15 -9 -8 2 6 7 -2 12 11 -15 -8 -6 1 2 2 11 18 11 -2 -2 0 -7 -5 -1 -3 1 10 -10 -13 0 -4 -2 4 -15 -11 -5 -4 -1 0 8 19 13 -1 -2 -5 5 6 0 8 9 2 -4 -13 -3 -2 -14 -9 6 2 6 5 26 12 -3 -14 -8 8 -4 -10 19 15 8 14 11 7 5 -1 -1 1 14 10 -6 1 2 -9 -2 -4 10 11 5 2 -14 -10 5 -7 -16 5 15 -5 1 12 -20 0 11 -12 3 15 15 -8 1 3 0 4 7 1 12 6 -5 -1 -1 2 0 2 7 0 -1 -30 20 -9 -6 8 13 16 23 0 -1 -8 -25 3 -6 -24 1 25 39 -28 -22 13 2 4 10 4 12 -9 21 -2 8 18 9 4 4 11 -4 6 -9 -20 -3 5 14 7 22 33 -12 -16 1 -3 -9 -5 0 15 9 -13 -6 -5 -4 0 -1 5 29 2 -8 -5 -15 -14 -15 -16 10 -1 3 -3 -20 -2 7 0 4 7 20 2 7 -2 -14 2 -14 -20 -4 2 4 -19 3 5 -16 1 10 11 32 30 -16 -11 -2 -1 -6 -5 10 10 2 8 4 1 0 5 4 0 -1 -2 -8 -5 3 0 7 15 16 18 1 14 4 -24 6 0 -20 5 15 6 -5 0 -7 11 16 8 1 6 22 -1 -13 -11 -1 -17 -12 1 -10 0 -7 -34 -15 0 18 28 6 -4 -1 4 0 -8 -5 0 2 1 0 1 0 -1 7 19 1 0 -16 -10 -7 -8 -10 -4 -2 -2 0 0 6 -7 2 23 -4 0 -8 -9 13 14 21 9 4 13 20 9 11 0 -10 -5 4 12 8 -14 0 3 4 -1 3 1 -3 -3 5 -4 -4 4 -2 -8 -8 -13 11 -9 -9 12 18 -7 9 -7 -8 -11 -2 2 10 6 -3 0 7 4 -1 -8 3 -3 -6 -11 -7 0 1 0 -4 -17 -2 -19 -32 -3 10 45 -23 -30 66 15 12 -6 11 20 2 -11 -6 16 2 -5 -2 0 -4 -4 -1 3 -5 -9 0 -4 -10 3 2 1 -3 2 2 -1 -2 -6 0 10 2 -2 13 -9 0 -2 2 5 0 -3 10 6 -2 -11 -14 -9 -16 -9 10 -4 5 2 -4 1 7 -2 -8 1 9 -7 -6 0 3 -1 -7 -9 0 -12 -17 -8 -3 -16 -4 -3 8 -10 -3 16 8 7 0 14 14 2 2 20 0 -3 -12 -10 14 -10 -15 1 8 8 7 1 -3 8 -5 -8 2 -6 -5 21 6 -2 0 0 -6 0 2 4 10 9 1 2 6 -3 7 0 -5 -3 0 0 -3 0 -11 3 -3 -11 -1 0 4 0 0 0 -1 3 0 -1 -4 0 7 -7 -2 -2 4 -2 3 -8 -12 -8 -13 -5 -5 -9 8 3 6 9 -3 -12 -6 8 4 -8 8 1 0 -7 8 7 0 1 3 0 -7 -5 6 -2 -5 2 6 -1 4 9 -2 -3 2 0 -11 8 2 0 4 7 14 2 -12 -5 13 -13 -9 -3 0 2 0 7 1 0 8 2 5 10 18 -2 0 0 -1 0 -4 2 -1 9 0 -9 -3 14 1 3 26 16 5 7 -8 8 0 -15 -3 -8 -10 0 13 12 -8 0 13 0 8 5 18 7 -11 3 30 -7 -9 2 -3 -2 -7 -7 -11 -8 -3 -5 0 -10 -10 2 -5 -17 -18 -4 0 -3 -9 19 -18 