128 64 1 1 
4 -79 3 2 -7 8 38 0 -4 30 -1 3 4 9 14 2 34 5 -38 -12 1 18 1 41 -1 4 3 -77 17 7 5 65 -26 -96 14 11 -11 58 6 4 -6 1 0 -9 0 -129 3 -5 8 -1 0 6 -28 -16 5 -6 -2 16 -2 14 9 -42 3 3 0 0 -2 -2 -2 -10 7 -2 3 11 3 -1 8 -1 -23 -4 0 -7 -19 4 6 0 -4 3 -3 5 -27 -4 10 5 4 0 -1 2 3 6 -10 13 12 0 13 0 -3 11 3 -7 10 10 9 2 -2 0 13 0 11 1 9 -18 9 -2 4 -6 -19 -3 -10 2 -42 0 2 -3 -4 -16 4 -8 -4 -2 15 -8 -8 -4 16 8 3 3 4 -23 -13 4 3 6 5 -1 -4 1 1 2 -7 3 -2 10 7 0 2 -8 -10 -5 -3 -3 0 -4 16 13 11 4 -3 -2 -8 -4 2 -2 -13 -4 -26 9 17 8 -4 16 1 -10 7 7 33 -6 22 -1 10 0 -2 6 0 -3 -12 29 -32 -15 5 15 7 -9 -10 30 1 -28 -10 81 -30 -1 -3 -7 28 61 -10 -25 1 -35 -2 4 -1 -6 3 -12 4 62 -5 -12 -6 1 6 1 17 -3 -7 -5 13 -9 -9 -9 5 -6 7 8 -5 0 -9 6 -6 -3 0 -3 6 2 -1 -6 0 7 0 11 -6 25 10 16 13 -7 -29 2 -2 10 -18 -5 6 -24 -9 -9 -1 5 -4 12 -15 4 -6 5 0 4 -4 -11 7 12 2 -8 -43 4 10 -8 0 8 -15 -6 -25 12 42 8 -19 2 -9 16 -4 -3 -22 23 0 16 -10 1 12 16 -15 -8 -3 -17 31 -5 5 3 8 4 4 -33 -17 -2 1 0 0 -16 -6 6 -1 -1 8 2 -8 -8 7 13 -11 10 -10 -4 -11 4 15 11 0 -8 -3 0 -15 -25 5 -2 -12 23 22 -9 -15 -20 -4 2 37 1 13 -14 0 -23 -14 5 -5 -3 -2 11 -7 1 -6 -5 10 -7 22 17 -31 7 21 10 5 -14 -1 9 -24 -12 -19 23 9 12 6 -10 -16 14 6 10 -23 -20 0 5 4 -6 8 -11 3 6 0 -2 3 9 18 7 -5 5 32 15 -5 10 0 44 -6 -1 -2 7 -2 -5 11 -18 10 -6 -2 -4 -11 2 -5 -12 -14 -1 -5 -10 -11 -84 0 7 -3 1 -8 -14 59 7 -2 41 9 -14 0 -4 15 1 3 -19 9 8 -1 6 -1 4 1 -8 -6 -2 20 12 5 -9 5 1 15 -3 -5 -102 -2 -4 4 -6 -15 -5 -11 15 -4 -13 -29 -12 5 -2 -2 4 -9 -3 -8 -7 -5 5 1 32 -9 -33 16 28 -9 -1 -14 26 41 -7 -2 41 -2 4 1 13 -22 6 -29 2 -5 3 0 17 -10 1 11 7 -8 0 3 -3 -6 -20 -4 9 -8 -6 18 -17 2 5 -10 29 -14 4 49 -15 60 -24 -10 -2 18 4 -9 -21 -14 -8 7 1 -15 6 -12 -8 1 -4 -27 -30 14 20 35 -98 -20 3 -8 -11 -4 -8 -6 -6 14 0 0 25 -14 3 -16 16 0 10 14 7 -21 33 -8 4 -2 10 8 63 -14 31 17 -18 12 20 -5 -14 9 -10 8 -7 -21 0 -26 15 18 5 -4 -1 9 -4 -1 -11 -4 4 2 -8 -7 33 -18 6 8 -1 5 21 -4 23 -7 -21 4 -21 33 -45 -33 -58 -3 42 -1 14 0 8 0 5 15 58 -11 5 -2 3 -3 12 -10 2 0 -4 -2 14 7 17 10 -138 -6 -1 3 -4 -11 -13 -4 9 9 0 -4 7 -4 -23 0 1 45 0 1 -18 -2 -2 6 2 -73 9 -6 -3 0 -1 4 10 -8 2 -3 -8 -8 5 4 10 10 -4 -6 -12 -11 -3 -6 -2 6 -15 -23 9 -9 4 10 0 20 -6 -5 -8 46 11 -12 -35 9 -15 -7 54 0 -7 1 14 2 -6 -2 2 0 -2 -1 15 2 28 9 2 -13 -20 -10 1 4 7 -1 -2 13 -56 61 -7 10 -81 -11 -39 -23 86 -4 14 4 1 -3 -8 -10 3 -9 -87 -3 7 5 -5 -5 -16 -21 -3 13 -9 -8 -10 0 13 -19 -5 -6 3 -37 0 -27 2 -10 -3 6 -8 5 -8 11 -1 15 18 0 6 4 23 1 36 -10 10 1 9 -26 -17 1 -4 -3 -22 19 -9 0 -3 -11 -1 -11 15 -7 -7 -6 -10 6 1 -9 -5 12 -12 -30 -14 0 -21 8 -1 -5 12 -15 27 9 -12 12 4 2 -3 -12 17 28 -13 40 -18 -40 -8 6 3 -31 -5 11 -1 -14 -15 -5 20 -36 -26 23 37 -5 13 -15 -31 -18 -13 2 40 9 28 -12 -7 2 -46 -4 9 -1 -5 -10 -11 4 -2 -9 -73 -3 -22 25 -7 5 -8 7 -7 16 -1 0 -16 -2 8 -11 95 18 2 -23 1 -46 18 -65 28 12 7 -4 20 20 8 -2 1 12 25 -1 9 4 38 30 17 -17 0 -39 31 25 -36 -12 52 4 13 0 -15 -31 -2 -28 -2 -1 -32 -27 -18 -6 -2 11 -16 -19 -13 13 -6 -14 12 -4 -18 7 -25 10 27 -3 -4 11 23 22 0 14 0 7 36 -12 27 -5 1 -5 17 -11 -5 0 11 -62 -18 -5 6 -10 2 -28 -5 2 -11 7 23 7 12 -1 6 13 5 -18 -1 -23 -17 -6 21 3 1 -9 -10 -4 -7 0 0 -2 -1 11 -4 -2 -3 -3 13 0 2 10 -15 10 4 9 -15 32 6 0 -2 18 35 -22 -11 10 -13 -11 13 7 5 -4 -6 -26 2 -1 4 12 5 -13 15 37 -4 -4 30 -14 -5 5 -20 17 11 8 2 -4 -13 0 0 -9 -6 -8 9 -6 6 15 7 3 7 -2 10 1 -14 9 2 -25 10 -18 45 -34 -3 2 14 25 5 -42 -13 49 0 103 1 -1 5 2 -10 -8 2 7 -1 17 -8 -2 -4 -11 -2 -1 46 3 -16 -13 36 6 -20 1 -3 -2 -1 1 4 -32 -18 4 -2 -1 0 -5 1 5 4 1 -5 -1 -20 -2 -2 1 -4 2 -73 -2 -31 0 4 -5 13 0 20 -19 6 11 3 -15 9 -18 12 -1 10 -7 2 9 2 5 1 5 5 -20 7 20 10 1 -20 -15 7 7 9 9 -7 -2 1 -13 -5 8 -1 -6 -7 -6 3 7 7 -10 6 -6 4 22 10 5 13 -10 2 1 4 0 7 -19 -9 6 -12 -7 3 4 -18 -10 7 3 39 0 16 -12 -1 -42 8 6 15 6 4 5 17 -26 -20 -54 -3 -24 36 16 0 -2 -10 13 8 0 -70 -48 -4 -1 -24 -6 67 -60 -46 -16 -5 2 9 2 0 -14 0 3 108 -10 0 5 3 -2 -5 38 -2 5 7 5 -13 3 -6 4 -30 15 6 1 5 0 0 -3 -6 2 -6 -12 8 3 6 5 -4 -16 4 0 0 2 -8 -5 -11 -1 -11 -7 -11 6 -10 1 -5 7 -2 -2 -1 -18 -4 -4 -2 4 2 4 9 -1 -4 -13 3 21 -11 2 4 14 -13 7 9 -8 -6 -11 -9 3 1 -20 -4 0 0 17 -4 -45 0 -114 0 -7 -24 -24 -2 -31 -3 3 0 -1 -14 -5 -5 16 -44 1 -8 7 -21 9 73 -29 -3 12 28 -6 -8 20 -23 27 -4 -6 17 2 14 5 -25 -23 8 30 -1 8 -1 -5 2 -6 5 17 -12 -9 -34 -8 -5 0 -18 -5 -54 -1 0 -4 0 -13 -11 0 0 2 -6 -22 -5 8 3 -1 8 4 -10 -3 -17 9 9 -1 18 11 -7 -3 -14 0 1 0 7 -10 -11 3 0 -12 2 3 0 1 5 -11 -1 -1 20 -13 -2 -14 -27 -6 6 27 -24 6 -11 0 0 4 3 1 5 -14 5 1 3 -60 19 -66 16 19 3 0 -10 5 3 -5 18 -4 -4 20 1 27 12 9 -2 20 41 -1 -6 -52 86 13 4 0 11 2 7 10 -20 -3 11 -14 17 14 -15 11 -37 -19 5 12 0 8 -43 10 2 3 -20 -1 -67 22 -50 -1 25 8 -18 -13 21 -9 11 0 -6 2 -4 3 0 -1 -12 -4 -1 -9 0 0 3 3 -2 -1 10 -1 -5 10 3 5 0 -2 -3 -6 2 -3 2 12 -5 -1 2 1 1 10 4 -5 -7 2 -4 0 -8 6 2 10 -10 3 0 8 13 8 -6 -1 -3 10 1 5 16 -10 3 -1 11 -1 18 -5 -1 -24 1 1 -5 1 -6 -11 9 15 6 5 -2 12 -45 -4 -32 -6 0 -6 10 0 0 22 -19 6 24 -1 -8 1 8 -3 -3 8 -4 16 -18 -11 -14 11 -10 -15 6 4 -7 52 3 -2 7 3 -5 43 -3 -13 -54 -19 -7 10 -33 -4 -11 0 35 -7 -8 22 1 11 0 -3 6 -10 0 4 5 -14 -17 -127 -7 7 5 -2 7 2 6 1 -13 -22 -1 -7 -7 6 98 19 -5 11 -4 3 23 -3 1 0 -10 -4 5 2 -23 -4 6 -18 -2 -1 -3 -28 -7 0 -7 -8 14 -5 5 -8 -8 -22 1 -10 6 6 -12 78 16 13 8 11 -3 -9 5 12 6 -9 7 15 6 -63 -72 -2 30 1 -12 0 -6 -23 -34 -14 2 10 0 32 -41 -73 -51 -9 30 -2 3 -7 -3 7 8 -3 3 -1 4 24 -10 14 -3 9 -4 7 1 -24 -1 4 9 -4 53 13 7 -15 -4 -51 10 -4 -6 -1 -16 -9 -3 -11 -3 -10 19 -26 2 12 -3 -12 -86 -16 -28 -5 -14 -20 -61 -19 1 -5 -11 -6 -11 16 2 24 -9 4 9 4 5 8 -32 -29 -2 -3 -21 -4 -19 5 2 -4 -20 -6 -17 -15 -16 -47 6 0 -14 -34 117 -7 1 7 8 -29 -12 -18 -9 0 13 15 0 16 1 -9 41 -5 11 -4 -24 5 -5 -25 19 1 0 -32 -14 -6 4 -5 -3 20 -10 -10 5 -2 -1 0 4 -5 10 3 -2 15 -24 -1 -8 16 -14 -1 -4 -11 55 -5 -11 -4 8 -9 4 15 -13 -38 0 -23 -11 22 -7 -13 9 6 4 0 -8 -8 -10 -13 -1 15 -2 0 -12 5 5 9 -13 9 -21 -7 5 -10 1 -16 8 -2 -8 1 0 3 -1 14 3 3 -5 6 -2 1 -9 12 14 14 2 -9 3 6 -10 -3 -18 -4 -14 0 11 1 1 -7 -15 12 9 0 2 0 10 -10 12 -34 17 -25 -10 -7 -54 0 0 -1 0 -34 2 3 15 -35 3 11 -15 -3 14 -14 -33 -20 -20 12 -1 2 -2 17 -50 -10 -49 -1 41 1 -6 -4 -21 -14 4 -6 -2 -2 -11 7 2 4 -10 19 0 0 0 -1 0 13 -5 -16 -120 -25 2 80 -14 -22 14 0 3 -3 14 3 0 10 6 2 58 3 -14 -13 -14 -2 -34 4 67 11 1 33 -12 -22 -10 0 -10 1 -22 2 -6 14 -12 -4 16 0 0 -13 -70 41 3 -41 3 -15 20 -8 0 0 -47 3 -50 0 -85 -1 -19 17 -9 26 1 6 3 54 -2 -47 1 -39 12 -3 26 29 2 24 0 29 52 -1 5 -1 5 11 2 10 -94 14 5 23 0 4 -2 6 4 13 -4 7 -7 10 -11 0 11 3 -7 0 36 27 0 59 5 13 -69 -1 -5 3 -45 1 -69 10 -36 -5 9 3 34 -34 -21 6 -7 -5 9 -13 -22 -17 -36 3 -6 4 -87 -13 3 -6 2 -72 0 -9 -2 4 -23 8 3 -11 1 4 25 -12 -32 14 -7 -3 -18 29 -8 -3 -1 2 4 -3 10 10 8 -4 10 13 -2 2 0 2 -8 -5 6 11 2 0 -4 -42 -9 0 -4 5 7 -79 -10 14 0 -27 2 -23 -22 4 3 13 -9 -3 4 -5 20 -32 3 6 -8 -5 -6 37 7 0 -1 24 32 1 5 5 21 8 1 3 2 -7 18 7 -1 -5 5 0 -14 -5 6 16 -4 8 2 4 9 -4 13 0 3 10 -22 -58 11 8 -6 20 0 -8 0 -9 19 5 17 82 0 2 -7 16 4 -15 -2 -1 -19 0 -1 8 15 6 -9 19 40 -5 -10 -5 -5 -12 -5 -3 1 0 5 0 11 -4 -17 -2 -16 3 7 11 4 10 -11 -13 -1 -5 3 5 -5 5 -16 7 -28 10 -7 0 1 -1 7 -22 -3 -9 4 9 4 -5 28 -11 -6 6 4 -24 -7 -8 18 -1 -1 -24 13 2 20 -1 4 -12 6 36 3 5 20 3 5 -5 -1 0 1 5 -8 -1 8 4 5 2 -4 -12 13 -3 -4 19 -1 -11 1 34 -15 -4 14 9 -11 -47 -9 6 -6 -81 -10 -9 15 -10 14 19 3 -2 8 20 1 3 4 19 4 9 -11 1 10 1 2 -12 4 8 -1 10 0 0 -22 -4 -4 0 0 0 0 16 -2 -2 1 13 0 12 -2 17 -8 -11 2 16 -11 3 9 4 -42 5 -10 -2 90 5 43 -10 -35 2 1 17 17 -69 -13 -4 16 24 -13 8 5 46 -4 6 -46 -15 0 -54 -7 -10 -39 -1 -21 2 0 16 -6 8 -13 20 0 2 -9 -29 8 -4 -15 3 -4 -1 6 21 15 -1 8 0 -1 1 21 -8 -1 45 4 -19 6 -5 5 -10 -33 4 -6 -13 9 -3 8 9 1 -39 -11 0 -15 28 -1 -50 10 -103 8 11 -7 -22 4 11 3 2 21 17 9 -4 1 3 10 3 -38 9 21 9 0 11 13 7 4 -1 14 -4 16 25 11 -5 0 9 -3 6 -18 -15 -7 26 11 0 6 9 2 4 18 -7 35 8 8 4 16 1 -7 19 -2 1 5 -12 -19 1 14 5 17 -5 -7 -5 -13 -6 12 6 3 -16 57 -32 -23 3 -9 -2 -7 -19 67 -3 -8 -12 -12 74 5 4 -15 -23 4 -11 -42 -14 2 -3 0 -1 -10 -2 -6 6 14 -10 -12 -1 -9 10 -5 -16 5 -1 13 3 4 -14 -8 2 18 -17 8 -11 -73 -20 1 -56 -12 -54 3 5 -12 16 -8 7 16 17 -26 4 -6 4 -1 2 2 -3 3 -8 -2 5 -30 -19 5 2 21 0 37 -46 -53 -3 27 2 1 -3 8 -5 -1 1 42 -5 -8 11 0 0 11 21 8 4 -5 8 11 -3 0 23 -32 15 -2 72 5 -23 13 -59 6 3 5 7 0 -74 3 7 9 10 23 0 9 -4 19 23 9 -5 22 73 23 9 -25 3 16 -13 1 3 11 -17 -14 -4 11 5 20 27 -18 7 -6 -35 11 11 -37 10 -20 14 -108 -3 20 10 37 8 9 0 -18 -105 11 2 4 0 -11 6 0 15 -3 -11 -2 2 -7 -9 0 4 -2 -18 -4 14 -16 -5 51 -1 3 -8 5 4 -16 -104 19 -1 -32 2 -21 -1 -10 8 0 16 12 -8 0 -1 -8 12 -9 8 -6 4 0 -14 16 -2 5 8 -1 -5 1 -1 99 -9 -4 -3 4 10 5 -8 -40 -3 -4 -19 -10 -3 11 0 -8 6 1 0 -8 -5 33 77 1 2 5 -5 15 0 -18 -2 -2 15 -13 -8 7 -4 -107 -25 0 -26 -22 -8 -15 -3 -2 -2 1 7 3 6 9 4 0 1 -4 -5 9 26 -5 -4 -4 -6 -15 -5 1 8 13 -2 1 0 0 -7 -29 -8 26 -11 2 5 27 -4 5 0 9 52 -19 -21 -5 -6 -1 24 -5 -23 0 -5 -16 -10 24 10 1 0 8 -35 -3 -40 19 -7 19 5 -11 2 9 -5 15 6 -18 1 -5 -7 -9 4 0 4 9 3 5 -23 3 0 -4 0 -19 10 -1 -5 -14 -6 -1 -5 -10 -3 -15 4 2 0 -10 1 -4 -3 0 6 -3 -8 12 -7 4 -6 2 9 6 0 -8 8 4 4 -3 8 -1 0 0 0 3 12 4 -6 4 -13 4 -1 -1 -4 -3 -13 10 1 -1 5 -10 3 10 -14 13 -1 0 13 -4 14 10 6 0 -7 11 -8 11 10 3 24 6 2 0 -8 -40 8 -2 -9 0 17 -15 23 -61 -14 22 15 11 11 0 3 1 -2 1 -2 -11 -3 3 10 8 -4 0 -8 29 9 0 53 7 -36 -35 22 -10 -18 -43 4 -20 8 -4 -1 -11 -22 19 -17 4 5 -5 -7 -2 12 -1 3 22 1 10 -7 -4 3 1 3 0 4 35 14 7 -28 -10 1 3 3 20 -6 -19 5 86 -37 10 -12 -3 51 14 -32 -50 -1 -8 0 -11 6 2 -12 5 4 116 0 -1 1 0 0 0 -23 1 7 -1 6 -10 0 0 -4 -2 14 -4 -28 7 1 -1 -1 7 10 3 26 -4 -25 -13 -15 -32 2 3 10 -5 4 -10 1 -26 -9 5 10 10 -3 -4 -2 -12 -10 -4 3 -2 -6 0 3 7 -13 -32 4 15 -30 -13 24 3 -20 -11 0 -14 -5 -7 0 1 -10 -10 6 6 -8 10 -21 6 0 1 1 4 -19 -4 -6 -14 0 2 3 -19 12 1 8 -2 -17 3 9 -3 -14 23 4 -2 -3 0 -10 -14 16 7 0 -36 7 2 0 -14 9 -1 3 5 14 3 5 7 1 5 -14 -4 7 0 0 11 0 -4 -1 4 -3 -2 -35 -11 0 2 3 -4 -15 3 6 7 8 7 -45 -41 3 3 1 -22 7 6 0 15 25 -98 15 4 -15 3 6 -8 -3 -127 14 24 22 4 7 7 9 -7 18 -16 -23 -37 -20 23 -3 0 5 1 -5 0 -4 46 -2 12 7 0 -4 0 -15 -1 17 11 6 25 2 4 13 49 5 5 -35 5 -4 11 47 -3 3 -27 0 -11 -20 1 -3 -29 -6 2 8 2 21 -11 -2 37 -13 8 -8 -4 -9 16 -2 9 -4 -4 2 4 11 -6 -3 9 10 -3 1 -38 -42 2 -14 0 13 3 2 8 -7 10 4 37 -4 2 -14 2 -5 -23 -4 15 -15 14 5 5 -3 13 -64 -28 -103 2 1 -16 5 -2 -5 6 8 -59 -14 -3 -19 5 12 -15 -5 -46 15 45 19 -55 59 2 3 4 -38 -46 -15 -70 -15 58 -3 7 -2 6 0 9 -6 -89 0 5 2 3 -8 1 31 4 8 3 -11 23 -2 2 9 30 -3 3 10 2 11 -11 -35 -9 5 20 2 -19 4 7 1 -16 33 -1 -19 -1 -6 43 9 -17 -7 21 11 14 46 -1 0 -30 -18 8 -5 29 68 2 -5 12 8 -18 -8 1 -1 3 -7 -5 2 0 12 -3 -14 7 -9 -3 11 -1 23 -34 -1 0 0 -9 -27 -3 -17 -14 18 1 -9 -5 99 7 4 49 1 7 4 -8 -8 -3 7 5 -62 -11 0 5 -4 -14 -6 0 -7 55 2 -1 -1 32 -23 134 71 96 -2 -96 4 2 -5 0 1 2 -17 25 10 3 3 -3 4 5 -24 -20 0 -4 -2 -2 3 2 6 3 0 0 -30 4 16 0 31 3 -5 4 -9 -4 -3 10 -10 -23 0 2 2 -10 9 -5 -10 28 -3 -1 -2 16 -10 12 0 3 -6 -8 -7 13 6 -5 -6 0 -6 9 8 -6 -20 -2 -15 1 -8 7 0 7 2 17 -3 11 -1 9 11 -4 -5 -11 12 -3 -5 4 21 -18 -8 6 2 0 -4 7 7 1 3 -5 4 30 0 6 -7 -12 0 -17 0 45 5 -4 -28 9 -7 6 -4 4 16 -14 1 -14 5 -8 -10 3 8 28 -5 -22 0 -35 -17 -2 6 -34 -12 7 2 63 6 33 19 -44 -4 -15 -1 -9 -69 7 0 26 -21 0 -4 -2 0 -2 -11 -17 9 1 11 1 -17 15 5 -5 -2 -7 -2 -10 4 -4 4 0 -9 -5 -16 3 8 -9 8 3 0 -4 15 7 0 0 2 -3 -7 14 2 3 -13 0 8 3 -13 18 7 5 8 18 -9 15 12 -21 0 -11 2 5 2 -4 -43 5 -28 2 -16 -15 -7 22 25 -11 19 -8 -2 1 -21 11 4 20 -11 25 -15 -72 -9 -13 -24 -63 44 -5 -3 28 23 17 1 3 -17 3 -1 0 -6 -9 -10 16 -17 -19 -6 -24 14 -27 4 2 4 -18 0 3 12 40 -13 47 0 26 -21 -21 -10 -9 8 9 -3 -6 -12 -14 7 37 7 -9 6 -4 -1 20 -14 1 -2 -2 -2 5 -11 15 -11 5 19 -12 -2 0 3 0 1 -10 -6 3 -8 -15 -10 3 5 -19 -4 -15 13 13 -32 0 11 18 -2 -2 -2 -41 -9 0 9 -15 -6 6 -1 -14 29 0 -14 7 8 -5 3 8 -3 -1 5 -17 -10 0 -1 0 17 4 10 1 -1 2 -3 -5 -1 -3 11 0 -2 5 -28 4 -6 -5 16 -7 -6 -1 13 2 -17 8 -2 -7 -7 -1 0 15 10 -3 -6 7 -7 -1 2 0 3 11 -20 -7 7 2 9 -1 -3 -4 7 23 -12 5 -18 -1 4 1 0 -7 1 5 -16 15 4 -13 -3 0 -2 0 -3 0 -3 1 -2 -2 6 3 3 -1 -6 -6 6 0 2 2 0 -2 0 5 9 -9 15 -7 -19 -2 -7 8 9 13 -5 -3 -3 2 0 0 -16 7 0 1 -4 -5 -4 0 -3 0 2 -5 0 18 5 -7 4 -2 -3 -13 2 0 -8 0 12 5 -6 -8 11 -2 0 -5 4 4 5 -4 -4 -1 -2 5 5 0 0 -6 -5 3 -3 2 15 3 2 5 5 -1 0 3 -9 5 -4 5 7 2 0 10 3 0 -25 9 3 7 0 7 -2 2 -15 1 -10 0 15 10 -3 -19 -3 -4 -26 -15 -2 -27 -9 -9 8 5 0 11 -16 15 0 8 -3 -23 1 5 10 10 -5 -11 15 2 14 -1 2 8 -8 6 -5 -9 -38 4 -17 7 2 12 -12 9 -10 -36 6 17 20 -6 -12 6 -8 -11 35 -3 -7 -5 -7 -25 0 1 1 -3 -1 -16 15 -13 4 -10 8 -3 -1 -12 0 4 -18 -21 0 -3 -4 -5 0 12 -14 3 6 -11 19 -3 0 -6 11 -8 8 -2 -7 -4 -4 13 0 0 0 0 9 -13 -3 14 3 -8 0 6 7 4 13 -37 -3 -3 7 -10 -8 -9 5 -5 -14 -35 1 13 -7 -22 -16 2 -9 0 3 -7 20 3 -9 -3 -2 -7 41 -5 -26 15 8 17 -5 3 4 -12 -2 0 1 -18 -7 3 3 -6 6 10 2 5 -2 -1 10 0 -6 5 3 26 -10 -6 5 4 7 -2 -7 -14 15 8 -4 -10 0 -11 3 -7 -5 11 -4 0 10 13 -1 2 1 -5 -17 5 -6 -1 -11 -5 3 -5 5 -2 7 -3 6 3 0 0 6 -9 1 -1 13 8 -5 -8 14 -4 19 -9 13 -11 -11 4 1 1 0 13 -15 -2 20 8 7 -1 0 -1 7 -7 0 6 -7 23 1 10 -10 1 0 -11 8 -65 -4 7 -1 80 -4 -2 -2 12 10 -1 2 -4 -10 3 6 -3 -17 7 -4 -7 -14 -43 -9 -6 -8 -24 31 -12 45 -21 -1 -24 -4 -7 -2 11 -5 2 -6 -4 -2 0 4 -8 -1 2 0 -9 0 0 -3 0 -3 -6 0 -3 29 -4 -1 0 1 13 -9 -2 -12 -3 4 -12 13 15 22 -3 -14 22 -3 -4 0 3 28 4 -22 9 0 -4 10 -1 -3 14 9 -1 2 -5 -5 -18 -11 13 -3 -1 21 0 -2 12 0 0 -10 -3 1 34 17 10 3 -8 -8 -7 20 2 -28 21 -4 0 6 20 -2 15 -11 0 -16 11 3 11 2 20 6 10 10 18 6 2 0 -4 0 0 6 0 1 -4 -8 5 32 -5 0 9 -4 6 0 2 -24 -12 4 0 0 18 7 -8 -1 -29 -17 10 18 8 -4 -5 0 6 -9 10 -7 11 8 9 -5 -9 -21 12 22 0 -7 -7 -28 3 -18 -2 -11 -10 -5 14 -7 0 -7 9 -5 -5 9 -7 -11 -9 -5 -16 3 19 23 3 -1 5 0 -3 -8 4 -11 10 16 4 9 3 8 -3 20 -13 -17 9 -13 2 14 13 15 -1 -15 3 -7 -7 14 -8 -16 30 18 -6 21 -13 4 -6 9 4 3 7 58 -9 -10 0 -2 -1 -8 -12 -7 -5 3 5 7 6 -6 -4 0 19 1 -2 -10 -15 -3 -7 -3 -15 7 13 -6 6 -5 -7 -5 14 -14 -1 -6 2 -10 -21 -9 -6 -3 -40 -8 -4 -5 -12 1 9 10 -7 -1 13 -6 3 -54 -24 -11 -17 -15 -2 -22 0 -23 4 2 22 32 13 8 -2 3 -10 10 -8 8 4 3 -1 -16 -11 11 4 -5 8 -10 0 3 0 -28 -9 -3 -5 8 -4 -10 4 7 6 1 13 -15 -4 -19 -2 -9 0 -11 -10 -12 4 8 0 5 -5 33 8 0 -18 11 -7 -8 -1 3 -5 -14 -19 -9 -4 9 -8 -8 8 3 -3 -1 -13 6 -3 -9 7 15 10 17 -17 6 -11 0 -4 -8 -19 5 -6 -7 -13 16 3 -8 -9 -6 0 6 2 12 11 -2 -18 0 5 8 -17 -10 7 0 -15 -1 -13 0 4 17 -6 -4 -7 -5 -3 3 9 0 8 -1 0 3 5 4 -9 10 1 -6 18 2 -11 1 -4 3 2 3 -10 0 -6 5 0 9 12 -3 11 6 17 11 -2 5 4 12 4 12 -1 -2 -16 -1 5 2 0 0 8 -16 -1 8 16 5 4 5 -3 5 2 4 1 -7 7 0 0 -1 0 3 30 -12 5 -1 14 -119 1 -2 35 12 3 -2 6 -11 16 -48 2 -48 -10 7 -2 -2 -15 13 15 5 -4 9 -18 -3 10 7 52 -37 -47 -2 1 5 7 -1 14 3 4 5 51 5 31 1 0 1 6 15 6 10 -10 -4 -3 0 2 6 31 -31 0 -13 1 -10 1 25 -4 0 -36 -15 10 -9 0 19 -39 11 19 6 15 10 0 -7 -13 -17 -6 18 16 5 -1 -6 10 3 10 2 0 -7 -4 -18 11 9 -10 -1 12 -29 -57 7 17 11 -13 0 -13 12 43 -4 50 -1 -17 6 -1 -7 5 -32 1 -4 2 -19 6 -24 -23 -49 -5 4 0 -4 -22 28 17 2 22 -14 26 -25 -20 -10 -2 -33 -4 -11 49 -7 67 -35 9 11 -16 0 0 -7 0 8 -10 -10 24 6 4 -8 -3 -12 17 49 3 27 -6 -7 24 13 51 2 -13 -16 -27 15 -38 -22 -17 40 8 -26 16 -2 12 -34 0 -1 12 -2 -16 -1 13 4 8 -1 -13 15 8 -8 0 -5 -32 14 -12 1 -6 -15 5 -14 -1 11 -29 6 -18 -6 3 -5 2 -9 3 -4 -9 2 -8 -13 -19 -1 6 9 -18 9 1 12 9 -1 20 -14 -24 12 -41 6 5 -2 2 0 -3 10 4 -7 -17 0 -3 -12 5 -1 -9 -2 -7 8 4 -18 2 0 -10 -27 4 8 6 -9 0 -2 -1 8 0 0 1 -5 7 -4 -4 6 -7 -1 9 -15 -4 0 -4 3 -3 -16 -7 9 -8 7 3 6 2 6 -13 12 -6 15 -33 -10 18 -5 0 -8 -18 -20 -12 -72 5 -76 14 6 18 -22 4 -7 5 -3 15 13 4 -6 4 4 39 4 -67 5 6 -1 21 19 -6 0 -29 -40 -2 0 0 26 23 6 8 10 1 13 -11 -21 -2 15 3 7 25 -8 10 3 10 0 9 3 -26 9 -8 -13 -17 12 11 9 9 -48 10 5 -5 42 -6 8 -3 -3 0 8 15 2 -26 -17 -4 -3 6 -27 -2 0 20 12 -4 -40 -24 8 5 7 -10 -16 2 14 20 8 -7 -1 11 7 -32 -8 9 -7 8 6 -8 0 -25 5 5 1 0 6 -42 0 -25 -8 7 10 4 -13 -17 -2 8 16 4 8 21 0 -2 0 -4 -2 -10 -1 11 -9 19 -23 6 2 8 61 108 23 5 -14 0 12 27 -6 -5 3 76 -15 2 -16 -5 0 41 -1 -12 -15 -11 4 0 14 -2 17 19 6 -3 -6 -2 3 11 -1 7 15 3 43 -19 6 -7 26 -199 -15 5 7 2 -7 20 -6 -37 -13 5 10 -60 11 10 13 -7 -5 -9 -6 3 -15 0 13 -8 -12 0 -3 16 -4 -2 10 0 7 -26 -18 22 -6 14 0 10 0 0 -9 -4 5 0 3 7 12 1 -7 15 5 -19 8 8 -11 -6 1 -10 6 -15 5 -3 -18 7 -22 -6 -22 4 4 0 0 1 11 0 5 0 7 23 0 -17 3 -7 9 5 -10 10 3 16 35 -13 -10 -4 -2 0 -14 -15 -4 -10 1 -3 -6 3 7 -15 0 6 -8 35 -20 -8 -6 13 -20 6 4 -48 9 -3 4 -35 -12 10 6 11 58 -10 -5 15 -1 -1 -11 -15 -14 8 0 1 15 -9 1 5 2 0 16 4 12 -4 -17 17 7 3 -8 0 7 25 6 0 6 -36 4 20 -3 4 2 -13 7 -5 -10 -8 3 0 5 7 3 -2 21 -3 -9 -1 3 18 4 2 12 7 -12 14 -3 -18 -4 44 -25 -1 -3 -1 -35 -7 0 12 21 0 6 11 -5 4 3 -1 -1 9 1 -7 -29 -20 -5 10 -9 37 -2 25 4 -33 12 -16 0 0 13 8 -16 -7 2 5 7 8 -5 -4 -11 -21 0 -35 0 -4 1 0 -6 2 6 6 12 4 2 12 -4 -8 9 35 -11 12 20 -3 -63 4 -79 7 -14 -5 25 4 15 0 -7 20 -36 -20 5 -8 -10 -15 -13 -81 -1 -20 -11 -97 -36 0 -1 -12 21 0 21 -18 56 2 -5 -2 12 11 13 24 -2 -13 3 -9 13 15 -5 7 -4 -4 14 24 0 26 -9 -9 2 4 4 -32 -1 0 11 -2 -13 -26 -10 0 6 4 29 1 -6 -8 -18 13 15 0 1 -12 -13 -11 -23 -17 -11 0 -1 -13 5 9 4 -18 14 3 -5 -7 11 -9 5 1 -1 3 63 20 0 -7 11 -5 17 18 -13 -6 0 18 0 -9 -2 -2 -7 4 -18 20 0 0 -12 -6 3 0 -26 12 -7 0 -7 0 13 -27 19 4 -3 -6 37 5 -2 -7 -30 -32 -24 1 4 6 -1 19 14 -5 4 -66 10 1 -6 3 0 0 -1 16 8 1 -9 11 1 7 3 -4 15 9 0 2 6 2 10 6 -5 0 -31 25 1 -15 -5 5 -5 7 0 0 -13 24 2 -35 5 2 3 9 5 -3 10 -1 -21 6 -29 2 15 12 -32 2 2 21 10 10 -13 -6 -10 -41 -4 0 14 -11 24 -1 -4 3 7 4 1 0 0 2 5 -14 3 -9 -2 7 9 -2 -2 3 24 0 32 18 -1 -5 -2 -3 7 4 -9 -9 -7 3 22 55 0 -4 0 2 -4 0 -1 5 -15 98 -8 12 -3 -13 -4 22 -3 96 -10 -30 -20 -5 -12 0 -5 18 31 -22 0 41 0 -24 8 1 14 -23 -17 0 6 -22 -2 -20 3 0 6 -11 17 -24 -2 -20 -2 -17 -7 -4 -19 -27 -12 0 11 -9 -34 -15 11 4 -2 -8 -3 1 -3 -4 -12 -19 19 -16 -8 2 9 -4 12 -8 -3 9 -13 3 4 5 6 -19 -7 -3 0 0 -5 -8 9 -7 8 3 2 -2 6 24 22 14 -5 -3 0 5 -6 -34 0 -25 13 43 -4 -3 -24 -21 -1 8 9 5 -5 -5 -14 -5 -14 4 5 -8 5 -7 -8 -5 -7 6 6 -8 1 20 3 -36 24 0 0 8 -5 8 -8 4 0 13 19 -15 -7 -10 7 25 6 -12 -13 -1 -19 6 -12 -6 1 0 0 -4 -19 5 12 1 5 -2 0 -1 -22 -4 2 -7 13 -25 -6 -1 -28 57 -50 4 -33 -10 -31 -8 -1 -45 3 -6 -2 3 -2 6 -53 -3 15 -26 -2 13 -2 12 -18 -1 -7 -33 20 10 0 -25 -14 32 -15 -71 0 22 5 3 -3 -4 -19 0 6 25 7 -2 -3 -6 5 5 -27 -3 -6 -11 -11 4 -1 -1 13 -25 7 5 -4 -3 0 19 -14 32 -11 -10 -4 23 -14 21 0 -17 32 -3 -7 -11 -4 -8 12 -31 20 3 13 21 -7 -5 1 -10 3 -4 -7 -3 -8 -7 6 4 5 -26 -15 1 0 -16 -1 10 -6 -5 -3 5 18 -3 1 3 -15 -5 4 -24 6 3 -19 7 27 0 21 0 -2 15 14 -9 4 0 22 6 23 -8 -26 37 -20 0 0 5 6 2 -20 51 7 -20 1 -81 2 8 2 7 10 0 0 -10 12 1 9 -9 0 -5 -4 -39 15 -13 -52 -13 14 14 5 -3 10 -15 1 4 7 12 -3 32 13 11 27 -8 3 -2 -9 -6 -1 8 -3 -2 3 -34 0 -4 15 -6 -22 1 -21 -13 4 36 -2 4 -18 18 12 1 -3 -16 -31 13 4 -27 -5 7 0 18 16 -2 -7 -1 -17 3 -1 -8 5 6 4 -9 3 -5 -73 3 -6 -8 5 -1 -52 -7 0 34 0 6 -5 31 -2 14 -86 11 -20 -6 -32 0 -4 -14 0 0 -17 -4 18 -76 2 -1 15 4 1 22 2 -106 -7 12 -23 11 22 -9 -2 23 0 10 0 -15 -9 6 -14 18 -1 1 8 73 -31 -3 66 -8 19 -58 7 10 3 3 0 39 5 51 -7 9 -4 17 -34 2 5 10 -5 20 11 -2 -32 -2 6 28 -4 2 0 3 24 10 17 -8 3 -27 14 32 -4 -8 1 0 7 13 -26 -1 -5 11 22 -9 -13 -1 -7 1 22 16 -2 3 -11 -8 -4 2 5 10 -13 4 36 -16 8 20 6 -1 31 8 -3 64 -9 3 12 -31 1 0 4 14 -5 0 -21 8 8 -2 -10 10 -1 9 12 0 -25 -4 -6 -9 7 -7 0 1 36 7 -6 4 -9 -2 6 4 -16 -2 0 -6 6 3 2 7 -4 -4 -10 8 -4 -4 2 -3 -5 -9 27 -16 3 -8 9 9 -10 -3 1 -18 -65 -18 2 6 -7 4 -4 21 -7 6 6 -22 122 4 -4 47 -2 1 3 2 -25 -17 -2 7 -10 -11 -3 -3 -3 -28 -6 -12 -11 -3 45 6 -6 -13 -13 -26 -11 -75 -10 37 0 -1 -3 -14 0 0 0 -52 -1 -2 -3 7 2 -2 -70 -1 8 9 2 -5 -1 4 3 -8 3 1 -4 2 -23 -16 16 -13 -13 -24 11 -8 -21 -5 -4 -10 -15 -22 2 3 -11 -18 0 0 0 -17 9 -11 -48 13 6 -20 -2 -10 0 1 31 6 14 13 1 4 1 -1 -7 -9 8 3 6 -18 -17 11 0 -4 0 -18 -15 -4 -23 -40 -4 -11 -13 -15 -2 7 -1 6 -16 -9 -7 -20 11 9 -1 -21 10 -1 -3 4 0 3 6 -11 0 1 -25 3 14 1 2 11 -5 1 5 -1 -19 -10 2 -8 10 18 -1 3 6 8 2 7 -2 3 1 0 11 -5 1 1 8 13 10 -7 6 9 33 5 -3 -1 -2 2 -42 1 7 -3 14 1 0 -26 2 -5 0 -9 -3 -13 13 1 -7 15 11 13 -10 -9 -30 11 5 24 12 1 -8 -1 -5 11 13 0 -4 8 1 -4 2 18 8 -3 13 -6 -12 18 -12 -2 19 3 9 1 -15 -32 0 16 7 20 0 3 11 -4 -6 -8 -15 9 -9 -2 -12 12 -2 -5 6 -3 -12 0 -9 0 -3 -18 7 -17 -6 -5 1 5 12 -6 7 -1 0 0 -13 8 8 -16 5 -6 3 -6 5 2 11 2 4 2 6 -3 -6 9 16 -2 -9 -7 0 -23 5 -2 1 -7 -10 10 7 -17 4 12 -3 1 -2 -9 11 4 6 -19 39 -48 -8 -3 -1 -21 4 -18 6 28 -28 -8 8 3 -9 -19 -27 38 -4 -5 7 -35 0 0 2 1 -3 0 0 -8 -20 -2 5 14 6 8 10 1 3 -11 -18 4 5 3 11 -1 -9 -10 -4 -12 -3 1 -8 7 6 6 4 -6 -15 2 -2 -3 -1 6 -1 -11 -7 -31 -2 -16 -24 1 -7 -2 -5 -9 9 22 -3 -10 6 -8 1 -2 14 4 -9 1 -5 -26 7 4 -2 6 12 -7 9 25 -5 -5 9 -8 -4 7 2 2 10 -7 6 4 10 7 4 4 -4 -6 -24 -5 -2 0 -4 8 -3 -14 5 -10 -2 -14 11 -1 2 3 0 11 -3 -14 7 20 -10 -5 -2 -11 1 15 -47 16 3 4 0 -39 4 9 -12 -18 15 -1 0 9 7 11 13 4 -10 -15 6 2 -1 1 23 4 -7 -9 2 0 -27 -19 -1 -4 -5 19 -7 -8 -15 23 -7 -3 -15 -12 -40 1 -10 13 20 -5 0 0 -2 -3 -22 15 7 -25 0 -1 -12 -4 2 -4 9 14 -13 9 17 -29 2 4 -4 3 -15 -5 -9 -2 -4 -8 -1 3 -14 -9 14 -3 -33 33 6 -3 -4 42 19 -3 0 -106 1 -85 -8 52 1 6 -5 -17 51 0 -14 -9 -3 -7 -9 0 -3 -7 -1 15 -6 11 3 4 14 -5 18 0 -6 21 -1 0 0 2 -2 13 20 0 19 0 -6 2 -5 -9 9 6 -7 -20 -17 -6 2 9 -4 -17 -8 0 -21 2 -9 17 -7 -2 0 -23 -8 8 -10 -6 2 9 -6 -21 4 11 9 11 -2 27 1 -1 -8 13 -111 8 -5 -26 6 -2 6 17 13 24 -73 3 -31 2 -4 15 -2 32 -2 14 7 -78 5 -5 -4 -7 -34 71 3 28 -6 -36 0 2 2 12 -7 1 10 -72 -5 0 0 -2 0 12 81 -11 3 -3 6 7 -2 2 5 -6 2 0 -2 29 20 7 12 5 0 12 10 9 0 2 9 22 -11 -4 21 7 15 -7 -7 19 15 -8 -6 -14 -2 10 4 0 15 4 14 24 25 14 -4 19 7 9 -4 5 1 4 19 6 -13 0 15 -6 -1 0 11 0 9 -1 -7 7 19 11 11 6 21 6 23 0 -20 4 -19 -12 12 37 6 -6 45 0 7 69 -7 20 -23 -9 18 21 -22 7 10 18 1 -44 4 -11 0 0 7 -14 0 2 -23 6 -36 11 0 -19 -4 -7 50 -15 -24 -4 12 -33 -18 0 -6 -9 1 -17 -4 -13 2 24 14 1 -3 -14 -2 -18 40 -13 -23 0 -4 9 -9 -3 6 -13 -8 -5 3 13 2 -22 -5 22 -2 -9 2 24 6 6 1 21 -8 2 4 0 -12 -3 7 -1 11 5 -3 6 4 14 -6 -12 11 -17 -2 6 0 -14 -8 7 -7 16 7 24 7 -47 -3 -7 3 -9 -28 -5 3 9 -3 -3 -10 0 -20 4 6 9 0 -8 7 -5 -15 3 1 10 7 2 6 1 6 -10 -3 1 -14 -8 29 10 -7 -7 -12 9 -4 2 5 3 -4 -2 7 12 -9 4 -1 -4 9 -6 -5 -7 -4 -7 19 3 -5 -3 -14 0 5 6 0 14 -10 8 15 7 -10 3 5 8 41 -5 -15 0 16 26 -16 5 8 -14 -12 -18 4 6 10 -12 -17 19 13 -31 -4 6 -11 -2 9 -17 8 12 -10 12 28 35 0 9 1 17 -3 -10 -11 10 -8 -17 9 -6 -4 -4 7 -6 14 -12 -6 1 -30 24 8 -3 -4 -77 25 9 -9 2 2 -3 3 -1 -4 3 3 3 1 -6 0 9 2 -4 -2 -6 1 11 -5 -10 -1 -6 6 6 4 -1 -7 -1 6 -2 -10 0 -5 -3 3 -3 4 -17 5 5 -4 11 4 0 -5 7 2 -1 2 -8 -4 -19 3 8 1 -2 1 3 16 7 -3 12 11 10 -19 0 -117 10 20 17 10 21 46 -18 -16 21 31 38 -26 -7 -17 38 5 -26 -3 52 29 43 37 -3 6 4 6 -6 -4 -20 -34 -24 -8 19 2 22 -1 28 22 -14 11 -17 10 28 6 -2 9 31 -2 43 -5 34 24 24 -2 8 54 31 -7 -14 -5 8 -46 27 -12 6 0 7 0 14 3 21 1 8 15 1 12 0 6 -17 13 -34 4 -39 5 4 -4 -4 -9 -3 3 17 5 -7 22 11 -8 1 -2 -13 8 -17 -2 -23 0 -7 8 1 8 0 7 15 5 -15 -13 4 28 2 0 15 8 -2 -10 -1 -3 1 2 0 0 0 3 3 9 2 0 7 5 0 0 -3 0 -6 3 1 1 -1 -7 -4 0 2 0 0 2 0 2 0 -1 -2 1 3 -7 0 6 3 2 0 0 -6 -1 -2 -10 0 -6 3 4 1 -2 1 -1 2 -1 2 0 0 0 2 1 2 9 -30 -15 -23 -28 -10 -6 15 -1 -16 6 -4 3 -9 -10 6 -37 -17 -1 -7 -14 3 -16 0 11 -22 -32 -6 0 8 13 -29 -13 0 -2 -16 -5 6 -11 20 -18 -5 -10 -9 -20 -23 -11 12 -11 10 6 -1 0 -6 4 0 15 -55 -20 -6 11 -23 0 1 -7 12 -13 0 -2 2 5 -7 -1 0 10 19 1 -15 -10 13 0 -27 10 -7 -12 -17 -26 18 -15 18 -8 -4 -13 4 -8 -8 7 -21 -8 18 -5 12 -10 16 3 7 0 -13 -3 -7 -6 19 -11 -1 9 -4 13 -3 2 -8 -14 -15 -3 -8 -8 -12 15 15 -1 -5 14 -5 -12 18 14 -2 -3 -11 17 5 -1 1 35 8 5 0 101 -8 -12 6 5 8 7 7 32 5 7 -28 3 19 0 12 45 7 -5 -4 0 -4 1 4 1 7 28 8 -8 6 7 4 0 0 0 7 12 0 -14 24 7 5 10 199 0 -6 -7 -3 -13 4 21 -4 -1 -35 -34 -8 -10 5 24 -11 -7 7 -1 -2 0 -10 -4 -5 -13 0 1 2 3 5 1 2 -4 3 7 -3 1 -1 -6 0 7 13 -2 -23 -16 -14 -34 -1 20 -4 -7 -1 5 20 -2 25 2 -14 4 5 -12 -1 -27 6 -17 6 